svm_type c_svc
kernel_type rbf
gamma 0.0384615
nr_class 10
total_sv 180
rho 0.00388603 0.00494662 -0.197433 -0.109598 0.0386326 -0.237287 -0.295418 -0.219064 -0.274765 -0.0056947 -0.203097 -0.131652 0.0446865 -0.273541 -0.189107 -0.227749 -0.25276 -0.200466 -0.11077 0.0512834 -0.26778 -0.18477 -0.222439 -0.247365 0.0669125 0.261282 -0.0529649 -0.0497462 -0.031479 -0.0367954 0.151041 -0.11899 -0.0494956 -0.101438 -0.0868648 -0.308 -0.269356 -0.25892 -0.346607 0.0732852 0.019629 0.0326106 -0.0533154 -0.0346573 0.0163449
label 9 3 2 6 4 5 7 8 1 0
nr_sv 25 23 18 18 15 21 14 17 16 13
SV
0.4624862780245865 0.5148611209040812 0.5317090970122287 0.4502173272921403 0.7092674384037524 0.3588832093687769 0.4604064266978131 0.3962338171323064 0.4726218856241886 1:4 2:3 3:3 4:7 5:5 6:2 7:3 8:4 9:5 11:1 17:7 18:5 19:3 20:2 21:4 22:8 23:6 26:2 
0.09653587514516039 0.07920073348603004 0.006618088174419085 0.1116124326001704 0.1165942987251493 0.08263175095032095 0.3105035109493193 0.09729146944410666 0.02548331086712884 5:5 6:5 7:4 8:5 9:5 10:5 11:2 12:3 13:4 14:4 17:6 18:7 19:3 20:3 21:5 22:8 23:6 24:1 25:1 26:2 
0.6235051994112931 0.657910844159201 0.5278822976264739 0.5495895333538399 0.7284782507018136 0.4846084179235804 0.4938844187450334 0.4817392483635973 0.4841177409426255 4:1 5:5 6:5 7:4 8:4 9:6 10:5 11:2 12:3 13:4 14:4 16:1 17:6 18:7 19:3 20:3 21:5 22:8 23:6 26:6 
0.3264130342311729 0.3064742872350982 0.06307512461656652 0.2679435799042827 0.1794867846691366 0.2605582522509721 0.116842527685426 0.2388296242028128 0.1715084502938674 1:5 2:3 3:3 4:5 5:5 6:2 7:3 8:4 9:4 12:1 13:1 17:6 18:5 19:2 20:2 21:4 22:8 23:7 26:2 
0.9883980582720027 0.990234924742544 0.7896564328588356 0.8771863885408356 1 0.7507572165736257 0.8863328533232024 0.7688860703877395 0.7553249817266614 4:4 5:4 6:4 7:3 8:5 9:5 10:3 11:4 12:10 13:4 15:7 17:7 18:7 19:4 20:4 21:5 22:9 23:8 24:2 25:2 26:5 
0.9280401136926828 0.9244261082609591 0.7276399927709302 0.8425217196455937 1 0.7019863360550621 0.651041707880553 0.7229722761217421 0.6686607283235559 1:1 2:5 3:4 4:4 5:4 6:6 7:6 8:3 9:3 10:4 11:5 12:1 13:1 14:1 15:1 16:2 17:6 18:6 19:3 20:3 21:6 22:15 23:6 26:6 
0.886686868191065 0.8814356677102609 0.829814642557398 0.7963168184992859 0.9210964530841288 0.666909113021189 0.7457584998879582 0.6863877847215109 0.6770275223200422 1:1 7:4 8:4 9:3 10:3 11:5 12:6 13:9 14:3 15:4 16:4 17:7 18:7 19:5 20:4 21:6 22:8 23:6 24:1 25:1 26:1 
0.6015347456026289 0.6125375931701311 0.3496251175463641 0.5566894681787684 0.8165584220500623 0.4517517451133733 0.8596389634276191 0.4715002585343717 0.3192162728061175 3:4 4:4 5:3 6:4 7:6 8:6 9:3 10:4 11:4 12:4 13:1 17:6 18:6 19:3 20:3 21:5 22:8 23:6 26:6 
0.4911683484827294 0.5294094381681314 0.6553577105930809 0.3761325230078491 0.4508877923205244 0.4189173737273693 0.7133217554342729 0.3119334796227856 0.7659040316738075 2:4 3:4 4:3 5:3 6:5 7:5 8:2 9:3 10:4 11:4 15:1 16:1 17:6 18:6 19:3 20:3 21:5 22:8 23:6 26:2 
0.7542872699324273 0.7331276804807255 0.8571429068776178 0.4842974238793403 0.8379593269258283 0.4496068122714414 0.520413825197962 0.4097808087353687 0.7749010855601953 5:4 6:4 7:3 8:3 9:5 10:5 11:2 12:3 13:4 14:4 17:6 18:6 19:3 20:3 21:5 22:8 23:6 
0.5203586915408515 0.4857383772304206 0.6354069604599237 0.4360171842701341 0.630035706175012 0.3708113858413863 0.9030041326037757 0.3661216239424661 0.4462619048180918 7:4 8:4 9:3 10:3 11:6 12:6 13:2 14:3 15:5 16:4 17:6 18:6 19:4 20:3 21:5 22:8 23:6 26:2 
0 0 0.1921989348128892 0 0.2506965636398469 0.007334570451787661 0.176789801051547 0 0 1:4 2:4 3:3 4:3 5:5 6:5 7:2 8:4 9:5 10:4 17:6 18:6 19:3 20:3 21:5 22:8 23:6 26:2 
0.7129552445617493 0.6802266640056013 0.6076411026585469 0.6705171403434778 0.732682711415098 0.5144643931528906 0.5236692137888925 0.5577452808897428 0.502826272137075 2:5 3:4 4:3 5:3 6:5 7:9 8:2 9:4 10:4 11:4 17:6 18:6 19:3 20:3 21:6 22:8 23:6 24:1 25:1 26:3 
0.3758269050154698 0.1952387822559009 0.2719439130062578 0.239736190441955 0.2507178012077697 0.1795607630794672 0.1342940156915217 0.1497273866524569 0.6047592154310815 1:4 2:4 3:3 4:3 5:5 6:5 7:3 8:4 9:5 10:4 17:6 18:6 19:3 20:3 21:5 22:8 23:6 26:3 
0.627820825621251 0.587855765575261 0.848476464691329 0.3873433724625234 0.5715410042129149 0.3595205057637095 0.7956232771590278 0.3206983941319586 0.8692424880610082 3:4 4:4 5:4 6:3 7:5 8:5 9:3 10:4 11:4 12:4 17:6 18:6 19:3 20:3 21:5 22:8 23:6 26:3 
0.6117970487681403 0.5503103236886657 0.4995382317850233 0.4825830860216482 0.6372433294593086 0.4226500963451681 0.5530021379399331 0.4258283379412867 0.576820894206138 7:4 8:4 9:3 10:3 11:5 12:5 13:2 14:3 15:4 16:5 17:6 18:6 19:3 20:3 21:5 22:8 23:7 
0.2444279840724136 0.3084453466426916 0 0.2545875693291692 0.1365565523146162 0.2278156476072052 0.1086055304878084 0.2419042320666862 0 1:5 2:5 3:3 4:3 5:6 6:5 7:2 8:3 9:4 10:4 12:1 17:7 18:6 19:3 20:3 21:5 22:8 23:7 26:2 
0.4213712099124228 0.4511362572810049 0.4480141798913504 0.3801894571330604 0.5724275400567715 0.3273963869764927 0.9232444421724497 0.3467606772055334 0.4892697987101061 6:5 7:4 8:3 9:4 10:5 11:5 12:2 13:4 14:4 15:4 17:6 18:7 19:3 20:3 21:5 22:8 23:6 26:2 
0.6250461957295173 0.5094400309239195 0.5672878044437056 0.4539818934160534 0.6388817161707482 0.4081523731123982 0.5841466385764353 0.3483602983931643 0.4385286923018168 4:1 5:1 6:5 7:5 8:3 9:3 10:5 11:5 12:2 13:4 14:4 15:4 17:6 18:6 19:3 20:3 21:6 22:8 23:6 26:4 
0.9881880976847495 1 0.7884480616290804 0.8696461409248951 1 0.745304223652801 0.6966128951988271 0.7624256631948857 0.7085939725978129 3:10 5:4 6:4 7:3 8:3 9:5 10:6 11:2 12:3 13:4 14:4 15:1 17:7 18:7 19:5 20:4 21:7 22:9 23:7 24:1 25:1 26:1 
0.5709912335527624 0.5772230233806837 0.8378688535598225 0.5179769531420317 0.7055280773716498 0.4375530697275957 0.5496099861180626 0.4518511830165123 0.5434273967074079 1:5 2:4 3:3 4:3 5:5 6:6 7:3 8:3 9:4 10:4 17:9 18:6 19:3 20:3 21:5 22:8 23:6 
0.3205145962013871 0.2289420632254455 0.5615949813241005 0.2139782242286563 0.5442281650480804 0.2452127989301044 0.4929175379910183 0.1668176925575126 0.135380231657143 1:4 2:3 3:3 4:5 5:5 6:2 7:3 8:5 9:4 15:1 17:6 18:5 19:2 20:2 21:4 22:8 23:6 26:2 
1 1 0.802925904255784 0.8907919039531293 1 0.7625089708428947 0.7048470759556956 0.7813908243005102 0.7253397784828511 1:5 2:4 3:5 4:9 5:8 6:5 7:6 8:6 9:7 10:3 11:1 12:2 13:1 14:2 15:1 16:1 17:7 18:6 19:3 20:3 21:5 22:8 23:6 24:11 25:8 26:9 
0.8040566777139668 0.8058583053739136 0.6534136769615412 0.7113791199593187 0.8210222744469556 0.6053141373417236 0.5337185493982993 0.623866517352844 0.5582835191813803 5:5 6:5 7:3 8:3 9:5 10:5 11:2 12:3 13:10 14:4 17:6 18:6 19:4 20:4 21:5 22:8 23:7 24:1 25:1 26:3 
1 1 0.8023501856516448 0.8903355476421814 1 0.7625265700506286 0.7079560482944548 0.7808739247902458 0.7256946165350953 1:1 2:1 3:1 4:1 5:1 6:1 7:5 8:5 9:4 10:4 11:8 12:8 13:3 14:4 15:5 16:5 17:7 18:6 19:3 20:3 21:6 22:8 23:6 24:15 25:2 26:1 
-0.3375677570112234 0.8101961645784873 0.4087226966242154 0.2806808794782094 0.4555317200974369 0.343511304007576 0.2764607866781892 0.2357225644071337 0.2855790702836188 3:5 4:3 5:3 6:2 7:3 8:2 9:2 10:2 11:3 12:6 17:4 18:2 19:3 20:3 21:7 22:7 23:3 26:2 
-0.9924633710408692 0.9899044883310287 0.8003630161692803 0.8637726809736782 1 0.7214887693243994 0.8105462676446299 0.7661139666000787 0.7455121761564045 2:5 3:3 4:3 5:3 6:3 7:3 8:3 9:2 10:3 11:6 14:10 17:5 18:3 19:3 20:4 21:8 22:8 23:4 24:1 25:1 26:7 
-0.7293303976258182 0.8350417835188649 0.5436174159775796 0.6194681075315687 0.8413670094555612 0.4916626388527071 0.5854378445990293 0.5045652407239472 0.523095787575074 3:6 4:4 5:3 6:3 7:3 8:2 9:2 10:3 11:3 12:5 17:4 18:2 19:2 20:3 21:7 22:7 23:3 26:6 
-0.8318671192062123 0.8207352744529702 0.6762157211909905 0.7209129201426464 0.85029401676662 0.5917979547562904 0.6675680569115954 0.6348341223822372 0.6411666496628728 7:5 8:8 9:3 10:3 11:3 12:3 13:3 14:2 15:3 16:5 17:4 18:2 19:2 20:4 21:7 22:7 23:4 24:1 25:1 26:6 
-0.3086146183199139 0.2003491045885856 0.2312306574752484 0.2613677065546624 0.4603483200474046 0.2196474044853861 0.2658948894347019 0.1593650054635668 0.1918141146230155 7:5 8:3 9:3 10:3 11:3 12:3 13:2 14:2 15:3 16:5 17:4 18:2 19:2 20:3 21:7 22:7 23:3 26:4 
-0.9284878596795255 0.8730532861400918 0.8176723839186876 0.9662894574653413 0.957472668439136 0.6389287584062633 0.7377014028289146 0.6720345981592977 0.7258022455814078 1:5 2:3 3:2 4:2 5:3 6:3 7:8 8:5 9:4 10:5 12:1 17:5 18:3 19:3 20:4 21:8 22:7 23:3 24:1 25:1 26:6 
-0.7906991231005084 0.7374452589974818 0.7087005580605718 0.7073049756136621 0.9405433872206278 0.6887664333841144 0.6319107926947259 0.5722575512665451 0.5842123191548428 1:3 2:2 3:2 4:2 5:2 6:3 7:3 8:4 9:6 17:3 18:1 19:1 20:2 21:6 22:7 23:3 26:4 
-0 0 0 0 0 0.03408759080895131 0 0 0 3:5 4:3 5:2 6:2 7:2 8:2 9:3 10:3 11:3 12:5 17:4 18:2 19:2 20:3 21:7 22:7 23:3 26:2 
-0.9105794158010515 0.9451847861683494 0.7806108365771479 0.9278671465775176 0.9817798536354091 0.6670691997840458 0.7806522759251346 0.6983372839194416 0.70365370248287 4:5 5:3 6:2 7:2 8:2 9:3 10:3 11:10 12:3 13:5 17:5 18:3 19:3 20:4 21:8 22:7 23:3 24:1 25:1 26:3 
-0.6806886239892278 0.7958401168159093 0.6828495584755355 0.5995887164984898 0.7174841626624031 0.462567790085297 0.5704669987222145 0.4855514921717525 0.6029036615122245 3:5 4:3 5:2 6:2 7:2 8:2 9:2 10:5 11:6 12:5 17:4 18:3 19:3 20:4 21:7 22:7 23:3 24:1 25:1 26:1 
-0.970639245527287 1 0.9663759066097002 0.8015379116867078 1 0.763555478529403 0.8424757238114706 0.6416361858064183 0.844527300652635 4:1 6:5 7:3 8:2 9:2 10:3 11:3 12:2 13:2 14:3 15:5 17:4 18:2 19:3 20:3 21:7 22:7 23:3 26:2 
-0.9936234657294754 0.9966673269745393 0.7952145146794269 0.8665485607906863 1 0.7489782135372212 0.8097107342757375 0.7702618532545665 0.7483979652770381 1:1 2:1 3:1 4:5 5:5 6:4 7:4 8:4 9:4 10:3 11:3 12:5 13:5 14:1 16:1 17:4 18:2 19:3 20:14 21:7 22:7 23:4 26:6 
-1 1 1 0.853722778381778 1 0.7190096098489894 1 0.7527644614051237 0.9068468824518382 1:1 2:1 3:1 4:1 5:5 6:3 7:3 8:3 9:4 10:4 11:3 12:3 13:4 14:5 15:1 16:1 17:10 18:6 19:6 20:3 21:7 22:7 23:4 
-0.7141744436382842 1 0.7324018044589198 0.6800414086875721 0.7301038544687366 0.6883431320376175 0.6098349273094366 0.4969700364355563 0.581502171178533 2:5 3:3 4:2 5:2 6:2 7:2 8:3 9:2 10:3 11:5 12:1 13:1 17:4 18:2 19:2 20:3 21:7 22:7 23:3 26:3 
-0.6656608002060518 1 0.6646829713802901 0.6349927853696178 0.8149197141221 0.5920053005642931 0.5904796009817489 0.5123435013775286 0.5696558745762776 4:5 5:4 6:2 7:2 8:2 9:2 10:2 11:2 12:3 13:5 16:2 17:4 18:2 19:3 20:3 21:7 22:8 23:3 25:1 
-0 0 0.08960976719832103 0 0 0 0.03788565909990749 0 0.138795153078856 7:5 8:4 9:3 10:2 11:2 12:2 13:2 14:2 15:3 16:5 17:4 18:2 19:2 20:3 21:7 22:7 23:3 26:2 
-0.995602836149405 0.9918272642309284 0.7943791012531951 0.8661509851982739 1 0.7245520615735918 0.8086092942122015 0.7701445780269264 0.745519258339343 1:2 2:1 3:1 4:6 5:4 6:2 7:3 8:3 9:3 10:2 11:2 12:4 13:6 14:2 15:1 16:1 17:4 18:2 19:3 20:3 21:7 22:7 23:16 24:1 
-0.6334752248780995 0.6172399546394544 0.5910224442100591 0.5220539584781451 0.8471107832174338 0.5185158023519305 0.5212046670985049 0.4628747386107883 0.4586374100594174 7:6 8:3 9:2 10:2 11:2 12:2 13:2 14:3 15:3 16:5 17:4 18:2 19:2 20:3 21:7 22:7 23:3 26:2 
-0.9029168697758783 0.8770962394477928 0.7329271066600684 0.7892924838852242 0.9206258743259674 0.6793645515206296 0.7325405546332405 0.6834358841864291 0.6725879928062315 1:6 2:9 3:3 4:2 5:2 6:2 7:3 8:4 9:5 17:5 18:2 19:2 20:3 21:7 22:7 23:3 24:2 25:1 26:4 
-0.4965589156635395 0.4111864850361115 0.6276852403115454 0.4120469236194136 0.5648066789023052 0.5062763863909873 0.3849326318785284 0.3115598822130683 0.3217337211032618 1:5 2:4 3:2 4:2 5:2 6:2 7:2 8:2 9:4 10:5 17:4 18:2 19:2 20:3 21:7 22:7 23:3 26:2 
-0.3691353253081507 0.3728060468344722 0.2185325156904771 0.3106265071892782 0.4397544375812976 0.24779897469503 0.2876843693930147 0.2945334725451378 0.3287771620500721 1:5 2:3 3:2 4:2 5:2 6:2 7:2 8:2 9:4 10:6 11:1 12:1 17:4 18:2 19:2 20:3 21:7 22:7 23:3 26:4 
-0 0.04920137940218949 0 0.03161378956985247 0 0.1079329417436066 0 0.03496859334553868 0 2:1 6:1 7:6 8:3 9:2 10:2 11:2 12:2 13:2 14:2 15:3 16:5 17:4 18:2 19:2 20:3 21:7 22:7 23:3 26:3 
-0.7303250887099091 0.7135195915241775 0.7100476896405178 0.5998622150005082 1 0.510631358738038 0.6738052743065482 0.4947502525340167 0.5786145376340984 3:1 4:5 5:3 6:2 7:3 8:6 9:2 10:2 11:2 12:3 13:5 16:1 17:5 18:2 19:2 20:3 21:7 22:7 23:5 24:1 25:1 26:2 
-0.8018571012662952 -1 0.7160632658077689 0.6383566788630372 1 0.5396545751080947 0.6942579353734204 0.5475614542485733 0.6171298287191797 3:4 4:4 5:3 6:2 7:3 8:3 9:3 10:3 11:3 12:7 17:4 18:5 19:4 20:4 21:5 22:5 23:2 26:6 
-0.4385990916310728 -0.8963163088882004 0.5168187001760708 0.3315612907316212 0.4508491336352099 0.5704601658951332 0.4696317483300833 0.2684176413327705 0.5778453752494966 2:4 3:4 4:3 5:3 6:2 7:2 8:2 9:2 10:2 11:6 12:1 17:4 18:5 19:4 20:4 21:5 22:5 23:2 26:2 
-0.654075619447957 -1 0.7514911195179942 0.5709665788314228 0.9362260124836559 0.765594195832166 0.5749205828051509 0.4934197491936926 0.6853529438637813 3:4 4:4 5:3 6:2 7:2 8:2 9:2 10:2 11:2 12:6 17:4 18:5 19:4 20:4 21:5 22:5 23:2 
-0.6092477658546184 -0.9357379342990758 0.5989940587782276 0.5513765882840931 0.8764532282499057 0.6587001455778926 0.5993070845885978 0.4736416744130857 0.6096187145243511 4:4 5:4 6:3 7:2 8:2 9:2 10:2 11:2 12:2 13:6 17:4 18:5 19:4 20:4 21:5 22:5 23:2 
-0.9954926279818234 -1 0.7990003904433765 0.8889218068276034 1 0.7311238712200395 0.8157100972147088 0.7769570193335891 0.7546363027846436 1:1 2:2 3:2 4:2 5:2 6:2 7:5 8:6 9:5 10:4 11:4 12:3 13:2 14:3 15:3 16:7 17:4 18:8 19:11 20:4 21:5 22:5 23:5 24:11 
-0.6020699797703325 -0.498449502650182 0.5356994136983685 0.5459612407605072 0.6469807110967818 0.4966511154776233 0.4523814205560911 0.4836566065107257 0.409900716594386 2:4 3:4 4:3 5:2 6:2 7:2 8:2 9:2 10:2 11:6 17:4 18:5 19:4 20:4 21:5 22:5 23:2 
-0.7803322764794176 -0.8016369654238985 0.6160960998233492 0.6516318685425331 1 0.6074960289716546 0.652030522999141 0.5568810859700064 0.6471347332345427 4:4 5:4 6:3 7:3 8:3 9:3 10:3 11:3 12:2 13:6 14:1 17:4 18:5 19:4 20:4 21:5 22:5 23:2 26:6 
-0.992769878388161 -0.9981566123881778 0.7969252372789721 0.8839266639335102 1 0.7266532311186475 0.8218500446906414 0.7730920267178442 0.750572515564834 1:1 2:5 3:4 4:4 5:3 6:3 7:3 8:3 9:2 10:3 11:7 12:1 13:1 14:1 15:1 16:1 17:5 18:16 19:4 20:4 21:5 22:6 23:3 
-0.9945335140130251 -1 0.8004438495322221 0.8886529552890509 1 0.7321860803132616 0.8153428366552331 0.7774061981808331 0.7623004035168883 1:4 2:5 3:4 4:3 5:3 6:4 7:3 8:3 9:4 10:8 11:2 14:1 15:2 16:3 17:4 18:8 19:13 20:4 21:5 22:5 23:3 25:2 26:5 
-0.9928032316943934 -1 0.7980126177180089 0.8867593569318866 1 0.7303352251612242 0.8133780459177657 0.7760472687092478 0.7521639453228922 1:3 2:2 3:10 4:2 5:2 6:1 7:4 8:6 9:5 10:2 11:2 12:3 13:4 14:5 15:3 16:7 17:6 18:6 19:9 20:9 21:8 22:6 23:5 24:2 25:3 26:7 
-0.8325691975437044 -0.9268538838714391 0.8349117194232184 0.7038076554605045 1 0.6570700541716066 0.7773061889278667 0.6123039686814808 0.7897844108808114 3:2 4:4 6:4 7:4 8:3 9:2 10:2 11:2 12:2 13:2 14:2 15:6 17:5 18:6 19:5 20:4 21:5 22:5 23:2 24:1 25:1 26:1 
-0.9968299012979972 -1 0.7988755500667624 0.8888253338392803 1 0.7313882304114702 0.8316070752459633 0.7769324454994447 0.7553675568119074 1:1 2:1 3:5 4:5 5:5 6:3 7:3 8:3 9:4 10:4 11:3 12:9 13:2 14:1 15:1 16:1 17:4 18:5 19:5 20:4 21:5 22:5 23:5 24:15 25:1 26:2 
-1 -1 1 0.7935388331493313 1 0.8255956382170024 0.8246831430314764 0.6797575156139596 0.9357393734578744 5:4 6:4 7:3 8:2 9:2 10:3 11:2 12:2 13:2 14:6 17:4 18:5 19:4 20:4 21:5 22:6 23:2 
-0.8447927025924796 -0.894442431944298 0.752895149564212 0.7308843733879792 0.9288394711523745 0.6669391054387983 0.7146762536485194 0.6320174416891703 0.6533267528564954 1:1 3:7 6:4 7:4 8:4 9:2 10:2 11:2 12:2 13:2 14:2 15:6 17:5 18:5 19:4 20:4 21:6 22:6 23:3 24:1 25:1 26:3 
-0.1926848227201645 -0.2262546794972295 0.4932874017290516 0.1451573390421275 0.2453220533372617 0.1669540342247393 0.1851707114303996 0.1255779988492964 0.2024965696946258 4:4 5:5 6:4 7:2 8:2 9:2 10:2 11:2 12:2 13:6 14:1 16:1 17:5 18:5 19:4 20:4 21:5 22:5 23:2 26:3 
-0.8957884588583164 -0.9168358778034074 0.742346885410258 0.7924222820634522 0.9509411271535266 0.6434623718957491 0.7418074802289712 0.6911676467418999 0.6919601032740178 1:1 2:1 3:7 4:8 5:7 6:2 7:3 8:2 9:2 10:2 11:2 12:6 17:5 18:6 19:5 20:5 21:6 22:5 23:3 24:2 25:1 26:5 
-0.9879330530363913 -0.9426103549155265 0.7535789764376917 0.8272661572910599 0.991825849115308 0.7008206220831514 0.7652925206126213 0.7222113690550573 0.710246455242094 3:10 5:4 6:4 7:4 8:3 9:2 10:2 11:2 12:2 13:2 14:6 15:1 17:5 18:6 19:5 20:6 21:6 22:6 23:3 24:1 25:1 26:3 
-0.9976541153245211 -1 0.8034470318208814 0.8889482270056915 1 0.7396996793753122 0.8183529317957883 0.7769256528272198 0.7554498212770505 1:10 7:4 8:4 9:3 10:2 11:2 12:2 13:2 14:2 15:2 16:7 17:5 18:6 19:5 20:5 21:6 22:6 23:4 24:1 25:1 26:1 
-0.8122368926143666 -0.8046983318902244 -0.907938255769569 0.5175015460065684 1 0.5497120820569764 0.5262974397622565 0.4807643190977696 0.769991053006617 5:4 6:4 7:2 8:1 9:4 10:4 11:3 12:3 13:4 14:4 17:8 18:5 19:3 20:3 21:6 22:6 23:2 
-1 -0.6634634617403399 -0.8148062607344551 0.638476931669702 0.7523924389468998 0.62787836740022 0.7972146369949 0.5825235927416533 0.8469648043448609 2:4 3:4 4:2 5:1 6:5 7:5 8:3 9:3 10:4 11:4 17:8 18:5 19:3 20:3 21:6 22:6 23:2 26:2 
-1 -1 -1 1 1 0.9357377447554532 0.9414354299745387 0.9563030204397817 0.9596147162613284 1:5 2:5 3:3 4:2 5:4 6:4 7:4 8:3 9:4 10:4 13:10 17:9 18:6 19:4 20:4 21:7 22:7 23:3 24:1 25:1 26:6 
-0.7247137654776643 -0.7931809595810951 -0.7195107361784792 0.4986187598296549 1 0.5111731957794539 1 0.4368311091564065 0.7202837580170336 2:1 3:1 6:4 7:4 8:2 9:1 10:4 11:4 12:3 13:3 14:4 15:4 17:8 18:5 19:3 20:3 21:6 22:6 23:2 26:2 
-0.8430777500020329 -0.8940402331930256 -1 0.5792423514258862 1 0.6006636351086645 1 0.5128924833225806 0.7749836234306636 3:4 4:5 5:3 6:1 7:4 8:4 9:3 10:3 11:4 12:4 17:8 18:5 19:3 20:3 21:6 22:6 23:2 26:2 
-0.5129135369247002 -0.437141105991749 -0.4550273037764792 0.3860914347230262 0.7615519423961128 0.3196980700709225 0.8149889462284935 0.3448629135753877 0.7742076573092467 7:4 8:4 9:2 10:1 11:4 12:4 13:3 14:3 15:4 16:4 17:8 18:5 19:3 20:3 21:6 22:6 23:2 
-0.9720428877372034 -0.9411117207986526 -0.9651609581399349 0.8380511167799116 1 0.7225107870845104 1 0.751770554655016 0.8700265304544756 6:4 7:4 8:8 9:1 10:4 11:4 12:3 13:3 14:4 15:4 17:8 18:6 19:4 20:4 21:7 22:6 23:2 25:1 26:1 
-0.2578649892232712 -0.5281938504873306 -0.2521769727473337 0.2316047794707458 0.6232279116306957 0.2877890931174143 0.2241438554205404 0.2084591897974348 0.1281494743048121 7:5 8:5 9:2 10:1 11:4 12:4 13:3 14:3 15:4 16:4 17:8 18:5 19:3 20:3 21:6 22:6 23:2 26:2 
-1 -1 -1 1 1 0.8952105082638335 0.9628798636993898 0.9144713173160963 0.9759479912990003 1:4 2:4 3:2 4:2 5:5 6:5 7:4 8:10 9:4 10:4 11:1 17:8 18:6 19:4 20:4 21:7 22:6 23:2 24:1 25:1 26:6 
-0.8576378108679511 -0.7857542758192652 -0.5633538238730308 0.5178175281221423 0.9299161009255918 0.417024497174342 0.4962841368859314 0.4664203753203002 0.541523923812669 1:4 2:2 3:1 4:4 5:4 6:3 7:3 8:5 9:5 17:8 18:4 19:2 20:2 21:5 22:6 23:2 26:2 
-0.824996733617269 -1 -1 0.7259586329253634 1 0.688611037953438 1 0.6446952210596866 0.8623009696990941 4:4 5:4 6:3 7:1 8:4 9:4 10:3 11:3 12:4 13:5 17:8 18:5 19:3 20:3 21:6 22:6 23:2 26:2 
-0.7989329502888348 -0.4898643228107651 -0.584911548367565 0.5227247144045929 0.6930031672270692 0.4319608180501335 0.7535767985318743 0.4645318314461965 0.4914905284449389 5:1 7:4 8:4 9:2 10:1 11:4 12:5 13:5 14:3 15:4 16:4 17:8 18:6 19:4 20:3 21:6 22:6 23:2 26:2 
-0.4584727487990504 -0.3446291131544462 -0.472922330927769 0.3963183976960308 0.8356502220038435 0.535570533332996 0.7390997217699382 0.3468343646147235 0.3634829235380506 1:4 2:2 3:1 4:4 5:4 6:3 7:3 8:4 9:4 17:8 18:4 19:2 20:2 21:5 22:6 23:2 
-1 -0.9088818922104728 -0.8434084722136315 0.7565526045218102 0.9732349357989327 0.6427652786304425 0.851652007203482 0.6748655357013799 0.8303512985189516 1:2 2:2 3:5 4:5 5:3 6:1 7:4 8:5 9:4 10:4 11:4 12:4 17:8 18:5 19:4 20:5 21:7 22:7 23:4 25:2 26:1 
-1 -0.9155920083994705 -0.7409431066967299 0.6864033294514992 1 0.6121960610830136 0.7699980239783647 0.5859742838578232 0.7353748856917706 1:4 2:4 3:2 4:2 5:4 6:4 7:3 8:3 9:4 10:4 17:8 18:5 19:3 20:3 21:7 22:6 23:2 
-0.5789067342503611 -0.6025730134234767 -0.4974471961882269 0.4681969640097759 0.7447111690850541 0.3450460449507425 0.7533637110706248 0.3865194470198136 0.2972911038705102 4:1 5:4 6:5 7:2 8:2 9:4 10:4 11:3 12:3 13:5 14:4 17:8 18:5 19:3 20:3 21:8 22:6 23:2 26:2 
-0.213833865962209 -0.4637376170614642 -0.2912805016132303 0.2339395143214426 0.3922905581043777 0.2104180781260953 0.3937172091298115 0.1703216627832661 0.2967728545129082 1:1 2:4 3:4 4:2 5:1 6:4 7:4 8:3 9:4 10:4 11:4 13:1 14:1 17:8 18:5 19:3 20:3 21:7 22:6 23:2 26:3 
-1 -1 -1 0.9277343853457953 1 0.8260410418860187 0.8691822256939241 0.8439092974124494 0.831151553617604 1:1 2:6 3:4 6:4 7:4 8:2 9:2 10:4 11:4 12:3 13:3 14:5 15:4 16:1 17:9 18:6 19:5 20:4 21:7 22:7 23:3 24:1 25:1 26:4 
-1 -1 -1 -0.8988437181363677 1 0.8482259496475987 0.9157685387040103 0.8650743824902045 0.8806395659436695 1:3 2:5 3:5 4:5 5:5 6:4 7:8 8:3 9:3 10:3 11:1 12:1 13:1 14:1 15:1 16:1 17:3 18:3 19:3 20:3 21:10 22:12 23:8 24:7 25:1 
-0.5798714649991407 -0.6292613881132586 -0.5954126979783195 -0.4972171364330292 0.6185655771668271 0.4710157014899833 0.510341194198874 0.4831821094810431 0.4880934872301202 1:2 2:3 3:4 4:4 5:5 6:4 7:8 8:3 9:3 10:3 17:3 18:3 19:3 20:3 21:10 22:10 23:1 26:6 
-0.9910306869176292 -1 -0.9821993922719188 -0.848877179535665 1 0.7733112587635256 0.8692112351594994 0.7877128847889557 0.8211340604732181 6:1 7:2 8:3 9:4 10:4 11:4 12:3 13:7 14:2 15:2 16:2 17:3 18:3 19:3 20:3 21:10 22:11 23:1 
-0.9792982503646066 -1 -0.9646796935799024 -0.8178393512584485 1 0.7646442238376171 0.844348260154 0.7775399576302784 0.7962951327033329 4:2 5:3 6:4 7:10 8:5 9:3 10:7 11:2 12:2 13:2 15:1 17:4 18:3 19:3 20:4 21:10 22:10 23:2 24:1 25:1 26:3 
-1 -1 -1 -0.9271447211265037 1 0.8746743341894844 0.9446037398931828 0.8912805432818256 0.9069311297738453 3:2 4:3 5:4 6:4 7:5 8:5 9:8 10:3 11:3 12:3 13:1 14:1 15:2 16:1 17:3 18:3 19:3 20:3 21:10 22:10 23:1 25:10 26:2 
-1 -1 -1 -0.8501438973098951 1 0.7980896516346672 0.8793292149770299 0.806692583425226 0.8256138705817918 4:1 5:1 7:10 8:3 9:4 10:4 11:4 12:3 13:7 14:2 15:2 16:2 17:4 18:4 19:4 20:4 21:10 22:10 23:2 24:1 25:1 26:3 
-0.7042441209266672 -0.6627446038367354 -0.6996576174323201 -0.5863458328709588 0.7310271930978899 0.5616845225317142 0.5870069022765243 0.5782558740449112 0.5795338499434848 1:2 2:3 3:4 4:5 5:5 6:4 7:3 8:8 9:2 10:2 11:2 16:1 17:3 18:3 19:3 20:3 21:11 22:11 23:1 26:6 
-0.9662418496830979 -0.9780738602174631 -0.9378476087012129 -0.7905021305748007 0.9802615144562019 0.7441892292902915 0.8112023351792117 0.7560120056423582 0.8137837020611211 1:4 2:5 3:5 4:6 5:4 6:8 7:4 8:3 9:4 10:1 11:1 17:3 18:3 19:3 20:3 21:9 22:9 23:5 24:4 25:3 26:3 
-0.8896536576122669 -0.9998129167953707 -0.8851365710223216 -0.7500769018428584 0.9162069207000938 0.7004409549499047 0.7930997626566119 0.7144662915398035 0.7379244688503754 4:3 5:3 6:4 7:4 8:4 9:3 10:7 11:10 12:2 13:2 17:4 18:4 19:4 20:4 21:10 22:10 23:2 24:1 25:1 26:2 
-0.4126169332229259 -0.5173898629771529 -0.3701303247131111 -0.3278862967278354 0.385441242526058 0.2938191504059061 0.3286598637720163 0.293489584486654 0.3280540097603964 1:2 2:3 3:4 4:4 5:4 6:4 7:8 8:3 9:3 10:3 11:1 16:1 17:3 18:3 19:3 20:3 21:10 22:10 23:1 25:1 26:6 
-0.6945677743153917 -0.7768789952971143 -0.6925001076223717 -0.6001654372847008 0.7196401320919337 0.5454756048886718 0.6103034354823291 0.5476851874322455 0.5673352404802668 5:2 6:4 7:4 8:4 9:4 10:4 11:8 12:2 13:2 14:2 17:3 18:3 19:3 20:3 21:10 22:10 23:1 26:3 
-0.589933172714357 -0.7515812714557386 -0.594119919282744 -0.5359904766487944 0.6058610893137379 0.452963024104985 0.5671298461508369 0.4495144357132128 0.4880800547787982 2:2 3:3 4:4 5:4 6:4 7:3 8:7 9:2 10:3 11:3 12:1 13:1 17:3 18:3 19:3 20:3 21:10 22:10 23:1 26:4 
-0.9383411832507487 -1 -0.9306146534962887 -0.8231412629117909 0.9755126062217747 0.7563746854566885 0.8475371322948867 0.7370761173523166 0.7778718029113292 1:3 2:4 3:4 4:4 5:3 6:7 7:2 8:2 9:2 16:1 17:3 18:3 19:3 20:3 21:9 22:9 23:2 
-0.9984175724580788 -1 -1 -0.8530065275021995 1 0.792078685220083 0.862799450941925 0.8032426744026591 0.8307447230598727 1:3 2:4 3:4 4:4 5:3 6:7 7:2 8:2 9:3 10:1 12:5 13:5 17:4 18:4 19:4 20:4 21:10 22:10 23:2 24:1 25:1 26:3 
-0.9673543317054301 -1 -0.9566666441341811 -0.8180521205400992 1 0.7564866469941889 0.8613467300128704 0.7675783607600881 0.7929771376448135 6:3 7:3 8:4 9:5 10:5 11:5 12:8 13:2 14:2 15:2 17:3 18:3 19:3 20:3 21:10 22:10 23:2 24:1 25:1 26:3 
-0.912678334488536 -0.9032621694001558 -0.8999766438807721 -0.6994342229653674 -0.7954272550949274 0.6481108556937929 0.7136901265770798 0.6938060464829726 0.6663985353472019 3:1 4:6 5:2 6:2 7:5 8:6 9:2 10:2 11:3 12:4 13:6 14:8 17:8 18:5 19:5 20:4 21:6 22:6 23:4 24:1 25:1 26:7 
-0.5387431929498523 -0.6080259278086547 -0.8057757545225059 -0.683551286084798 -0.4564862993608502 0.4695654012160078 0.4597225829646936 0.3970978740560025 0.4408577752808405 1:1 2:1 3:4 4:4 5:2 6:2 7:3 8:4 9:4 12:5 13:2 17:7 18:4 19:3 20:3 21:4 22:5 23:3 24:1 25:1 26:1 
-1 -1 -1 -0.9422133973893388 -0.7640833532390596 0.7264615407605313 0.8726407818081642 0.651015018906794 0.7649639253740624 3:5 4:1 5:1 6:4 7:4 8:3 9:3 10:4 11:5 12:5 13:1 17:7 18:4 19:3 20:3 21:5 22:5 23:3 26:6 
-0.9641054055930638 -0.9535360962592953 -0.9521465601275627 -0.7392918664015756 -0.8466325579334283 0.6903394505060423 0.7340719073151104 0.73895424124641 0.675998626924484 1:1 2:2 3:5 4:5 5:3 6:3 7:3 8:4 9:5 11:7 12:3 15:10 17:8 18:5 19:4 20:4 21:6 22:7 23:5 24:2 25:2 26:8 
-0.9611973796117828 -0.955005912519182 -0.9482071761493092 -0.7387941217733882 -0.8493845397191598 0.6925029525903788 0.7306823701707498 0.7411247069493569 0.6540161620794188 1:2 2:6 3:2 4:2 5:4 6:5 7:3 8:3 9:4 10:8 11:7 12:1 14:1 15:10 16:1 17:9 18:5 19:4 20:15 21:7 22:8 23:5 24:2 25:2 26:2 
-0.587094726604297 -0.9185533765778146 -0.860838778470269 -0.9435404694227136 -0.504306012759946 0.6503943937196658 0.6961950839527334 0.4311573063688031 0.6705770818919176 4:5 5:1 6:1 7:4 8:4 9:2 10:2 11:3 12:4 13:4 17:7 18:4 19:3 20:3 21:5 22:5 23:3 
-1 -0.9584308514203304 -0.9459225676248377 -0.7409205083537407 -0.8515144051315958 0.6892630372043013 0.7427078368299584 0.7374814302472892 0.6547929103654784 1:1 2:2 3:6 4:2 5:2 6:5 7:5 8:2 9:3 10:4 11:5 12:6 13:2 14:2 15:1 16:1 17:7 18:5 19:3 20:3 21:5 22:16 23:4 26:6 
-1 -1 -0.9803339076795602 -1 -0.7796928509309423 0.6978647071608489 1 0.6615329946555989 0.8140482444362077 6:6 7:2 8:1 9:5 10:5 11:2 12:2 13:3 14:4 15:4 17:7 18:4 19:3 20:3 21:6 22:6 23:3 26:2 
-0.7217344148967513 -0.7640646587634851 -0.6255713413842634 -0.5738283814291421 -0.617645445779987 0.4751077375120986 0.6286514808969853 0.5363260754488323 0.4881632300228515 4:5 5:1 6:2 7:4 8:10 9:2 10:3 11:4 12:4 13:4 17:7 18:4 19:4 20:4 21:5 22:5 23:4 24:1 25:1 26:4 
-0.9508108624508033 -0.9267484761609684 -0.8988066310456306 -0.7320083481632707 -0.8158644721757323 0.7015958367013321 0.7558037375143991 0.6813691633000836 0.6598591246476947 5:5 6:1 7:10 8:4 9:4 10:2 11:2 12:3 13:4 14:4 17:7 18:5 19:4 20:4 21:6 22:6 23:4 24:1 25:1 26:1 
-1 -1 -0.8535025203307143 -1 -0.7469596585579877 0.6867531988133222 0.8201233929178964 0.6342674301148918 0.7828840104193415 1:5 2:1 3:1 4:4 5:4 6:4 7:2 8:4 9:5 10:5 17:7 18:5 19:3 20:3 21:6 22:5 23:3 24:1 26:2 
-0 -0.2969182169729208 -0 -0 -0 0.09216604428945163 0 0 0 1:1 7:5 8:2 9:1 10:4 11:4 12:2 13:2 14:3 15:4 16:4 17:7 18:4 19:3 20:3 21:5 22:5 23:3 26:2 
-0.7071637650827705 -0.6196420573953122 -0.6293288364649195 -0.8245821902020647 -0.4554360445311232 0.3849446543935764 0.6365446932152593 0.3952491630787726 0.4890697105114669 4:1 5:5 6:2 7:2 8:5 9:5 10:2 11:2 12:3 13:4 14:4 15:1 16:1 17:8 18:5 19:3 20:4 21:5 22:5 23:3 26:4 
-0.6949651755045023 -0.6911890660461167 -0.7150343387570441 -0.7006504731900265 -0.618758185923151 0.5262639642862976 0.5867415263906085 0.5392185344876563 0.6708574061033251 7:5 8:1 9:1 10:4 11:4 12:2 13:2 14:3 15:4 16:4 17:7 18:4 19:3 20:3 21:5 22:5 23:3 
-0.869450583881658 -0.8586832144336028 -0.6582731619272615 -1 -0.5792713149901223 0.965392753407403 0.7252016555755166 0.4739022856072737 0.5103804748950955 1:2 2:1 3:4 4:4 5:2 6:2 7:3 8:4 9:4 17:6 18:3 19:2 20:2 21:4 22:6 23:3 
-0.9362998113838293 -0.9008638131989434 -0.9258515824424505 -0.7609714637287578 -0.798801297126754 0.6598073147691521 0.7257268458424508 0.69568432749981 0.6766098648755074 1:5 2:1 3:8 4:4 5:4 6:2 7:2 8:4 9:4 10:4 15:3 16:3 17:8 18:7 19:5 20:5 21:6 22:5 23:3 24:1 25:1 26:3 
-0.4322890469900695 -0.2520354219493774 -0.2037674183498125 -1 -0.1316083735441214 0.2085247296769112 0.6510793246912612 0.1031914593500254 0.3214411261170637 6:1 7:5 8:2 9:1 10:4 11:4 12:3 13:3 14:3 15:4 16:4 17:7 18:5 19:3 20:3 21:5 22:5 23:3 26:3 
-0.7234913546985097 -0.7778097437198951 -0.8558326922695971 -1 -0.5483284248268153 0.6117357309813579 0.5176804146926038 0.4738364995673754 0.6953723340724361 5:5 6:1 7:1 8:4 9:4 10:2 11:2 12:3 13:4 14:4 17:7 18:4 19:3 20:3 21:5 22:5 23:3 
-0.9580013444606353 -0.7795930676458163 -0.814406357722162 -0.6567109209794564 -0.6932842407576383 0.607280214879543 0.6482758588336915 0.5965547013236223 0.7184785012017751 1:1 2:2 3:6 4:8 5:3 6:2 7:4 8:4 9:4 13:1 14:1 17:6 18:5 19:3 20:3 21:4 22:5 23:4 24:1 25:1 26:4 
-0.7400887555295078 -0.76920141284377 -0.7396198215477868 -0.4704875363108001 -0.6578755039380768 0.6393310518701225 0.500824043254768 0.5706185017736304 0.5710580652030864 4:1 5:1 6:1 7:6 8:2 9:2 10:4 11:6 12:2 13:2 14:3 15:4 16:4 17:7 18:4 19:5 20:3 21:5 22:5 23:3 26:6 
-0.5537760542725988 -0.5885789978267982 -0.7142414955275648 -0.4989932597241365 -0.4211560392530986 0.386096877146402 0.5014836082909877 0.3590095343836571 0.3797230084975933 4:6 5:2 6:2 7:5 8:6 9:3 10:2 11:3 12:4 13:4 17:7 18:4 19:3 20:4 21:5 22:5 23:3 26:6 
-0.7585029503464048 -0.7959766628224917 -0.7747313270099009 -0.6438347097699937 -0.6766262193121163 -0.7607655083341771 0.6474163620568483 0.6184327007486534 0.6733399265777421 4:8 5:2 6:2 7:2 8:2 9:2 10:2 11:3 12:1 13:1 17:4 18:3 19:3 20:3 21:3 22:4 23:3 26:2 
-0.5154983178328288 -0.5422283386154093 -0.5282747923833102 -0.4188968795899283 -0.4468825370154659 -0.5674598312538353 0.4215739516156177 0.4113652669222078 0.4264330054427206 1:8 2:2 3:2 4:2 5:2 6:2 7:2 8:2 9:1 10:1 12:1 13:1 17:4 18:3 19:3 20:3 21:3 22:4 23:3 24:1 26:2 
-0.8706482344095343 -0.9420096327416572 -0.9033547501465019 -0.7479405270399697 -0.7718007458144159 -1 0.7486973234070772 0.6987500947829093 0.8648692339117061 7:7 8:2 9:3 10:3 11:3 12:3 13:3 14:3 15:1 16:1 17:4 18:3 19:3 20:3 21:3 22:4 23:3 26:6 
-0.4715385297137959 -0.5918680619787359 -0.6532497672493692 -0.4191548634703898 -0.4024627731079819 -0.58887978244852 0.3953486834248178 0.3647387196011295 0.4606676710790329 3:7 4:2 5:2 6:2 7:2 8:2 9:2 10:2 11:1 12:1 14:1 15:1 17:4 18:3 19:3 20:3 21:3 22:4 23:3 26:2 
-1 -1 -1 -1 -1 -1 0.9826283944160685 0.9049083314410551 1 1:2 2:2 3:1 5:1 6:8 7:2 8:2 9:2 10:3 11:3 12:2 13:2 14:1 15:2 16:1 17:4 18:3 19:3 20:3 21:4 22:6 23:4 24:1 25:1 26:5 
-0.4533339658101377 -0.5479069974111965 -0.6985441998166607 -0.4608893589445126 -0.4011491031765195 -0.7569028972273334 0.4062046252771587 0.3664944644834071 0.4768915331878523 4:7 5:2 6:2 7:2 8:2 9:2 10:2 11:2 12:1 13:1 17:4 18:3 19:3 20:3 21:3 22:4 23:3 
-0.7539512858250018 -0.8334418123570124 -0.7617120519183007 -0.7162675747575412 -0.6802218648713427 -0.8361750431656878 0.6886401575369914 0.6091766660595583 0.6150419099309589 1:8 2:3 3:2 4:2 5:2 6:2 7:2 8:2 9:1 10:1 17:4 18:3 19:3 20:3 21:4 22:4 23:3 24:1 
-0.8005576373564066 -0.9243766758996295 -0.8568657629966763 -0.7263605915275386 -0.7159740855666958 -1 0.7007822509307284 0.6497595016217103 0.7452149747399728 7:8 8:2 9:2 10:2 11:2 12:2 13:2 14:3 15:1 16:1 17:4 18:3 19:3 20:3 21:3 22:4 23:3 26:2 
-0.693566232204797 -0.7907093382875926 -0.7316001776524109 -0.6032046892215562 -0.6250438537182205 -0.8124570361546335 0.6002992668607752 0.5701206510792134 0.562215818904366 1:2 2:2 3:2 4:2 5:3 6:3 7:3 8:2 9:1 17:3 18:2 19:2 20:2 21:2 22:3 23:2 26:4 
-1 -1 -1 -0.9293118640359995 -0.9023559924682351 -1 0.8831926039524352 0.8199106271990044 0.9714239107525268 5:7 6:2 7:2 8:2 9:2 10:2 11:2 12:2 13:1 14:1 16:1 17:4 18:3 19:3 20:3 21:3 22:4 23:3 26:1 
-1 -1 -1 -1 -1 -1 1 1 1 1:1 2:1 3:1 4:1 5:7 6:3 7:3 8:3 9:2 10:3 11:4 12:2 13:1 14:2 15:1 16:1 17:4 18:3 19:4 20:12 21:4 22:4 23:3 26:2 
-1 -1 -1 -0.8833173862185421 -0.8871268983736835 -1 0.8630434533025044 0.8048509264912064 0.8967044099328694 1:1 2:7 3:2 4:2 5:2 6:3 7:2 8:2 9:2 10:2 11:2 15:2 16:1 17:4 18:3 19:3 20:3 21:3 22:4 23:4 24:1 25:1 26:4 
-0.6851389666330581 -0.6979741353126436 -0.7824515413204359 -0.6108284302486993 -0.6238295499806327 -0.8868623489943527 0.6132097202395059 0.5673935034700305 0.5821210309352062 3:7 4:2 5:2 6:2 7:2 8:2 9:2 10:2 11:1 12:1 17:4 18:3 19:3 20:3 21:3 22:4 23:3 
-1 -1 -1 -1 -1 -1 1 0.9914198850115005 1 1:7 2:2 3:2 4:2 5:2 6:3 7:2 8:2 9:1 10:2 11:10 17:5 18:4 19:4 20:4 21:4 22:5 23:4 24:1 25:1 26:3 
-1 -1 -1 -1 -1 -1 -0.903138716531933 0.9228088062003641 0.9582423841541228 1:1 2:1 3:1 4:5 5:4 6:3 7:5 8:4 9:4 10:3 11:3 12:10 13:4 15:6 16:2 17:8 18:8 19:5 20:4 21:8 22:9 23:5 24:1 25:1 26:7 
-1 -1 -1 -1 -1 -1 -0.8846909543842248 0.9037773552872463 0.9241161831673557 4:2 5:5 6:4 7:3 8:4 9:5 10:5 11:3 12:3 13:4 14:10 17:9 18:8 19:4 20:3 21:7 22:8 23:4 24:1 25:1 26:3 
-1 -0.9889934873058687 -0.9866848662480701 -0.8710615231824755 -0.8906553956800303 -1 -0.7759039648399348 0.7965560747870224 0.7928983429101446 3:5 4:5 5:4 6:5 7:5 8:10 9:3 10:3 11:4 12:4 17:7 18:7 19:4 20:4 21:7 22:7 23:4 24:1 25:1 26:6 
-0.8335955075934095 -0.7156419289266112 -0.6296911362964611 -0.5428641240151235 -0.6457629889625658 -0.7633698939020517 -0.5588860485003372 0.5889034665821106 0.5413842879873075 4:4 5:4 6:3 7:4 8:8 9:6 10:3 11:3 12:4 13:4 17:8 18:7 19:3 20:3 21:7 22:8 23:4 24:1 25:1 26:1 
-1 -1 -1 -1 -1 -1 -0.9249520569262726 0.9448855500855626 0.9675762687709744 1:1 2:1 3:1 4:5 5:5 6:4 7:5 8:5 9:5 10:5 11:5 12:5 13:5 16:1 17:8 18:8 19:4 20:3 21:7 22:7 23:3 24:13 
-1 -0.6664701277475086 -0.704575788197867 -0.9943284366521714 -0.5333985561376341 -0.8432936842585051 -0.4483103305921409 0.4358369626294946 0.7888715579233817 3:4 4:4 5:3 6:5 7:5 8:5 9:4 10:3 11:4 12:4 17:7 18:7 19:3 20:3 21:7 22:7 23:3 26:4 
-1 -0.9188955138606216 -0.9078386117381474 -0.9563973196258607 -0.825624075258206 -1 -0.7146646662265338 0.732855755227541 0.7095575910049593 5:1 7:4 8:4 9:3 10:4 11:9 12:5 13:3 14:3 15:4 16:4 17:8 18:7 19:3 20:3 21:7 22:8 23:4 24:1 25:1 26:2 
-0.1942942710751527 -0.06529184392811418 -0.113021721962884 -0.3501251240283222 -0.02846453704605785 -0.3009489146191203 -0.009796045635150278 0 0 4:4 5:4 6:3 7:4 8:5 9:5 10:3 11:3 12:4 13:4 16:1 17:7 18:7 19:3 20:3 21:7 22:7 23:3 26:3 
-1 -0.6856371988980152 -0.6625076694438352 -1 -0.5289960615967891 -1 -0.4722228585946954 0.4475638234659213 0.5916854780653409 3:1 6:4 7:4 8:3 9:4 10:5 11:4 12:3 13:3 14:4 15:4 17:7 18:7 19:3 20:3 21:7 22:7 23:3 26:2 
-0.8759223995700877 -0.5472214161675991 -0.5019453428949442 -0.8790080955151099 -0.4237706030889909 -0.528283447205752 -0.3518171991682134 0.3513889604510165 0.5543679798511191 5:1 6:4 7:5 8:4 9:4 10:4 11:4 12:4 13:3 14:4 15:4 17:7 18:7 19:5 20:3 21:7 22:7 23:3 26:2 
-0.0441235090138037 -0.01181815238462306 -0 -0 -0 -0 -0 0 0 4:4 5:4 6:3 7:4 8:4 9:4 10:3 11:3 12:4 13:4 17:7 18:7 19:3 20:3 21:7 22:7 23:3 
-1 -1 -1 -1 -0.9192589653190668 -1 -0.8082716776946258 0.7899457127616238 1 2:4 3:4 4:3 5:5 6:5 7:4 8:3 9:3 10:5 11:5 17:7 18:7 19:3 20:3 21:7 22:7 23:4 26:3 
-0.4273609004454228 -0.598980724693473 -0.6012427609387295 -0.993830474912989 -0.3596028071837266 -0.6533158610435746 -0.3455919489247877 0.3059106185566065 0.6590878323700887 4:4 5:4 6:3 7:4 8:4 9:4 10:3 11:3 12:4 13:4 17:7 18:7 19:3 20:3 21:7 22:7 23:3 
-1 -0.8410345120904924 -0.7333953633403336 -1 -0.6682301183461243 -1 -0.5779036413616636 0.5741495378856749 0.8940800591764387 7:4 8:4 9:3 10:4 11:4 12:4 13:3 14:3 15:4 16:4 17:7 18:7 19:3 20:3 21:7 22:7 23:3 
-1 -1 -1 -1 -1 -1 -0.9673821321785234 0.8923382668101697 1 1:4 2:3 3:4 4:4 5:5 6:3 7:3 8:4 9:4 17:7 18:6 19:3 20:2 21:6 22:7 23:3 
-0.9564304404116118 -0.8800188706852587 -0.8408914072882598 -0.7349284334894638 -0.7865504595904351 -0.8895325053851274 -0.6710708356326185 0.6908455151040717 0.6976850370859856 1:1 2:1 3:1 4:5 5:4 6:4 7:5 8:4 9:5 10:4 11:6 12:5 13:5 14:1 17:9 18:8 19:5 20:5 21:8 22:11 23:3 26:2 
-0.8144587435474201 -0.7057989757512888 -0.6859119557029074 -0.5712904749225537 -0.6223730736441816 -0.6691029653207863 -0.5364337158288733 0.5587500430123989 0.5764077777779942 3:1 4:4 5:5 6:3 7:4 8:4 9:4 10:7 11:3 12:5 13:4 14:1 17:7 18:9 19:5 20:4 21:8 22:7 23:3 26:2 
-1 -1 -1 -0.9675503564346782 -1 -1 -0.9206591619273613 -0.9883255470997311 0.9538832347192449 7:9 8:5 9:5 10:3 11:2 12:2 13:2 14:2 15:6 16:6 17:3 18:4 19:10 20:10 21:2 22:2 23:2 24:2 25:2 26:5 
-0.1676550991614738 -0.1691077617755268 -0.1691139606175665 -0.1372538301347777 -0.1479982231915806 -0.1751733811270907 -0.1178429745525541 -0.1429283811822145 0.134934000769169 3:2 4:4 5:4 6:2 7:2 8:2 9:2 10:2 11:3 12:4 17:1 18:3 19:10 20:10 21:1 26:2 
-0.856446072057544 -0.8627908258564269 -0.8587788576157958 -0.7227140620079714 -0.7723262020654182 -0.8858642371433708 -0.6873846128057414 -0.738434980842432 0.7117053548563855 4:3 5:3 6:4 7:2 8:2 9:2 10:2 11:4 12:3 13:5 14:2 15:2 16:2 17:4 18:4 19:12 20:12 21:2 26:2 
-0.3173142899207025 -0.3193020201454658 -0.3169113260476208 -0.2687385472405668 -0.2855830093201309 -0.3277411452167258 -0.2650402582157508 -0.2738399530435487 0.2632945764612328 4:2 5:3 6:4 7:2 8:2 9:2 10:2 11:2 12:2 13:4 16:2 17:1 18:3 19:10 20:11 21:1 22:1 
-0.6358735055267 -0.6398697496448446 -0.6358199323768952 -0.53599645440961 -0.5724163601767388 -0.657324861025172 -0.501984817014628 -0.5466072877942569 0.5259490402214273 1:3 2:4 3:2 4:2 5:2 6:2 7:2 8:2 9:4 16:2 17:1 18:3 19:10 20:10 21:1 
-0.3674567142068804 -0.370194947464089 -0.3726943725061582 -0.3108828174761418 -0.3327348724758021 -0.3798268224435359 -0.2932391315876455 -0.3178934884240691 0.3083619660431585 4:2 5:3 6:4 7:2 8:2 9:2 10:2 11:2 12:2 13:4 17:1 18:3 19:10 20:10 21:1 
-0.8685185031169199 -0.8750282811508894 -0.8716070804677538 -0.7341491905119916 -0.7841143495518521 -0.8985055022086674 -0.7001796837928406 -0.749593220353143 0.7239414121911785 1:3 2:4 3:2 4:2 5:2 6:2 7:2 8:2 9:5 10:1 11:1 12:1 13:1 14:1 16:1 17:1 18:3 19:9 20:9 21:1 26:7 
-1 -1 -1 -0.9468501883557408 -1 -1 -0.9037866384739939 -0.9663999377651323 0.9333726748994073 1:3 2:4 3:2 4:10 5:2 6:2 7:2 8:2 9:4 17:2 18:4 19:9 20:9 21:2 22:1 23:1 24:1 25:1 26:1 
-0.4217572456188575 -0.4251750741311858 -0.4306806399420918 -0.3563552440260923 -0.3803027047065644 -0.4371014591214942 -0.3475235288494745 -0.3631343736140962 0.3524424888680862 2:2 3:3 4:4 5:2 6:2 7:2 8:3 9:2 10:2 11:5 12:1 15:1 17:1 18:3 19:10 20:10 21:1 22:2 26:2 
-0.3961905745792388 -0.3989537201159781 -0.3977367559563806 -0.3392158355601462 -0.3612969360141116 -0.4072011272801854 -0.3447044692942625 -0.3438286269902631 0.3351720421478898 3:2 4:3 5:4 6:2 7:2 8:2 9:2 10:3 11:3 12:4 17:1 18:3 19:10 20:10 21:1 26:2 
-1 -1 -1 -0.8695576716429969 -0.9308826999528268 -1 -0.8282976720983312 -0.8883870244106556 0.8572318802447695 5:1 6:1 7:3 8:4 9:5 10:3 11:2 12:2 13:2 14:2 15:2 16:6 17:2 18:3 19:10 20:10 21:1 22:1 26:6 
-0.9187432179220483 -0.9259772334164467 -0.9245247842974329 -0.7772506247173301 -0.8295952558769247 -0.9498230458430127 -0.7426440098260341 -0.7930789171480958 0.7654539297113191 3:1 4:3 5:5 6:5 7:3 8:3 9:2 10:2 11:2 12:2 13:4 16:1 17:1 18:3 19:10 20:10 21:2 26:7 
-0.5817106207445291 -0.5862960907522645 -0.5847999440869975 -0.4905308498970146 -0.5239453639342114 -0.6006970779454442 -0.4686356349525427 -0.501094252022502 0.4840009270873206 2:2 3:3 4:4 5:2 6:2 7:2 8:2 9:2 10:2 11:5 16:1 17:3 18:3 19:10 20:10 21:1 
-1 -1 -1 -1 -1 -1 -0.9802906274916285 -1 1 1:1 2:1 3:1 4:1 5:3 6:5 7:6 8:4 9:4 10:4 11:4 12:4 13:3 14:5 15:1 16:1 17:1 18:3 19:10 20:10 21:2 25:16 26:6 
-0.3782610308472527 -0.3823295603819817 -0.3813071096532037 -0.3159048469027069 -0.3376070152056211 -0.3921386354941592 -0.3133081713996279 -0.3229704581566847 0.3132715396592101 1:3 2:5 3:3 4:2 5:2 6:2 7:2 8:2 9:4 17:1 18:3 19:9 20:9 21:1 26:2 
-1 -1 -1 -1 -1 -1 -0.9617999466291687 -1 0.9983916469928282 6:2 7:4 8:5 9:2 10:3 11:4 12:3 13:10 14:3 15:6 16:3 17:4 18:6 19:10 20:10 21:3 22:2 23:3 24:2 25:2 26:3 
-1 -1 -1 -1 -1 -1 -0.9606282624808627 -1 -0.9749959244426288 4:2 5:5 6:6 7:4 8:3 9:3 10:3 11:5 12:5 13:2 15:10 17:7 18:5 19:6 20:6 21:5 22:7 23:5 24:1 25:1 26:5 
-1 -1 -0.977821197812663 -0.9930788085544624 -0.9146633383890773 -1 -0.7958885270108753 -0.8930096715553788 -0.765946718956418 1:2 2:4 3:4 4:3 5:3 6:8 7:5 8:4 9:5 10:3 17:6 18:5 19:5 20:5 21:5 22:6 23:4 24:1 25:1 26:3 
-0.9851445592725602 -0.8959785842363531 -0.956536436454112 -1 -0.6300838650301305 -1 -0.7483611903960765 -0.8413677721504211 -0.5453804690089776 6:2 7:4 8:4 9:3 10:3 11:3 12:3 13:4 14:4 15:2 17:6 18:4 19:4 20:4 21:4 22:6 23:4 
-0.567658574738418 -0.6539377947469506 -0.7385882468165405 -0.6211552626262624 -0.3170047837292891 -0.7630254258920888 -0.6995326554188643 -0.3354256882899033 -0.2702014077804438 3:2 4:4 5:4 6:4 7:3 8:3 9:3 10:4 11:4 12:2 13:1 16:1 17:6 18:4 19:5 20:4 21:4 22:6 23:4 26:2 
-1 -1 -1 -0.966750911865486 -1 -1 -0.905300353638215 -0.9787581899884279 -0.9284459252703264 1:1 2:1 3:3 4:5 5:5 6:4 7:4 8:3 9:4 10:5 11:5 12:2 15:1 16:3 17:6 18:4 19:5 20:4 21:4 22:6 23:8 24:7 26:2 
-0.9301876198725213 -0.5555306526538142 -0.6928225465583022 -0.7490046844822243 -0.5190393732072415 -0.5986216828332158 -0.3408899308457814 -0.9602372013464279 -0.4590369164752491 3:3 4:4 5:4 6:5 7:4 8:3 9:3 10:4 11:4 12:2 17:6 18:6 19:5 20:4 21:5 22:6 23:4 
-1 -1 -1 -1 -1 -1 -0.9099719994598191 -1 -0.9235582567823937 1:5 2:4 3:3 4:3 5:3 6:3 7:4 8:5 9:3 10:1 11:1 12:1 13:1 14:1 15:1 16:1 17:15 18:5 19:3 20:3 21:4 22:6 23:4 
-1 -1 -1 -1 -0.8161659480320592 -1 -0.8077951939300626 -0.9532578558580509 -0.7273747386115714 1:1 2:4 3:5 4:5 5:3 6:3 7:4 8:3 9:5 10:4 11:2 17:6 18:5 19:4 20:5 21:4 22:6 23:4 26:5 
-0.9562040370816985 -0.8442178147222809 -0.8563705135376615 -0.7710170632471252 -0.6946366571794734 -0.943903009541544 -0.6679923452230412 -0.780413293707868 -0.6232967567850255 4:2 5:4 6:6 7:3 8:3 9:3 10:4 11:4 12:4 13:2 17:6 18:5 19:4 20:4 21:4 22:6 23:5 24:1 
-1 -1 -1 -0.9761587724166289 -1 -1 -0.8986630333827305 -0.9630101367745226 -0.9141170432542998 1:3 2:6 3:5 4:4 5:5 6:5 7:4 8:4 9:5 10:3 11:1 12:1 13:1 14:1 15:1 16:2 17:16 18:4 19:4 20:4 21:4 22:7 23:4 24:1 25:1 26:6 
-1 -0.9496703098805341 -0.8388875816905933 -0.9979773595693094 -0.7434182706291648 -1 -0.6482303013656752 -0.9504809705742128 -0.6686208140835957 7:2 8:4 9:4 10:3 11:3 12:3 13:3 14:4 15:4 16:2 17:6 18:4 19:4 20:4 21:4 22:6 23:4 
-1 -1 -1 -1 -1 -1 -1 -1 -0.9471814409614341 3:1 4:1 6:2 7:4 8:4 9:3 10:4 11:4 12:4 13:5 14:5 15:3 16:1 17:6 18:4 19:4 20:4 21:4 22:6 23:4 26:9 
-1 -1 -1 -0.9947667873730366 -1 -1 -0.8916696322429499 -1 -0.9132503024602635 1:2 2:4 3:4 4:6 5:4 6:6 7:4 8:5 9:6 10:4 11:3 12:2 13:2 14:1 15:1 16:3 17:8 18:6 19:7 20:6 21:8 22:9 23:4 24:1 25:1 26:7 
