svm_type c_svc
kernel_type rbf
gamma 0.0384615
nr_class 10
total_sv 172
rho -0.116469 -0.0418609 -0.197052 -0.120307 0.0261468 -0.271037 -0.339415 -0.237581 -0.348242 0.0795448 -0.0817932 -0.0237922 0.179633 -0.196465 -0.111383 -0.13689 -0.197793 -0.158471 -0.0825317 0.097656 -0.262002 -0.191982 -0.200992 -0.281802 0.0550899 0.252834 -0.0997973 -0.0987678 -0.0497457 -0.13497 0.147791 -0.145675 -0.0824285 -0.109398 -0.142208 -0.330267 -0.307427 -0.26505 -0.418887 0.0713449 0.0431017 0.0134922 -0.0274756 -0.0576595 -0.0223419
label 9 3 2 6 4 5 7 8 1 0
nr_sv 24 21 17 18 15 20 14 16 15 12
SV
0.4310437505015465 0.520113892720293 0.3732495397738908 0.4807465420876459 0.6762272883269631 0.3853009999715823 0.3585740101364872 0.4037813408646471 0.4426549507826023 1:4 2:3 3:3 4:7 5:5 6:2 7:3 8:4 9:4 11:1 17:6 18:5 19:3 20:2 21:4 22:8 23:6 26:2 
0.5469749882326292 0.6275564072425996 0.5202679617387224 0.551445602067262 0.7475043618707722 0.4642558852188171 0.5113614610158699 0.4729621472246238 0.4319956252030223 4:1 5:5 6:5 7:4 8:4 9:6 10:5 11:2 12:3 13:4 14:4 17:6 18:6 19:3 20:3 21:5 22:8 23:6 26:6 
0.2525453610691163 0.174751387789803 0.3061975034338805 0.126915300531835 0.4084611800044124 0.212335816358224 0.268303347247081 0.09799370454324337 0.1439762438767427 1:4 2:3 3:3 4:5 5:5 6:2 7:3 8:4 9:4 12:1 13:1 17:6 18:5 19:2 20:2 21:4 22:8 23:6 26:2 
0.8432701108576626 0.9163962224974058 0.7796793971338464 0.8309748537882816 0.9962981007052336 0.6836386204900669 0.9882240510308398 0.714944307048504 0.6341790883903466 4:4 5:4 6:4 7:3 8:5 9:5 10:3 11:4 12:10 13:5 17:6 18:6 19:4 20:4 21:5 22:8 23:7 24:1 25:2 26:4 
0.8081104147265754 0.8729670497139888 0.7200262443819023 0.8202948164921723 1 0.6655300077593156 0.5974644672655476 0.700711447981366 0.5943929727559023 1:1 2:5 3:4 4:4 5:4 6:6 7:6 8:3 9:3 10:4 11:5 12:1 13:1 14:1 15:1 16:1 17:6 18:6 19:3 20:3 21:5 22:15 23:6 26:6 
0.7794531029716794 0.8402401070187736 0.7510534414946771 0.7858632708828682 0.9080894188124331 0.6361452613528711 0.7061211822417871 0.6691264717650424 0.6121029191540648 1:1 7:4 8:4 9:3 10:3 11:5 12:6 13:9 14:3 15:4 16:4 17:7 18:7 19:5 20:4 21:6 22:8 23:6 24:1 25:1 26:1 
0.5388971238737663 0.5780372486003725 0.3392471768798859 0.5373485860162973 0.8458773048564472 0.4163312809053274 0.8458161490288389 0.4507445188617423 0.2999356046295107 3:4 4:4 5:3 6:4 7:6 8:6 9:3 10:4 11:4 12:4 13:1 17:6 18:6 19:3 20:3 21:5 22:8 23:6 26:6 
0.4391384900098179 0.5091050258281018 0.6551380759329855 0.3568055459529685 0.44352226976949 0.3704158857967524 0.6854634497372009 0.2937060219650932 0.6450331352452473 2:4 3:4 4:3 5:3 6:5 7:5 8:2 9:3 10:4 11:4 15:1 16:1 17:6 18:6 19:3 20:3 21:5 22:8 23:6 26:2 
0.728034242527822 0.7309650775053953 0.8460070739702921 0.5291146070942929 0.874481854659773 0.4753603357949704 0.6534448648449426 0.4391914752768801 0.6939619620310571 5:4 6:4 7:3 8:3 9:5 10:5 11:2 12:3 13:4 14:4 17:6 18:6 19:3 20:3 21:5 22:8 23:6 
0.4711031948573711 0.4781323831012402 0.6274766846503878 0.4348233985695114 0.6299677977877466 0.3582704532990761 0.7779591137561571 0.3610830483740665 0.4179010158603602 7:4 8:4 9:3 10:3 11:6 12:6 13:2 14:3 15:5 16:4 17:6 18:6 19:4 20:3 21:5 22:8 23:6 26:2 
0 0 0.1384034554093208 0 0.2274407371365227 0 0.0665178644196618 0 0 1:4 2:4 3:3 4:3 5:5 6:5 7:2 8:4 9:5 10:4 17:6 18:6 19:3 20:3 21:5 22:8 23:6 26:2 
0.6290332767928163 0.6464093329866001 0.6076155861102617 0.6683219031767411 0.7240588901642802 0.498337715791285 0.4939635359177817 0.5457910903716204 0.4613564086478387 2:5 3:4 4:3 5:3 6:5 7:9 8:2 9:4 10:4 11:4 17:6 18:6 19:3 20:3 21:6 22:8 23:6 24:1 25:1 26:3 
0.3374621279741881 0.1844619508496225 0.2609047881456107 0.2229177919866477 0.2706099626463611 0.132709355802297 0.1220765040338238 0.1579431976633779 0.5835058845899258 1:4 2:4 3:3 4:3 5:5 6:5 7:3 8:4 9:5 10:4 17:6 18:6 19:3 20:3 21:5 22:8 23:6 26:3 
0.5222321502072815 0.5567856125398101 0.8321036599315411 0.3699654228290445 0.5679449128930235 0.3372834185909263 0.7658242681126978 0.2985439749862185 0.7338838874860135 3:4 4:4 5:4 6:3 7:5 8:5 9:3 10:4 11:4 12:4 17:6 18:6 19:3 20:3 21:5 22:8 23:6 26:3 
0.547432971852697 0.5248846991775986 0.519353788851546 0.4752600983151305 0.6264481342965609 0.4016653267236578 0.6202887408498696 0.4137721175516028 0.5379385953293143 7:4 8:4 9:3 10:3 11:5 12:5 13:2 14:3 15:4 16:5 17:6 18:6 19:3 20:3 21:5 22:8 23:7 
0.1873798577310848 0.2430852779198733 0.06642535755356831 0.2233845762656888 0.1292980245450136 0.2109191517976794 0.2062530202001398 0.1690400800401775 0 1:4 2:4 3:3 4:3 5:6 6:5 7:2 8:3 9:4 10:4 12:1 17:6 18:6 19:3 20:3 21:5 22:8 23:6 26:2 
0.3749964727246675 0.4375683417889554 0.4602613108258901 0.3798712178153812 0.5763799997781762 0.344116588189339 0.8918854960869167 0.3429601110128912 0.4449899386909893 6:5 7:4 8:3 9:4 10:5 11:5 12:2 13:4 14:4 15:4 17:6 18:7 19:3 20:3 21:5 22:8 23:6 26:2 
0.5690668737991855 0.4879065340692266 0.5571732080317223 0.449014836170447 0.6220862191874781 0.3649877388186824 0.5639840817322055 0.339253607039487 0.4045772280743527 4:1 5:1 6:5 7:5 8:3 9:3 10:5 11:5 12:2 13:4 14:4 15:4 17:6 18:6 19:3 20:3 21:6 22:8 23:6 26:4 
0.8701467985417574 1 0.7888067602391541 0.8593033657588115 1 0.7123140283332068 0.6540512735808361 0.7448228414353202 0.634471533675301 3:10 5:4 6:4 7:3 8:3 9:5 10:6 11:2 12:3 13:4 14:4 15:1 17:7 18:7 19:5 20:4 21:7 22:9 23:7 24:1 25:1 26:1 
0.5533255413022887 0.6167503297681245 0.8498712141710782 0.5665645470742749 0.7326155091673286 0.4673297736538161 0.5383975827763966 0.5019266108999986 0.4874606096512882 1:5 2:4 3:3 4:3 5:5 6:6 7:3 8:3 9:4 10:4 17:9 18:6 19:3 20:3 21:5 22:8 23:6 
0.223177387388856 0.2474388986654329 0.4352440673615448 0.2539744350936074 0.3283027667006839 0.1975641723711474 0.3683807994605197 0.2263417292730917 0.1010553618491873 1:4 2:3 3:3 4:5 5:5 6:2 7:3 8:5 9:4 15:1 17:6 18:5 19:2 20:2 21:4 22:8 23:6 26:2 
0.8835592969133506 0.9581327755522898 0.8025814844639348 0.8802350201140042 1 0.7291398355451741 0.6605595466890364 0.7622506570321844 0.6518239700893662 1:5 2:3 3:5 4:9 5:8 6:5 7:6 8:6 9:6 10:3 11:1 12:2 13:1 14:2 15:1 16:1 17:6 18:6 19:3 20:3 21:5 22:8 23:6 24:10 25:8 26:9 
0.7048904275947322 0.7638892118607956 0.6573069095129384 0.7016942551799163 0.8077782964105813 0.5753038882997092 0.5112483424606691 0.6091767133147737 0.4945796630114801 5:5 6:5 7:3 8:3 9:5 10:5 11:2 12:3 13:10 14:4 17:6 18:6 19:4 20:4 21:5 22:8 23:7 24:1 25:1 26:3 
0.8834522050669316 0.9608637329369248 0.8027721294266777 0.879815490321915 1 0.7289814338043751 0.6642268212989513 0.7625586108343041 0.6515916780941484 1:1 2:1 3:1 4:1 5:1 6:1 7:5 8:5 9:4 10:4 11:8 12:8 13:3 14:4 15:5 16:5 17:7 18:6 19:3 20:3 21:6 22:8 23:6 24:15 25:2 26:1 
-0.1188478091118576 0.5374559796142494 0.2136280115523726 0.07572063970118108 0.1778103010996896 0.01683287632754581 0.1028067532366673 0.04578127186214886 0.1302200662084325 3:5 4:3 5:3 6:2 7:3 8:2 9:2 10:2 11:3 12:6 17:4 18:2 19:3 20:3 21:7 22:7 23:3 26:2 
-1 1 0.9186105134575058 0.9706995908246602 1 0.797212745850402 0.8876654354360067 0.8559369945749753 0.8000006376073104 2:5 3:3 4:3 5:3 6:3 7:3 8:3 9:2 10:3 11:6 14:10 17:5 18:3 19:3 20:4 21:8 22:8 23:4 24:1 25:1 26:7 
-0.8999591728521658 1 0.709618237817858 0.7775202410695349 1 0.6418326422028439 0.7151925884736773 0.6434726921756809 0.6266394119310957 3:6 4:4 5:3 6:3 7:3 8:2 9:2 10:3 11:3 12:5 17:4 18:2 19:2 20:3 21:7 22:7 23:3 26:6 
-0.9333518416652024 0.9231109565057504 0.7775746337880787 0.8119495811306009 0.9671323280031549 0.6583007950578901 0.7351190854647168 0.712087623177842 0.6884000769013829 7:5 8:8 9:3 10:3 11:3 12:3 13:3 14:2 15:3 16:5 17:4 18:2 19:2 20:4 21:7 22:7 23:4 24:1 25:1 26:6 
-0.3372723557523884 0.246052072466678 0.2689794901469146 0.2881850796362286 0.4787082339564918 0.2362328577235586 0.3166555935494081 0.1835479909976258 0.2102092918865338 7:5 8:3 9:3 10:3 11:3 12:3 13:2 14:2 15:3 16:5 17:4 18:2 19:2 20:3 21:7 22:7 23:3 26:4 
-1 0.9685227985919167 0.9354053499021462 1 1 0.7201954306455517 0.8205674861327653 0.7662852516964812 0.7865804147460761 1:5 2:3 3:2 4:2 5:3 6:3 7:8 8:5 9:4 10:5 12:1 17:5 18:3 19:3 20:4 21:8 22:7 23:3 24:1 25:1 26:6 
-0.2617410323032845 0.3851652571173927 0.3936734979297657 0.3123200966852848 0.3058776091379506 0.2385418596372803 0.224694905991582 0.1636154461775894 0.2113919505449601 4:5 5:3 6:2 7:2 8:2 9:3 10:3 11:2 12:3 13:5 17:4 18:2 19:2 20:3 21:7 22:7 23:3 26:2 
-0.6623127508006134 0.7391939402810289 0.6040078911192068 0.6053551569557541 0.7874795101991338 0.6989676299555141 0.5293253216212341 0.5208773960953876 0.5528254383320643 3:5 4:3 5:2 6:2 7:2 8:2 9:2 10:2 11:3 12:5 17:4 18:2 19:2 20:3 21:7 22:7 23:3 
-1 1 1 0.8917752514780338 1 0.8158282253028097 0.8907882815219004 0.7108709984141717 0.87633955231961 4:1 6:5 7:3 8:2 9:2 10:3 11:3 12:2 13:2 14:3 15:5 17:4 18:2 19:3 20:3 21:7 22:7 23:3 26:2 
-1 1 0.9142933197909954 0.9715213293906868 1 0.7980492569672275 0.8876774102204104 0.8588950795879213 0.8032822863398748 1:1 2:1 3:1 4:5 5:5 6:4 7:3 8:4 9:4 10:3 11:3 12:5 13:5 14:1 17:4 18:2 19:3 20:13 21:7 22:7 23:3 26:6 
-1 1 1 0.960665555265756 1 0.7957757468921286 1 0.8432000071345691 0.9536726624566804 1:1 2:1 3:1 4:1 5:5 6:3 7:3 8:3 9:4 10:4 11:3 12:3 13:4 14:5 15:1 16:1 17:10 18:6 19:6 20:3 21:7 22:7 23:4 
-0.8480271567406791 1 0.8465122262367689 0.7922200805279841 0.8968272038690657 0.763538573445508 0.7047368216572848 0.5976566708773693 0.6894791002267677 2:5 3:3 4:2 5:2 6:2 7:2 8:3 9:2 10:3 11:5 12:1 13:1 17:4 18:2 19:2 20:3 21:7 22:7 23:3 26:3 
-0 0 0 0 0 0.05670355881257695 0.00547334700239448 0.08596461667983801 0 4:5 5:3 6:2 7:2 8:2 9:2 10:2 11:2 12:3 13:5 17:4 18:2 19:2 20:3 21:7 22:7 23:3 
-0 0 0.1096621514728016 0 0 0 0.05511940557405995 0 0.1545711312115419 7:5 8:4 9:3 10:2 11:2 12:2 13:2 14:2 15:3 16:5 17:4 18:2 19:2 20:3 21:7 22:7 23:3 26:2 
-0.5139472032306023 0.9285139034826309 0.4600311443711487 0.443507314339786 0.7816324895622779 0.4628483972001529 0.4317597179725438 0.3337700080320777 0.519380202766296 4:5 5:3 6:2 7:2 8:2 9:2 10:2 11:2 12:3 13:5 14:1 17:4 18:2 19:3 20:3 21:7 22:7 23:3 
-0.7026416249392526 0.6404005482210302 0.6581145025990004 0.5726953366389735 0.8982642644620994 0.5604519439766567 0.5541423492471789 0.5064522481571382 0.4771394214238512 7:6 8:3 9:2 10:2 11:2 12:2 13:2 14:3 15:3 16:5 17:4 18:2 19:2 20:3 21:7 22:7 23:3 26:2 
-1 0.9926437014958971 0.8764919650073265 0.9186974420632807 1 0.7720627236296926 0.8348850320408086 0.7946804206161362 0.7505705747899725 1:6 2:9 3:3 4:2 5:2 6:2 7:3 8:4 9:5 17:5 18:2 19:2 20:3 21:7 22:7 23:3 24:2 25:1 26:4 
-0.6323876218862605 0.5245568992088802 0.7388781306110499 0.5238936868555463 0.7117145332947562 0.5990411792292171 0.4840406494190687 0.4130578067534748 0.4088726144189548 1:5 2:4 3:2 4:2 5:2 6:2 7:2 8:2 9:4 10:5 17:4 18:2 19:2 20:3 21:7 22:7 23:3 26:2 
-0.4371148171108435 0.4267426376545445 0.2777895214000136 0.395708093841611 0.530855389537249 0.2685511089176923 0.3306744470107958 0.3405718549616737 0.363025695657018 1:5 2:3 3:2 4:2 5:2 6:2 7:2 8:2 9:4 10:6 11:1 12:1 17:4 18:2 19:2 20:3 21:7 22:7 23:3 26:4 
-0.0123439758951917 0.09316490718307233 0 0.05630395310537543 0.01110764569761805 0.1071168983111739 0 0.0549062736645454 0 2:1 6:1 7:6 8:3 9:2 10:2 11:2 12:2 13:2 14:2 15:3 16:5 17:4 18:2 19:2 20:3 21:7 22:7 23:3 26:3 
-0.7647788052294823 0.6818802652762793 0.753374582694316 0.6553726176845081 1 0.4995039405484152 0.7079425112704171 0.5273821408451712 0.5847859185173875 3:1 4:5 5:3 6:2 7:3 8:6 9:2 10:2 11:2 12:3 13:5 17:5 18:2 19:2 20:3 21:7 22:7 23:4 24:1 25:1 26:2 
-0.8351522607232007 -1 0.7388954675226092 0.6536183658679344 1 0.5392811560108047 0.7406564118393734 0.5585549104249922 0.583059888144519 3:4 4:4 5:3 6:2 7:3 8:3 9:3 10:3 11:3 12:7 17:4 18:5 19:4 20:4 21:5 22:5 23:2 26:6 
-0.4389051524725665 -0.7608033055086796 0.5166115995796218 0.3217487548121572 0.5468706720974534 0.5809383044021516 0.4511609977008232 0.263005202161449 0.5921309390174596 2:4 3:4 4:3 5:3 6:2 7:2 8:2 9:2 10:2 11:6 12:1 17:4 18:5 19:4 20:4 21:5 22:5 23:2 26:2 
-0.6851326635956948 -1 0.772823399017612 0.5881140447957558 0.9665702008654105 0.777127275445634 0.5637814055053962 0.5067992637283352 0.739862693057583 3:4 4:4 5:3 6:2 7:2 8:2 9:2 10:2 11:2 12:6 17:4 18:5 19:4 20:4 21:5 22:5 23:2 
-0.7003471952256231 -1 0.7377533789594029 0.6057255708016203 1 0.7197657653171916 0.6651431959264692 0.5171615473401603 0.7609494704718001 4:4 5:4 6:3 7:2 8:2 9:2 10:2 11:2 12:2 13:6 17:4 18:5 19:4 20:4 21:5 22:5 23:2 
-0.6162225084005245 -0.4749464058759493 0.5438578619196092 0.5503971058666005 0.5985282962095788 0.4886517780578758 0.4361313893453037 0.4850997846685463 0.4099690166899477 2:4 3:4 4:3 5:2 6:2 7:2 8:2 9:2 10:2 11:6 17:4 18:5 19:4 20:4 21:5 22:5 23:2 
-0.8847706479577331 -0.8399217046150367 0.7952577344340492 0.7207011959550995 1 0.6625930694388728 0.7155011352351193 0.6103073080518924 0.6932760431181025 4:4 5:4 6:3 7:3 8:3 9:3 10:3 11:3 12:2 13:6 14:1 17:4 18:5 19:4 20:4 21:5 22:5 23:2 26:6 
-1 -0.8788772045592861 0.8212761906487266 0.8858390586543377 1 0.7041059413714357 0.8092452906103531 0.7722285663589267 0.6936188893184503 1:1 2:5 3:4 4:4 5:3 6:3 7:3 8:3 9:2 10:2 11:6 12:1 15:1 16:1 17:5 18:14 19:4 20:4 21:5 22:5 23:2 
-1 -0.9155239177534077 0.84619054724284 0.9093875727425432 1 0.7330804974898472 0.8074978594941299 0.7950177948013245 0.7527161496473703 1:4 2:5 3:4 4:3 5:3 6:3 7:3 8:3 9:4 10:7 11:1 14:1 15:1 16:1 17:4 18:8 19:11 20:4 21:5 22:5 23:2 26:4 
-1 -0.946521833671142 0.8461063029456026 0.8792350281270731 1 0.723233807805409 0.7945706799687163 0.765876693323201 0.7248047153433599 1:1 2:1 3:6 4:1 5:1 7:4 8:5 9:3 10:2 11:2 12:2 13:2 14:3 15:3 16:7 17:6 18:5 19:5 20:4 21:5 22:6 23:4 24:1 25:1 26:6 
-0.8656434166956711 -0.8645949457293743 0.8596568921368104 0.7236950554102409 1 0.6714550059802711 0.7727803134618767 0.6267699418446111 0.7477902496037019 3:2 4:4 6:4 7:4 8:3 9:2 10:2 11:2 12:2 13:2 14:2 15:6 17:5 18:6 19:5 20:4 21:5 22:5 23:2 24:1 25:1 26:1 
-1 -0.9204361033862889 0.8415472670401635 0.9177113053273921 1 0.7380208291244134 0.8393525929243328 0.7991571086623419 0.7180000878942768 1:1 2:1 3:5 4:5 5:5 6:3 7:3 8:3 9:4 10:4 11:3 12:9 13:1 14:1 15:1 16:1 17:4 18:5 19:4 20:4 21:5 22:5 23:5 24:15 25:1 26:2 
-1 -0.9698708304978422 1 0.82592763310482 1 0.9099204842693475 0.8238841211443404 0.7006774486202897 0.9308590285801914 5:4 6:4 7:3 8:2 9:2 10:3 11:2 12:2 13:2 14:6 17:4 18:5 19:4 20:4 21:5 22:6 23:2 
-0.8569004548584056 -0.7993159672381446 0.7695843367753072 0.7307185296916154 0.9430966979606162 0.6404560223133695 0.6884907242255999 0.6288167373748799 0.6034477214031376 1:1 3:7 6:4 7:4 8:4 9:2 10:2 11:2 12:2 13:2 14:2 15:6 17:5 18:5 19:4 20:4 21:6 22:6 23:3 24:1 25:1 26:3 
-0.05579696343187644 -0.1026757450098081 0.1724445497340461 0.0556383413965363 0.01270960070049042 0.07604216571661897 0.02660257512452292 0.04610585893452471 0.01666686548948345 4:4 5:5 6:4 7:2 8:2 9:2 10:2 11:2 12:2 13:6 17:4 18:5 19:4 20:4 21:5 22:5 23:2 26:2 
-0.9375702367719322 -0.8306261390621686 0.7790876077020402 0.8172757005872378 1 0.6466807198257508 0.7407402538450767 0.7094065190672832 0.6526858653383059 1:1 2:1 3:7 4:8 5:7 6:2 7:3 8:2 9:2 10:2 11:2 12:6 17:5 18:6 19:5 20:5 21:6 22:5 23:3 24:2 25:1 26:5 
-1 -0.858806672355558 0.7873932616159769 0.8496627744804102 1 0.7019746373253906 0.7553348832632019 0.7394989161835093 0.6712786342239355 3:10 5:4 6:4 7:4 8:3 9:2 10:2 11:2 12:2 13:2 14:6 15:1 17:5 18:6 19:5 20:6 21:6 22:6 23:3 24:1 25:1 26:3 
-1 -0.9244830918366646 0.8458342321950091 0.9138957009245292 1 0.7487075518737485 0.8099961581926514 0.7960049137607327 0.7206622255155285 1:10 7:4 8:4 9:3 10:2 11:2 12:2 13:2 14:2 15:2 16:6 17:5 18:6 19:5 20:5 21:6 22:6 23:3 24:1 25:1 26:1 
-0.588498907083903 -0.7613732836584464 -0.7732199049417215 0.4212403882668961 0.9982796817788838 0.4211155110828252 0.575513195412374 0.3706914964460105 0.7327984263786911 5:4 6:4 7:2 8:1 9:4 10:4 11:3 12:3 13:4 14:4 17:8 18:5 19:3 20:3 21:6 22:6 23:2 
-1 -0.5889130117367629 -0.7972726829314113 0.633662116164923 0.7373454092468325 0.6212886905108671 0.7698541712681075 0.5737371798345835 0.7546700641505506 2:4 3:4 4:2 5:1 6:5 7:5 8:3 9:3 10:4 11:4 17:8 18:5 19:3 20:3 21:6 22:6 23:2 26:2 
-1 -1 -1 1 1 0.8889883990372617 0.8926895445233124 0.9386099204208763 0.862320153864328 1:5 2:5 3:3 4:2 5:4 6:4 7:4 8:3 9:4 10:4 13:10 17:9 18:6 19:4 20:4 21:7 22:7 23:3 24:1 25:1 26:6 
-0.699513298291648 -0.7315605631595001 -0.6801944740077932 0.4807228551638565 1 0.5011043686140044 1 0.4159898471732535 0.6733286100758875 2:1 3:1 6:4 7:4 8:2 9:1 10:4 11:4 12:3 13:3 14:4 15:4 17:8 18:5 19:3 20:3 21:6 22:6 23:2 26:2 
-0.8404749526324816 -0.8266603143671761 -0.9944891590087224 0.5753423588152928 1 0.5848630968934786 0.9928248556638883 0.5046316144848214 0.7878409661512253 3:4 4:5 5:3 6:1 7:4 8:4 9:3 10:3 11:4 12:4 17:8 18:5 19:3 20:3 21:6 22:6 23:2 26:2 
-0.5517461862735871 -0.4042093043360107 -0.4574141447025807 0.4149271858950433 0.7414096492612298 0.3280538676740746 0.8321447773497379 0.3712806998868227 0.7879509103233318 7:4 8:4 9:2 10:1 11:4 12:4 13:3 14:3 15:4 16:4 17:8 18:5 19:3 20:3 21:6 22:6 23:2 
-0.9866885666616916 -0.8583639011420034 -0.9444971384138506 0.8395770461732346 1 0.6946220943596769 1 0.7466204601511016 0.7994290618505858 6:4 7:4 8:8 9:1 10:4 11:4 12:3 13:3 14:4 15:4 17:8 18:6 19:4 20:4 21:7 22:6 23:2 25:1 26:1 
-0.3136383521155001 -0.5637305440636382 -0.3394080846990346 0.2903060520588422 0.5337663370628789 0.3222323819634378 0.2684963258578273 0.2557034608949296 0.1662112465408337 7:5 8:5 9:2 10:1 11:4 12:4 13:3 14:3 15:4 16:4 17:8 18:5 19:3 20:3 21:6 22:6 23:2 26:2 
-1 -1 -1 1 1 0.8497514830281246 0.9158246410212154 0.8973745753735517 0.8834938750691533 1:4 2:4 3:2 4:2 5:5 6:5 7:4 8:10 9:4 10:4 11:1 17:8 18:6 19:4 20:4 21:7 22:6 23:2 24:1 25:1 26:6 
-0.7914933092036835 -0.5658404545836169 -0.5213591980351034 0.4878347325174576 1 0.3850014508644216 0.5505939343016319 0.4286009984930943 0.4715387017496591 1:4 2:2 3:1 4:4 5:4 6:3 7:3 8:5 9:5 17:8 18:4 19:2 20:2 21:5 22:6 23:2 26:2 
-0.9000434631832589 -1 -1 0.7675348203878618 1 0.6906596309385693 1 0.6672402291227765 0.9315229614723215 4:4 5:4 6:3 7:1 8:4 9:4 10:3 11:3 12:4 13:5 17:8 18:5 19:3 20:3 21:6 22:6 23:2 26:2 
-0.5302457766794584 -0.2919911051672887 -0.3473249750592197 0.3081946116892839 0.6511643997807731 0.2493259869818653 0.8155192612473947 0.2705519721806504 0.2454424068319033 5:1 7:4 8:4 9:2 10:1 11:4 12:5 13:3 14:3 15:4 16:4 17:8 18:5 19:3 20:3 21:6 22:6 23:2 26:2 
-0.5659052835378995 -0.4485551502702294 -0.5240121930894159 0.4536694001680485 0.779246253929864 0.578240276314682 0.6645912643365639 0.4093699240316775 0.4130861549142987 1:5 2:2 3:1 4:4 5:4 6:3 7:3 8:4 9:4 17:8 18:4 19:2 20:3 21:5 22:6 23:2 
-1 -0.7892669802338184 -0.8166589681797854 0.7463179690358455 1 0.6053574386032781 0.8178875629755331 0.6603709225696511 0.7520567567253543 1:2 2:2 3:5 4:5 5:3 6:1 7:4 8:5 9:4 10:4 11:4 12:4 17:8 18:5 19:4 20:5 21:7 22:7 23:4 25:2 26:1 
-1 -0.8566687846301084 -0.7101204740547302 0.6745052862594288 1 0.5712288284533292 0.741512208943889 0.565182586809341 0.669722143505328 1:4 2:4 3:2 4:2 5:4 6:4 7:3 8:3 9:4 10:4 17:8 18:5 19:3 20:3 21:7 22:6 23:2 
-0.7377138144212598 -0.4283678560277943 -0.5075891750895739 0.4847883293214129 0.6911006045292646 0.4292841673734795 0.4852807328822366 0.4274405324840592 0.2404546186719177 5:4 6:5 7:2 8:1 9:4 10:4 11:3 12:3 13:5 14:4 17:8 18:5 19:3 20:3 21:6 22:6 23:2 26:2 
-0.1912049093408886 -0.4407000694535495 -0.2675554841715886 0.2164399329050792 0.4089739006869398 0.1668177066534761 0.3648282034031703 0.1503519134021968 0.2848070433136988 1:1 2:4 3:4 4:2 5:1 6:4 7:4 8:3 9:4 10:4 11:4 13:1 14:1 17:8 18:5 19:3 20:3 21:7 22:6 23:2 26:3 
-1 -0.9004438470673256 -0.9932045730848952 0.8848965640117507 1 0.7481348332077927 0.7942178635844631 0.7985202751148065 0.708100795196478 1:1 2:6 3:4 6:4 7:4 8:2 9:2 10:4 11:4 12:3 13:3 14:4 15:4 16:1 17:9 18:6 19:4 20:4 21:7 22:7 23:3 24:1 25:1 26:4 
-1 -0.9685104751996111 -1 -0.8907477017211152 1 0.8039869187357856 0.8665617539050453 0.8380074761470468 0.8080760646461941 1:3 2:4 3:5 4:5 5:5 6:4 7:8 8:3 9:3 10:3 11:1 12:1 13:1 17:3 18:3 19:3 20:3 21:10 22:10 23:7 24:7 
-0.6575003551332189 -0.5842272275703387 -0.6684365298525906 -0.5683692671404883 0.708942134278421 0.5301070969495078 0.5563721908210922 0.5534204332373335 0.5185639940706528 1:2 2:3 3:4 4:4 5:5 6:4 7:8 8:3 9:3 10:3 17:3 18:3 19:3 20:3 21:10 22:10 23:1 26:6 
-0.9776903569610055 -0.9448934839947358 -0.9363815698566426 -0.8349728622350717 0.9984644204064659 0.7333358184749703 0.8216409777185344 0.7626716924208419 0.755741878077948 6:1 7:2 8:3 9:4 10:4 11:4 12:3 13:7 14:2 15:2 16:2 17:3 18:3 19:3 20:3 21:10 22:11 23:1 
-0.89286352869181 -0.83487385921733 -0.8464485947581419 -0.7428911076535427 0.911347700799235 0.6696877271061724 0.7315934509398321 0.6973348208911665 0.6720435165246423 4:2 5:3 6:4 7:10 8:5 9:3 10:7 11:2 12:2 13:2 15:1 17:4 18:3 19:3 20:4 21:10 22:10 23:2 24:1 25:1 26:3 
-1 -1 -1 -0.9385262532328228 1 0.8474624018654379 0.9115912993526808 0.8835421781170506 0.850958961952623 3:2 4:3 5:4 6:4 7:5 8:5 9:8 10:3 11:3 12:3 13:1 14:1 15:2 16:1 17:3 18:3 19:3 20:3 21:10 22:10 23:1 25:10 26:2 
-1 -0.9531919844904101 -0.976287445265734 -0.8596018432290201 1 0.7750926654818339 0.8516411097922488 0.8002295925473285 0.7773669670949864 4:1 5:1 7:10 8:3 9:4 10:4 11:4 12:3 13:7 14:2 15:2 16:2 17:4 18:4 19:4 20:4 21:10 22:10 23:2 24:1 25:1 26:3 
-0.7427289153062165 -0.6205939570102563 -0.7076961865976551 -0.6265041999385037 0.7581437033471846 0.5655542277518771 0.5963043336786801 0.5935032538615873 0.5676317474521357 1:2 2:3 3:4 4:5 5:5 6:4 7:3 8:8 9:2 10:2 11:2 17:3 18:3 19:3 20:3 21:10 22:11 23:1 26:6 
-0.9796565244190429 -0.8843445043356422 -0.9144955050673893 -0.8030711725702711 0.9822592751725209 0.7219249143170153 0.7868372771231313 0.7504775122573721 0.7707049818361522 1:4 2:5 3:5 4:6 5:4 6:8 7:4 8:3 9:4 10:1 11:1 17:3 18:3 19:3 20:3 21:9 22:9 23:5 24:4 25:3 26:3 
-0.6587745289996622 -0.7094496927563665 -0.647572754855246 -0.5816015825450378 0.6753803686563417 0.4959672891388821 0.5790008861303548 0.5089826564370354 0.5205501030640298 4:3 5:3 6:4 7:4 8:4 9:3 10:7 11:3 12:2 13:2 17:3 18:3 19:3 20:3 21:10 22:10 23:1 26:2 
-0.2873688398658008 -0.4092905845873952 -0.219934515364624 -0.2194220630867813 0.2374074973822696 0.1693895933726241 0.2089909279270857 0.1728414009967534 0.2072454858329403 1:2 2:3 3:4 4:4 5:4 6:4 7:8 8:3 9:3 10:3 11:1 17:3 18:3 19:3 20:3 21:10 22:10 23:1 26:6 
-0.8418502550191431 -0.8044234416130293 -0.8086561486400446 -0.7191530529266412 0.8596498259852668 0.6345911978647137 0.7037098461403167 0.6541585656471933 0.6421717888252867 5:2 6:4 7:4 8:4 9:4 10:4 11:8 12:2 13:2 14:2 17:3 18:3 19:3 20:3 21:10 22:10 23:1 26:3 
-0.4552262209815466 -0.5692958488641583 -0.4461104093173403 -0.4150141695871214 0.4673913830351188 0.3338782566479143 0.4284902108585133 0.3383638315752095 0.353456068033031 2:2 3:3 4:4 5:4 6:4 7:3 8:7 9:2 10:3 11:3 12:1 13:1 17:3 18:3 19:3 20:3 21:10 22:10 23:1 26:4 
-0.9341578395616847 -0.8952595004968203 -0.8931165207826215 -0.8170446421032831 0.9540327422111651 0.7114123511909299 0.7940696650646202 0.7227003456481055 0.7187761812126958 1:3 2:4 3:4 4:4 5:3 6:7 7:2 8:2 9:2 10:1 17:3 18:3 19:3 20:3 21:9 22:10 23:1 
-1 -0.9446753276111923 -0.9747280447909461 -0.8570240583713601 1 0.7598167636661262 0.8299113789005483 0.7901675680303495 0.7760862717581068 1:3 2:4 3:4 4:4 5:3 6:7 7:2 8:2 9:3 10:1 12:5 13:5 17:4 18:4 19:4 20:4 21:10 22:10 23:2 24:1 25:1 26:3 
-0.9568381186456143 -0.9010811594475001 -0.9094275133969272 -0.8060156724931967 0.9732283482622783 0.7139664574994321 0.815358678635925 0.7422835605910244 0.7283889956210378 6:3 7:3 8:4 9:5 10:5 11:5 12:8 13:2 14:2 15:2 17:3 18:3 19:3 20:3 21:10 22:10 23:2 24:1 25:1 26:3 
-0.9318989709573864 -0.7822664531723803 -0.8622330589449674 -0.7117722935617082 -0.802756271977385 0.6299727271236487 0.6895066924211722 0.6914971544945102 0.6022694161194984 3:1 4:6 5:2 6:2 7:5 8:6 9:2 10:2 11:3 12:4 13:6 14:8 17:8 18:5 19:5 20:4 21:6 22:6 23:4 24:1 25:1 26:7 
-0.5432223837526516 -0.5724305946691661 -0.7755107781998436 -0.6654448476125652 -0.4470668579679869 0.4482383361277371 0.4370780564340599 0.3844753118515735 0.4235237218573484 1:1 2:1 3:4 4:4 5:2 6:2 7:3 8:4 9:4 12:5 13:2 17:7 18:4 19:3 20:3 21:4 22:5 23:3 24:1 25:1 26:1 
-0.9787356667250472 -0.9192274816635779 -1 -0.8885579399035709 -0.6973898019754566 0.6440130420925775 0.7930801720779534 0.5862242048956787 0.6521241862445146 3:5 4:1 5:1 6:4 7:4 8:3 9:3 10:4 11:5 12:5 13:1 17:7 18:4 19:3 20:3 21:5 22:5 23:3 26:6 
-0.925747036039327 -0.7729325712267581 -0.8542598490185594 -0.7528469974215235 -0.7250576954327369 0.5802864132768999 0.7110576648267901 0.618313465312016 0.5999086125548968 1:1 2:2 3:5 4:5 5:3 6:3 7:3 8:4 9:5 11:7 12:3 17:7 18:4 19:3 20:3 21:5 22:6 23:4 24:1 25:1 26:7 
-0.9745527194331225 -0.8218092161423717 -0.9028719007310939 -0.7496048911027009 -0.8519362677438085 0.6698371529960604 0.693787809017597 0.7347667010498566 0.5843101866834226 1:2 2:6 3:2 4:2 5:4 6:5 7:3 8:3 9:4 10:8 11:7 12:1 15:1 16:2 17:8 18:4 19:4 20:14 21:6 22:7 23:4 24:1 25:1 26:1 
-0.6091537280934899 -0.9876767890993708 -0.8492584067572163 -0.945894062794322 -0.5172692602748031 0.6515224610525068 0.6845201765772376 0.4344369462157588 0.7851898163777709 4:5 5:1 6:1 7:4 8:4 9:2 10:2 11:3 12:4 13:4 17:7 18:4 19:3 20:3 21:5 22:5 23:3 
-1 -0.8235142147250928 -0.8981547832627639 -0.7472823092501967 -0.8546298847484011 0.6653779720073923 0.6984079081927116 0.7306298654947848 0.5811666739304441 1:1 2:1 3:6 4:2 5:2 6:5 7:5 8:2 9:3 10:4 11:5 12:6 13:2 14:2 15:1 16:1 17:7 18:4 19:3 20:3 21:5 22:16 23:4 26:6 
-1 -1 -0.9395262105424763 -1 -0.7897050729889158 0.7284149661434335 1 0.6590087185382242 0.7491024139362699 6:6 7:2 8:1 9:5 10:5 11:2 12:2 13:3 14:4 15:4 17:7 18:4 19:3 20:3 21:6 22:6 23:3 26:2 
-0.7409866915338846 -0.6600039292536855 -0.5974242794577158 -0.5811019133835261 -0.6215265919740923 0.460949371509085 0.6010110447337915 0.533456638467863 0.4337269907288435 4:5 5:1 6:2 7:4 8:10 9:2 10:3 11:4 12:4 13:4 17:7 18:4 19:4 20:4 21:5 22:5 23:4 24:1 25:1 26:4 
-0.9615883690409679 -0.8024983282821003 -0.8559498111782251 -0.7396204541197456 -0.8187732699164724 0.6795546521755161 0.727439412106696 0.6760584908448094 0.5997919613154963 5:5 6:1 7:10 8:4 9:4 10:2 11:2 12:3 13:4 14:4 17:7 18:5 19:4 20:4 21:6 22:6 23:4 24:1 25:1 26:1 
-1 -0.8932150062719314 -0.7738213613742702 -1 -0.7152150258840542 0.6292728380500113 0.7461011367100195 0.5953684806270766 0.6884493882779253 1:5 2:1 3:1 4:4 5:4 6:4 7:2 8:4 9:5 10:5 17:7 18:5 19:3 20:3 21:6 22:5 23:3 24:1 26:2 
-0.7192527672830469 -0.4999159797021882 -0.583732088606352 -0.6727999647082946 -0.4546568930053121 0.4182950392993358 0.4860528539807701 0.3852976027592511 0.4018657907293947 5:5 6:2 7:2 8:5 9:5 10:2 11:2 12:3 13:4 14:4 17:7 18:4 19:3 20:3 21:5 22:5 23:3 26:4 
-0.7013026620826126 -0.7463000759072568 -0.6709506328833253 -0.7350756145942987 -0.6190852279280578 0.5569640241468637 0.506172728192088 0.5325398168186321 0.6246541969881944 7:5 8:1 9:1 10:4 11:4 12:2 13:2 14:3 15:4 16:4 17:7 18:4 19:3 20:3 21:5 22:5 23:3 
-0.8617051228091188 -0.6644066339481445 -0.603867356115925 -1 -0.5492774962664954 0.9365070068807834 0.6767656319680451 0.4508268756919279 0.4757902983453528 1:2 2:1 3:4 4:4 5:2 6:2 7:3 8:4 9:4 17:6 18:3 19:2 20:2 21:4 22:6 23:3 
-0.8622346500134274 -0.7083009039388802 -0.7927448063770477 -0.7651434421491322 -0.6978608413752654 0.5942960240994095 0.6467146884208833 0.5927496962936413 0.5832128888206363 1:5 2:1 3:8 4:4 5:4 6:2 7:2 8:4 9:4 10:4 15:1 17:7 18:5 19:4 20:4 21:6 22:5 23:3 24:1 25:1 26:3 
-0.4420933638414333 -0.3881717590761529 -0.227812387967015 -1 -0.140904966824854 0.2577382327293743 0.815021289299885 0.1093314361181289 0.3191538141224607 6:1 7:5 8:2 9:1 10:4 11:4 12:3 13:3 14:3 15:4 16:4 17:7 18:5 19:3 20:3 21:5 22:5 23:3 26:3 
-0.6648558924522103 -0.688315366980856 -0.7706144960361546 -1 -0.5090749746197148 0.5966449991404436 0.498811137572809 0.4350064007404523 0.7185925045523787 5:5 6:1 7:1 8:4 9:4 10:2 11:2 12:3 13:4 14:4 17:7 18:4 19:3 20:3 21:5 22:5 23:3 
-0.9161937414685001 -0.6163121977882074 -0.7240082152913256 -0.6019506583425005 -0.6452546824525005 0.5457858983477752 0.568400488751334 0.5491266377898304 0.6108620074606902 1:1 2:2 3:6 4:8 5:3 6:2 7:4 8:4 9:4 13:1 14:1 17:6 18:5 19:3 20:3 21:4 22:5 23:4 24:1 25:1 26:4 
-0.7485004980394635 -0.6790516901877854 -0.7254081412688606 -0.4860477032162691 -0.6595964672361578 0.6237582338600639 0.42119569846229 0.5660010522877054 0.5141055855722404 4:1 5:1 6:1 7:6 8:2 9:2 10:4 11:6 12:2 13:2 14:3 15:4 16:4 17:7 18:4 19:5 20:3 21:5 22:5 23:3 26:6 
-0.5613687661535911 -0.5210603167835804 -0.6596269038204116 -0.4981431441163118 -0.4092098489437972 0.3616859301155605 0.5015155387296074 0.3430865210028077 0.3384478186743473 4:6 5:2 6:2 7:5 8:6 9:3 10:2 11:3 12:4 13:4 17:7 18:4 19:3 20:4 21:5 22:5 23:3 26:6 
-0.7867728640256449 -0.7372866042956374 -0.7805717683301041 -0.6802757253740276 -0.6971574188377825 -0.7935699274672292 0.6499233034419885 0.6370892765366142 0.6320882866355618 4:8 5:2 6:2 7:2 8:2 9:2 10:2 11:3 12:1 13:1 17:4 18:3 19:3 20:3 21:3 22:4 23:3 26:2 
-0.5488318447533128 -0.5206417929470875 -0.5489514413443032 -0.4597216174016883 -0.4793500948106533 -0.600277200855847 0.4399345164025474 0.4380406559543029 0.4368579804357448 1:8 2:2 3:2 4:2 5:2 6:2 7:2 8:2 9:1 10:1 12:1 13:1 17:4 18:3 19:3 20:3 21:3 22:4 23:3 24:1 26:2 
-0.8892199290435482 -0.8875489407151633 -0.900348102517099 -0.775360177956733 -0.7860378208101199 -1 0.7462447621327281 0.7110219666516561 0.8459723722578698 7:7 8:2 9:3 10:3 11:3 12:3 13:3 14:3 15:1 16:1 17:4 18:3 19:3 20:3 21:3 22:4 23:3 26:6 
-0.4794243221420262 -0.5376077883955196 -0.6549264648843817 -0.4298337120856306 -0.4069819933451131 -0.6143107464138905 0.3895006212328741 0.3692366339738006 0.4406185604652819 3:7 4:2 5:2 6:2 7:2 8:2 9:2 10:2 11:1 12:1 14:1 15:1 17:4 18:3 19:3 20:3 21:3 22:4 23:3 26:2 
-1 -1 -1 -1 -1 -1 0.989265430556874 0.9332717170050714 1 6:8 7:2 8:2 9:2 10:3 11:3 12:2 13:2 14:2 15:1 17:4 18:4 19:3 20:3 21:3 22:4 23:3 26:3 
-0.4453262283996482 -0.5655731572538965 -0.6687684439572317 -0.4473629764289849 -0.3909348920366582 -0.7171938532685861 0.386518524786079 0.3563936846415121 0.560441349881075 4:7 5:2 6:2 7:2 8:2 9:2 10:2 11:2 12:1 13:1 17:4 18:3 19:3 20:3 21:3 22:4 23:3 
-0.7735898810902554 -0.7935169696346797 -0.7571561846718646 -0.7557641046554859 -0.6893767295136566 -0.8477002940791756 0.6848090073032468 0.6221561013405291 0.6047509204352229 1:8 2:3 3:2 4:2 5:2 6:2 7:2 8:2 9:1 10:1 17:4 18:3 19:3 20:3 21:4 22:4 23:3 24:1 
-0.8116485864524946 -0.873161468934852 -0.8420202252225903 -0.7490160739624278 -0.72397345777526 -1 0.6924453672547676 0.6558760552045987 0.7336596789475538 7:8 8:2 9:2 10:2 11:2 12:2 13:2 14:3 15:1 16:1 17:4 18:3 19:3 20:3 21:3 22:4 23:3 26:2 
-0.7243126790928152 -0.692000378136911 -0.7176545090269018 -0.6264468124538051 -0.6397870136441809 -0.819067941005558 0.599832399504292 0.5840874650290098 0.5476564597027747 1:2 2:2 3:2 4:2 5:3 6:3 7:3 8:2 9:1 17:3 18:2 19:2 20:2 21:2 22:3 23:2 26:4 
-0.6307334669296949 -0.6032088011786234 -0.7612495739843492 -0.5745487233510161 -0.5686538168497156 -0.7602254196897051 0.5398558886043856 0.5215840700503849 0.5858155981323605 5:7 6:2 7:2 8:2 9:2 10:2 11:2 12:2 13:1 14:1 17:4 18:3 19:3 20:3 21:3 22:4 23:3 
-0.5791433399735656 -0.5823889581634991 -0.6664852876419045 -0.534591587977 -0.4925177976400245 -0.6481891977270654 0.4709822165352699 0.4420116292918089 0.6444875139808449 5:7 6:2 7:2 8:2 9:2 10:3 11:3 12:2 13:1 14:1 17:4 18:3 19:3 20:3 21:3 22:4 23:3 26:2 
-1 -1 -1 -0.9735602550845759 -0.9585789287340729 -1 0.9098241663208324 0.8712535995470216 0.9288565719398117 2:7 3:2 4:2 5:2 6:3 7:2 8:2 9:2 10:2 11:2 15:2 16:1 17:4 18:3 19:3 20:3 21:3 22:4 23:3 24:1 25:1 26:4 
-0.6992338327652928 -0.7146535309779688 -0.7639030101874024 -0.6295884458232694 -0.6328237160659856 -0.8785807406674218 0.6071905614956643 0.5758285557187123 0.5931709319715097 3:7 4:2 5:2 6:2 7:2 8:2 9:2 10:2 11:1 12:1 17:4 18:3 19:3 20:3 21:3 22:4 23:3 
-1 -1 -1 -1 -1 -1 1 1 1 1:7 2:2 3:2 4:2 5:2 6:3 7:2 8:2 9:1 10:2 11:10 17:5 18:4 19:4 20:4 21:4 22:5 23:4 24:1 25:1 26:3 
-1 -0.9659087951679963 -1 -0.9620629975294558 -0.9374952223227653 -1 -0.7996358588567775 0.83740307639986 0.8176854366997394 1:1 2:1 3:1 4:5 5:4 6:3 7:5 8:4 9:4 10:3 11:3 12:10 13:4 17:7 18:7 19:4 20:4 21:7 22:7 23:4 24:1 25:1 26:6 
-1 -1 -1 -1 -1 -1 -0.8861957616398632 0.9289364564096083 0.9024615326462004 4:2 5:5 6:4 7:3 8:4 9:5 10:5 11:3 12:3 13:4 14:10 17:9 18:8 19:4 20:3 21:7 22:8 23:4 24:1 25:1 26:3 
-1 -0.9249619741360521 -0.9886900621931665 -0.9084834740633527 -0.9153647736982259 -1 -0.7760529085997417 0.8163593406704659 0.7897082071480673 3:5 4:5 5:4 6:5 7:5 8:10 9:3 10:3 11:4 12:4 17:7 18:7 19:4 20:4 21:7 22:7 23:4 24:1 25:1 26:6 
-0.9187186332785194 -0.6755964471784842 -0.6563475868064502 -0.6654328296629555 -0.6636856242431204 -0.8452254355180244 -0.5537520371509326 0.5973706937570286 0.5218044284841142 4:4 5:4 6:3 7:4 8:8 9:6 10:3 11:3 12:4 13:4 17:8 18:7 19:3 20:3 21:7 22:8 23:4 24:1 25:1 26:1 
-1 -1 -1 -1 -1 -1 -0.9271653264543186 0.970783857706217 0.9401169119790974 1:1 2:1 3:1 4:5 5:5 6:4 7:5 8:5 9:5 10:4 11:4 12:5 13:4 16:1 17:7 18:7 19:3 20:3 21:7 22:7 23:3 24:13 
-1 -0.5776578671453658 -0.6916939477751856 -1 -0.5123758023577273 -0.9145267382361466 -0.4142764795565034 0.4138437123790546 0.6262348473041895 3:4 4:4 5:3 6:5 7:5 8:5 9:4 10:3 11:4 12:4 17:7 18:7 19:3 20:3 21:7 22:7 23:3 26:4 
-0.8663999750250277 -0.5416941051446718 -0.4649169539171506 -0.9966494954274346 -0.429889970558048 -0.7728084423293857 -0.3679452198133493 0.3604091426370407 0.3010510499743137 5:1 7:4 8:4 9:3 10:4 11:4 12:5 13:3 14:3 15:4 16:4 17:7 18:7 19:3 20:3 21:7 22:7 23:3 26:2 
-1 -0.658950880606271 -0.6679271317769413 -1 -0.5506643903555347 -1 -0.4893914869566393 0.4626149996428207 0.5766968267842341 3:1 6:4 7:4 8:3 9:4 10:5 11:4 12:3 13:3 14:4 15:4 17:7 18:7 19:3 20:3 21:7 22:7 23:3 26:2 
-0.7863253625944445 -0.495816587781737 -0.4939565294680581 -0.7557975717963491 -0.4230190109841923 -0.4958347828279848 -0.3404859346606821 0.3510650404970296 0.5292343400417169 5:1 6:4 7:5 8:4 9:4 10:4 11:4 12:4 13:3 14:4 15:4 17:7 18:7 19:5 20:3 21:7 22:7 23:3 26:2 
-0.04663190576836849 -0.0006142239499777226 -0.03590584710517895 -0.06572872917317198 -0 -0 -0 0 0 4:4 5:4 6:3 7:4 8:4 9:4 10:3 11:3 12:4 13:4 17:7 18:7 19:3 20:3 21:7 22:7 23:3 
-1 -1 -1 -1 -0.9520005033231566 -1 -0.8122570336161715 0.8185403728242105 1 2:4 3:4 4:3 5:5 6:5 7:4 8:3 9:3 10:5 11:5 17:7 18:7 19:3 20:3 21:7 22:7 23:4 26:3 
-0.4891465119578788 -0.5898697713009575 -0.5737242243230468 -1 -0.352948923465956 -0.7348838166472953 -0.3187109008458567 0.2743953221849166 0.6337915103156267 4:4 5:4 6:3 7:4 8:4 9:4 10:3 11:3 12:4 13:4 17:7 18:7 19:3 20:3 21:7 22:7 23:3 
-0.8691026093024516 -0.593556783055551 -0.6103778880986953 -1 -0.5612255908573158 -0.8133014779212312 -0.4675447006481663 0.4956351101246429 0.8257837097425929 7:4 8:4 9:3 10:4 11:4 12:4 13:3 14:3 15:4 16:4 17:7 18:7 19:3 20:3 21:7 22:7 23:3 
-1 -1 -1 -1 -1 -1 -0.9676479831416187 0.9179852851740637 1 1:4 2:3 3:4 4:4 5:5 6:3 7:3 8:4 9:4 17:7 18:6 19:3 20:2 21:6 22:7 23:3 
-0.7770506262820742 -0.6155528831253966 -0.6337384449703802 -0.5863691216054687 -0.6096746501361038 -0.694821666271194 -0.5124552141115049 0.5457888606840394 0.5034138539364323 3:1 4:5 5:4 6:4 7:5 8:4 9:5 10:4 11:6 12:5 13:5 14:1 17:9 18:8 19:5 20:5 21:8 22:9 23:3 26:2 
-0.7670143497154929 -0.5790868242504594 -0.623591371373033 -0.5412543235131571 -0.5737295246864628 -0.6312377687244791 -0.4728099195194238 0.5055151755601143 0.4618908206419458 3:1 4:4 5:5 6:3 7:4 8:4 9:4 10:7 11:3 12:5 13:4 14:1 17:7 18:9 19:5 20:4 21:8 22:7 23:3 26:2 
-1 -1 -1 -1 -1 -1 -0.9165668794163258 -0.9826281419787827 0.9351227333897298 7:9 8:5 9:5 10:3 11:2 12:2 13:2 14:2 15:6 16:6 17:3 18:4 19:10 20:10 21:2 22:2 23:2 24:2 25:2 26:5 
-0.1817289857360948 -0.1641997318003012 -0.1770513994827055 -0.1476616062039889 -0.157431107287063 -0.1876829388170559 -0.1358442572442878 -0.1467694980078009 0.1401310052689311 3:2 4:4 5:4 6:2 7:2 8:2 9:2 10:2 11:3 12:4 17:1 18:3 19:10 20:10 21:1 26:2 
-0.9095049621294691 -0.8344369165866226 -0.8811958918201311 -0.7686606693822595 -0.8132209354525609 -0.930592141561547 -0.6999945422546116 -0.7524195862357687 0.7162233511660518 4:3 5:3 6:4 7:2 8:2 9:2 10:2 11:4 12:3 13:5 14:2 15:2 16:2 17:4 18:4 19:12 20:12 21:2 26:2 
-0.7036530305283077 -0.6440221063013652 -0.6848525624143278 -0.593272258126193 -0.6275564402269623 -0.7226441436862222 -0.5434737267734445 -0.5796523412590872 0.5532394906042636 1:3 2:4 3:2 4:2 5:2 6:2 7:3 8:2 9:4 17:1 18:4 19:9 20:9 21:1 
-0.5594258258199472 -0.513888663120616 -0.5460014186836509 -0.4751478614084923 -0.5018969361549901 -0.5723865575173035 -0.4357684415425167 -0.4651431419977933 0.4429098737983398 4:2 5:3 6:4 7:2 8:2 9:2 10:2 11:2 12:2 13:4 17:1 18:3 19:10 20:10 21:1 
-0.7941587667119628 -0.728886916207765 -0.7720134338487556 -0.6726822678103795 -0.7113796805380243 -0.8144440865828328 -0.6169881606115446 -0.657958213112426 0.628239307769895 1:3 2:4 3:2 4:2 5:2 6:2 7:2 8:2 9:5 10:1 11:1 12:1 13:1 14:1 17:1 18:3 19:9 20:9 21:1 26:6 
-1 -1 -1 -0.9590278937562066 -1 -1 -0.8782746466616007 -0.9386000168205358 0.8940839935925766 1:3 2:4 3:2 4:10 5:2 6:2 7:2 8:2 9:4 17:2 18:4 19:9 20:9 21:2 22:1 23:1 24:1 25:1 26:1 
-0.3994546823752253 -0.3672095193148484 -0.3965542824783047 -0.3396768696609965 -0.3577898458333387 -0.4101140821376411 -0.3145020884025697 -0.3309418258632071 0.3189234704840138 2:2 3:3 4:4 5:2 6:2 7:2 8:3 9:2 10:2 11:5 12:1 15:1 17:1 18:3 19:10 20:10 21:1 22:2 26:2 
-0.3512060798586712 -0.3250682400480016 -0.3409968406707731 -0.3037248375084654 -0.3196451346143542 -0.3575414919002628 -0.2773215411049462 -0.295788464791945 0.2813453666048907 3:2 4:3 5:4 6:2 7:2 8:2 9:2 10:3 11:3 12:4 17:1 18:3 19:10 20:10 21:1 26:2 
-1 -0.9339058999753163 -0.9889767146135217 -0.8582396304550042 -0.9102601745859175 -1 -0.7831361115195374 -0.8401805578735945 0.7998721990902876 5:1 6:1 7:3 8:4 9:5 10:3 11:2 12:2 13:2 14:2 15:2 16:4 17:1 18:3 19:10 20:10 21:1 26:6 
-0.8385123143750117 -0.7713067277962078 -0.8169718946439724 -0.7114510453676059 -0.7510699111001294 -0.8579178038476386 -0.6488811956046638 -0.695745942978219 0.6627338167937363 3:1 4:3 5:5 6:5 7:3 8:3 9:2 10:2 11:2 12:2 13:4 17:1 18:3 19:10 20:10 21:2 26:6 
-0.5506503559861153 -0.5034658470671036 -0.5330912523135061 -0.4641571945346092 -0.4909088585500639 -0.5623310830508409 -0.4223425747645583 -0.4549929595266627 0.4313957372369043 2:2 3:3 4:4 5:2 6:2 7:2 8:2 9:2 10:2 11:5 17:2 18:3 19:10 20:10 21:1 
-1 -1 -1 -1 -1 -1 -0.9567192490243969 -1 0.9778722965018678 1:1 2:1 3:1 4:1 5:3 6:4 7:6 8:4 9:4 10:4 11:4 12:4 13:3 14:5 15:1 16:1 17:1 18:3 19:10 20:10 21:1 25:16 26:6 
-0.1903308218394514 -0.1726222242636699 -0.1827828243373512 -0.1585664746600031 -0.1675258640619944 -0.1925476881931836 -0.1497032592853287 -0.1558257562052899 0.1468885818373796 1:3 2:5 3:3 4:2 5:2 6:2 7:2 8:2 9:4 17:1 18:3 19:9 20:9 21:1 26:2 
-1 -1 -1 -1 -1 -1 -0.9383347367346898 -1 0.9605176281037479 6:2 7:4 8:5 9:2 10:3 11:4 12:3 13:10 14:3 15:6 16:3 17:4 18:6 19:10 20:10 21:3 22:2 23:3 24:2 25:2 26:3 
-1 -1 -1 -1 -1 -1 -0.9786216281815946 -1 -1 4:2 5:5 6:6 7:4 8:3 9:3 10:3 11:5 12:5 13:2 15:10 17:7 18:5 19:6 20:6 21:5 22:7 23:5 24:1 25:1 26:5 
-1 -1 -1 -1 -0.9837993048464864 -1 -0.8095622739654448 -0.9531064681999425 -0.823570546464094 1:2 2:4 3:4 4:3 5:3 6:8 7:5 8:4 9:5 10:3 17:6 18:5 19:5 20:5 21:5 22:6 23:4 24:1 25:1 26:3 
-0.9767282895904625 -0.8311250184985817 -0.9030443546052455 -1 -0.6226500329851312 -1 -0.7414139598522308 -0.79441306651221 -0.5334029547948668 6:2 7:4 8:4 9:3 10:3 11:3 12:3 13:4 14:4 15:2 17:6 18:4 19:4 20:4 21:4 22:6 23:4 
-0.7692416892449396 -0.515214061927039 -0.5439680728698829 -0.6326859259054649 -0.2821394597663033 -0.7163029868306563 -0.5119160005342562 -0.5874070633021524 -0.2127994125633275 3:2 4:4 5:4 6:4 7:3 8:3 9:3 10:4 11:4 12:2 13:1 17:6 18:4 19:4 20:4 21:4 22:6 23:4 26:2 
-0.5754659810074428 -0.5113477100906839 -0.756313141948285 -0.6375359928921102 -0.4954592925487896 -0.56994528646147 -0.5329709638156493 -0.4209079546015473 -0.4606747165331277 2:1 3:2 4:4 5:4 6:3 7:3 8:3 9:3 10:4 11:4 12:2 17:6 18:4 19:5 20:4 21:4 22:6 23:4 
-1 -1 -1 -1 -1 -1 -0.922302402273373 -1 -0.9553450625526356 1:5 2:4 3:3 4:3 5:3 6:3 7:4 8:5 9:3 10:1 11:1 12:1 13:1 14:1 15:1 16:1 17:15 18:5 19:3 20:3 21:4 22:6 23:4 
-1 -0.9846518295242743 -1 -1 -0.8593406657537502 -1 -0.8094602349938909 -0.9589558562268125 -0.7565895616373985 1:1 2:4 3:5 4:5 5:3 6:3 7:4 8:3 9:5 10:4 11:2 17:6 18:5 19:4 20:5 21:4 22:6 23:4 26:5 
-0.7819323172752167 -0.8303748938061404 -0.9384395722537792 -0.8945529779879716 -0.6470570857481817 -1 -0.7692910819190357 -0.7564521857009523 -0.5675526461985071 4:2 5:4 6:4 7:3 8:3 9:3 10:3 11:4 12:4 13:2 17:6 18:4 19:4 20:4 21:4 22:6 23:4 
-1 -1 -1 -1 -1 -1 -0.9136307492103171 -0.9822970555710767 -0.9475514626307514 1:3 2:6 3:5 4:4 5:5 6:5 7:4 8:4 9:5 10:3 11:1 12:1 13:1 14:1 15:1 16:1 17:16 18:4 19:4 20:4 21:4 22:6 23:4 24:1 25:1 26:6 
-1 -0.914672934439091 -0.8700133411799612 -1 -0.7773171643538207 -1 -0.6481091424284782 -0.9763338255835771 -0.6911443399710052 7:2 8:4 9:4 10:3 11:3 12:3 13:3 14:4 15:4 16:2 17:6 18:4 19:4 20:4 21:4 22:6 23:4 
-1 -1 -1 -1 -1 -1 -1 -1 -0.9849192037418869 3:1 4:1 6:2 7:4 8:4 9:3 10:4 11:4 12:4 13:5 14:5 15:3 16:1 17:6 18:4 19:4 20:4 21:4 22:6 23:4 26:9 
-1 -1 -1 -1 -1 -1 -0.9170977876113413 -1 -0.9559489451550148 1:2 2:4 3:4 4:6 5:4 6:6 7:4 8:5 9:6 10:4 11:3 12:2 13:2 14:1 15:1 16:3 17:8 18:6 19:7 20:6 21:8 22:9 23:4 24:1 25:1 26:7 
