svm_type c_svc
kernel_type rbf
gamma 0.0384615
nr_class 10
total_sv 199
rho 0.190249 0.0489247 -0.118092 -0.0540123 0.120615 -0.012242 -0.111517 -0.160127 -0.265475 -0.195133 -0.306799 -0.292154 -0.0952708 -0.221421 -0.264213 -0.329146 -0.42746 -0.171022 -0.106036 0.0957966 -0.0750846 -0.0912668 -0.206771 -0.295659 0.0528587 0.237061 0.0996354 0.0460037 -0.0448969 -0.13555 0.196671 0.0410833 0.0271256 -0.101513 -0.148976 -0.157604 -0.200235 -0.273795 -0.384362 -0.0151988 -0.148819 -0.219304 -0.131696 -0.20856 -0.0194907
label 9 3 2 6 4 5 7 8 1 0
nr_sv 26 26 20 19 16 22 20 18 18 14
SV
1 1 0.880243100355404 0.944899450351299 1 0.9858419755234989 0.8870773649106192 0.8386308393857974 0.7332144333962624 1:10 2:6 3:4 4:8 5:6 6:3 7:4 8:5 9:7 10:1 11:2 12:1 13:1 14:1 15:1 16:1 17:7 18:6 19:4 20:3 21:4 22:8 23:7 24:2 25:14 26:6 
0.1354524745527273 0.08577724859160016 0.1012474084425243 0.1241941076958072 0.1403777511996067 0.1257385445958625 0.3210596185155334 0.1102498777570405 0.01333022006727456 5:5 6:5 7:4 8:5 9:5 10:5 11:2 12:3 13:4 14:4 17:6 18:7 19:3 20:3 21:5 22:8 23:6 24:1 25:1 26:2 
0.7466489047188153 0.6904105953075262 0.572357877193154 0.5829474701538798 0.7113220778495318 0.6194201947056274 0.6785784012283427 0.5163601929137064 0.4824106689903331 4:1 5:5 6:5 7:4 8:4 9:6 10:5 11:2 12:3 13:4 14:4 16:1 17:6 18:7 19:3 20:3 21:5 22:8 23:6 26:6 
0.6846983100083828 0.6144561849935437 0.3312482945833249 0.5303804487094467 0.6032214127156053 0.6181529223370649 0.4253038471006865 0.4871087800892155 0.4324859454874796 1:5 2:3 3:3 4:5 5:5 6:2 7:3 8:4 9:4 12:1 13:1 17:6 18:5 19:2 20:2 21:4 22:8 23:7 26:2 
1 1 0.866237282795373 0.9292753108101964 1 0.9695462468124174 1 0.8240337629269077 0.7632982138873579 4:4 5:4 6:4 7:3 8:5 9:5 10:3 11:4 12:10 13:4 15:7 17:7 18:7 19:4 20:4 21:5 22:9 23:8 24:2 25:2 26:5 
1 1 0.8729639413051516 0.9527701604022556 1 0.9722792529916626 0.8948164717930666 0.8272343187212609 0.7335154431019274 1:1 2:5 3:4 4:4 5:4 6:6 7:6 8:10 9:3 10:4 11:5 12:1 13:1 14:1 15:1 16:2 17:7 18:7 19:4 20:4 21:7 22:15 23:6 24:1 25:1 26:6 
1 0.9228923646337666 0.9033996050255675 0.8419426287720969 1 0.8658199603774378 0.8422132789592813 0.7359921187423591 0.6918942084347309 1:1 7:4 8:4 9:3 10:3 11:5 12:6 13:9 14:3 15:4 16:4 17:7 18:7 19:5 20:4 21:6 22:8 23:6 24:1 25:1 26:1 
0.7085462951104818 0.5900422419281376 0.4618820656514602 0.5729796187682321 0.8160490865770915 0.5751921935771693 0.7408833321058468 0.4912302046236927 0.3508424091116117 3:4 4:4 5:3 6:4 7:6 8:6 9:3 10:4 11:4 12:4 13:1 17:6 18:6 19:3 20:3 21:5 22:8 23:6 26:6 
0.6432915467280913 0.6248024718469276 0.7752582849840923 0.5175569766123936 0.6112523377730196 0.6044247659029299 0.8220213631733405 0.4321175964025231 0.5777654027122749 2:4 3:4 4:3 5:3 6:5 7:6 8:2 9:3 10:4 11:4 15:1 16:1 17:6 18:6 19:3 20:3 21:5 22:8 23:6 26:3 
0.8791668432265146 0.7874859952345309 0.7373877227393592 0.5342163735867628 0.7365153786288031 0.5868239387451698 0.6051058461771613 0.4626770274738822 0.969216021533913 5:4 6:4 7:3 8:3 9:5 10:5 11:2 12:3 13:4 14:4 17:6 18:6 19:3 20:3 21:5 22:8 23:6 
1 0.751557630339648 0.7123716371429289 0.6849243137378265 0.8694878188605464 0.7038175712724616 0.8737179275054708 0.5920926976142231 0.53848480787613 2:1 3:1 4:1 7:4 8:4 9:4 10:3 11:6 12:6 13:2 14:3 15:4 16:5 17:6 18:6 19:3 20:3 21:6 22:8 23:6 25:1 26:5 
0.1191377164808785 0.1461444477245949 0.2531702463724362 0.1028603393688286 0.333691377731444 0.1745992181982757 0.1219099697306732 0.1203068968329373 0 1:4 2:4 3:3 4:3 5:5 6:5 7:2 8:4 9:5 10:4 17:6 18:6 19:3 20:3 21:5 22:8 23:6 26:2 
0.8834927656352236 0.7845728199140825 0.6510609949622319 0.7143347273257182 0.8262639124336134 0.7112051332136397 0.7570670585700742 0.6284144448106309 0.530765489323595 1:1 2:5 3:4 4:4 5:4 6:5 7:9 8:3 9:4 10:4 11:4 17:7 18:9 19:3 20:3 21:6 22:8 23:6 24:1 25:1 26:3 
0.4226393401158647 0.3874762420389053 0.3386895877028951 0.3799710778973585 0.457981628538007 0.3786563911586388 0.3922391174974098 0.3283130121182376 0.3896535943022006 6:4 7:4 8:4 9:4 10:6 11:6 12:2 13:3 14:4 15:4 17:6 18:6 19:3 20:3 21:5 22:8 23:6 26:4 
0.3423721613462897 0.1463133577780056 0.1832643891340378 0.1961823297420656 0.186908007289184 0.1378441639303602 0.214328421009362 0.1034119664778687 0.4450424028173454 1:4 2:4 3:3 4:3 5:5 6:5 7:3 8:4 9:5 10:4 17:6 18:6 19:3 20:3 21:5 22:8 23:6 26:3 
0.6564257468213925 0.573694988168151 0.7440291888662962 0.4121066581608394 0.5933253239379405 0.4675285654244583 0.5487109526936997 0.3509204955484336 0.662868404294611 3:4 4:4 5:4 6:3 7:5 8:5 9:3 10:4 11:4 12:4 17:6 18:6 19:3 20:3 21:5 22:8 23:6 26:3 
0.940220651205446 0.6965936113561048 0.7811339127096679 0.6240844220465797 0.8793604655423252 0.6590729395379368 0.6567571115663323 0.5513050900175956 0.7185172601066964 7:4 8:4 9:3 10:3 11:5 12:5 13:2 14:3 15:4 16:5 17:6 18:6 19:3 20:3 21:5 22:8 23:7 
0.1697856264055854 0.1844344922486147 0 0.1542308411680308 0.04099883709973779 0.1551153971684583 0.105071469694006 0.1548770756224779 0 1:5 2:5 3:3 4:3 5:6 6:5 7:3 8:3 9:4 10:4 12:1 17:8 18:6 19:3 20:3 21:5 22:8 23:7 26:2 
0.5143934597763373 0.4234918671884675 0.3877546765968338 0.3813739773963098 0.5506191769604546 0.4007570334278296 0.4496179713557982 0.3565250515844697 0.3103252369251746 6:5 7:4 8:3 9:4 10:5 11:5 12:2 13:4 14:4 15:5 16:1 17:7 18:7 19:3 20:3 21:5 22:8 23:7 26:2 
0.4684370159862636 0.326724856331471 0.4655579771567603 0.2485967024498612 0.4305768821819782 0.2971741695340844 0.5200698790995264 0.1904047657630378 0.3264799504925265 4:1 5:1 6:5 7:5 8:3 9:3 10:5 11:5 12:2 13:4 14:4 15:4 17:6 18:6 19:3 20:3 21:6 22:8 23:6 26:4 
1 1 0.8817069431386598 0.9440188641711568 1 0.9856946372987735 0.9120538442167468 0.8381401568297945 0.7339980128877919 3:10 5:4 6:4 7:3 8:3 9:5 10:6 11:2 12:3 13:4 14:4 15:6 16:5 17:8 18:8 19:6 20:5 21:8 22:10 23:8 24:2 25:2 26:2 
0.7059690212801005 0.6202665434204734 0.9099716018262201 0.5573890225983984 0.7871838923385468 0.5839976777039269 0.636088408527989 0.492533172246004 0.6095677494055116 1:5 2:4 3:3 4:3 5:5 6:6 7:3 8:3 9:4 10:4 17:9 18:6 19:3 20:3 21:5 22:8 23:6 
0.4471967850035648 0.3510778796786491 0.7836432310257103 0.3260443189142692 0.7036797642178325 0.3418331436040102 0.6636465695656574 0.2591427763964184 0.2135487975928394 1:4 2:3 3:3 4:5 5:5 6:2 7:3 8:5 9:4 10:1 15:1 17:6 18:5 19:2 20:2 21:5 22:8 23:6 26:2 
1 1 0.8805273987216488 0.9454217304846761 1 0.9864451140958399 0.8873119358899374 0.8383800664063716 0.7340984586647759 1:5 2:4 3:5 4:9 5:8 6:5 7:6 8:6 9:7 10:3 11:1 12:2 13:1 14:2 15:2 16:2 17:6 18:6 19:3 20:3 21:6 22:8 23:6 24:11 25:10 26:9 
0.9610639582342089 0.8447760171035004 0.7284754709103664 0.7592464667482993 0.8938331393395271 0.7892020178951613 0.6946342697704965 0.6744937753272527 0.5757686227298324 5:5 6:5 7:3 8:3 9:5 10:5 11:2 12:3 13:10 14:4 17:6 18:6 19:4 20:4 21:5 22:8 23:7 24:1 25:1 26:3 
1 1 0.8821482940541688 0.9460217258756881 1 0.9880023919169 0.8944868546833044 0.8397558830388664 0.7348259269656066 1:1 2:1 3:1 4:1 5:1 6:1 7:5 8:5 9:4 10:4 11:8 12:8 13:3 14:4 15:5 16:5 17:7 18:6 19:3 20:3 21:6 22:8 23:6 24:15 25:2 26:1 
-0.7919235324463254 0.9854843635670345 0.6942823150868708 0.6909197585488003 0.8864723325885553 0.7761481058455544 0.716881554630205 0.6493654961192994 0.5546800865524021 1:10 3:5 4:3 5:3 6:2 7:3 8:2 9:2 10:2 11:3 12:6 17:5 18:3 19:4 20:4 21:8 22:8 23:4 24:1 25:1 26:3 
-0.8081581741319551 0.8030597759572633 0.6955927157326305 0.7068346533339609 0.9068253198949803 0.7748124514884229 0.7366460175103563 0.667510374444217 0.5718533313164945 2:5 3:3 4:3 5:3 6:3 7:3 8:4 9:2 10:3 11:6 14:10 15:2 16:4 17:6 18:4 19:4 20:5 21:10 22:9 23:4 24:1 25:1 26:7 
-0.6536082588230329 0.5785423647779039 0.4806442063089951 0.5453195065936222 0.775893658372754 0.6611897632577035 0.5332997020945008 0.4661430509786379 0.3967265279621451 3:6 4:4 5:3 6:3 7:3 8:2 9:2 10:3 11:3 12:5 17:4 18:2 19:2 20:3 21:7 22:7 23:3 26:6 
-0.723892226047124 0.6545118064929351 0.5874608691420966 0.5866180633409048 0.7369890383008882 0.6219903279379259 0.606458934255554 0.5408495536320438 0.4831658003726212 7:5 8:8 9:3 10:3 11:3 12:3 13:3 14:2 15:3 16:5 17:4 18:2 19:2 20:4 21:7 22:7 23:4 24:1 25:1 26:6 
-0.8182180071708925 0.7814072554140219 0.6755929034024019 0.6784767466977284 0.8698644481610874 0.7453871945888298 0.7621929296156299 0.6424137983720973 0.5461875940373974 1:1 2:1 3:1 4:1 5:1 6:1 7:5 8:4 9:4 10:3 11:4 12:4 13:3 14:3 15:4 16:5 17:4 18:14 19:3 20:3 21:7 22:7 23:3 26:4 
-0.7696849196079228 0.7464740953625374 0.7328745808882796 0.8194425012626241 0.8353637741627395 0.6922040270510839 0.684581767319691 0.5857063617645918 0.5456213384426687 1:5 2:3 3:2 4:2 5:3 6:3 7:8 8:5 9:4 10:5 12:1 17:5 18:3 19:3 20:4 21:8 22:7 23:3 24:1 25:1 26:6 
-0.7811961423819407 0.7678541590286383 0.6707246721028016 0.6759406462889366 0.8531335720109221 0.7370665147465175 0.689463723329614 0.614707034019611 0.5449359711881794 1:3 2:2 3:2 4:2 5:2 6:3 7:3 8:4 9:6 13:6 14:4 17:4 18:2 19:2 20:3 21:7 22:8 23:4 24:1 25:1 26:5 
-0.4245481948136975 0.7270480468043876 0.4638341274622691 0.3603940181664197 0.5994533376994539 0.5662469205456789 0.3695738005241505 0.3047893677230337 0.3708923285182335 3:5 4:3 5:2 6:2 7:2 8:2 9:3 10:3 11:3 12:5 17:4 18:2 19:2 20:3 21:7 22:7 23:3 26:2 
-0.7594795953285327 0.8040499172875801 0.6870586810819571 0.7217063068540961 0.8477557656307085 0.7217384469110372 0.7333910953014682 0.6189097859722626 0.5525178587439212 4:5 5:3 6:2 7:2 8:3 9:4 10:3 11:10 12:3 13:6 17:5 18:3 19:4 20:5 21:8 22:8 23:3 24:1 25:1 26:3 
-0.7536795649979209 0.7676480070890243 0.6749944524173133 0.6607692544749691 0.8418636756072894 0.7062108326600074 0.6828819529169178 0.6013568788789101 0.5409321321712574 2:1 3:5 4:3 5:2 6:2 7:2 8:2 9:2 10:5 11:10 12:5 17:5 18:3 19:3 20:4 21:7 22:7 23:4 24:2 25:2 26:2 
-0.7900269283030126 0.8751525145887502 0.8713021124291115 0.6236989262681143 1 0.7820863289199443 0.6894591599462218 0.5383105828538935 0.7209724770349312 4:1 6:5 7:3 8:2 9:2 10:3 11:3 12:2 13:2 14:3 15:5 16:1 17:4 18:2 19:3 20:4 21:7 22:7 23:3 26:2 
-0.8091936952256199 0.805138474407848 0.6921571281980526 0.708829759042457 0.9233459023060194 0.7892158861302436 0.7364164971135273 0.6696429745699495 0.5755136351607142 1:1 2:1 3:1 4:5 5:5 6:4 7:4 8:4 9:4 10:3 11:3 12:5 13:5 14:1 15:5 16:1 17:4 18:2 19:3 20:14 21:7 22:8 23:5 24:1 25:1 26:7 
-0.7994101763198885 1 0.6996331044738289 0.6941746731382236 0.905759572049282 0.7776422636646102 0.7850308120161309 0.6532448201494 0.5589700684727857 3:10 4:1 6:5 7:3 8:3 9:2 10:2 11:2 12:2 13:2 14:3 15:5 16:1 17:6 18:3 19:3 20:4 21:9 22:8 23:4 24:1 25:2 26:1 
-1 0.8583390490610866 1 0.6606105794748959 0.957617245886318 0.743171447882637 1 0.6216856466719671 0.7785699890273245 1:1 2:1 3:1 4:1 5:5 6:3 7:3 8:3 9:4 10:4 11:3 12:3 13:4 14:5 15:1 16:1 17:10 18:6 19:6 20:3 21:7 22:7 23:4 
-0.7874472022660864 0.782182715851784 0.6880687880917408 0.7722964723570145 0.8757459800907157 0.7674163071562868 0.7207703295592361 0.6508917126536974 0.5552689642743353 1:1 2:7 3:4 4:2 5:2 6:3 7:2 8:4 9:3 10:3 11:5 12:3 13:2 14:1 15:1 16:1 17:4 18:2 19:2 20:4 21:14 22:8 23:5 24:2 26:3 
-0.5585005442865938 0.9225566047318962 0.5936036974805844 0.5337677381228204 0.582521567023091 0.6494770043625336 0.5837409280281888 0.4593092713940715 0.476324737655984 4:5 5:4 6:2 7:2 8:2 9:2 10:2 11:2 12:3 13:5 16:2 17:4 18:2 19:3 20:3 21:7 22:8 23:3 25:1 
-0.3478813809764537 0.2453159214573618 0.4569516888702703 0.2501721774954128 0.3425836185042129 0.1983777539584359 0.2261695992048458 0.2041580221446047 0.4117282380376357 7:5 8:4 9:3 10:2 11:2 12:2 13:2 14:2 15:3 16:5 17:4 18:2 19:2 20:3 21:7 22:7 23:3 26:2 
-0.8098032689639939 0.8023385050512473 0.6911199969812726 0.7056693283946078 0.9019718003320397 0.7789825572430539 0.7337429095204772 0.6691856713693293 0.5723380990904319 1:2 2:1 3:1 4:6 5:4 6:2 7:3 8:3 9:3 10:2 11:2 12:4 13:6 14:2 15:1 16:1 17:4 18:2 19:3 20:3 21:7 22:7 23:16 24:1 
-1 0.7229065017107044 1 0.596830983547486 1 0.6530067007768364 0.9230966031822082 0.551873040119687 0.6394710057566239 3:1 4:1 5:1 6:1 7:6 8:4 9:3 10:3 11:4 12:3 13:4 14:4 15:4 16:5 17:8 18:7 19:5 20:5 21:7 22:7 23:3 26:2 
-0.7719341087206026 0.7432773529180664 0.6770448197352353 0.6777578109705092 0.834972331297696 0.7467710047549501 0.7274025153228882 0.614292222750233 0.5311280615883109 1:6 2:9 3:3 4:2 5:2 6:2 7:3 8:4 9:5 17:5 18:2 19:2 20:3 21:7 22:7 23:3 24:2 25:1 26:4 
-0.8096705213180897 0.8053214736370812 0.6938298569836095 0.7080705448346727 0.9044386556587528 0.7781801925458409 0.7362791241630974 0.671204576262039 0.5727987506221407 1:3 2:10 3:1 4:1 5:1 6:6 7:4 8:4 9:3 10:3 11:3 12:3 13:4 14:4 15:6 16:1 17:5 18:3 19:3 20:5 21:8 22:8 23:5 24:2 25:2 26:16 
-0.8117045070230892 0.8030424233085408 0.6852200838149415 0.7009934192217747 0.9036215092525515 0.7713669471658505 0.7819115057185353 0.6620456700141621 0.5762737234703085 1:1 2:1 3:1 4:5 5:4 6:4 7:10 8:4 9:3 10:3 11:4 12:4 13:5 14:2 15:2 16:1 17:5 18:12 19:9 20:4 21:7 22:7 23:4 24:1 25:1 26:4 
-0.4728722176522453 0.4351610650503939 0.6883715104398479 0.3788622622781461 0.6092895309102822 0.591886287099714 0.4348730773525953 0.3414719299565688 0.3059086256213698 1:5 2:4 3:2 4:2 5:2 6:2 7:2 8:2 9:4 10:5 17:4 18:2 19:2 20:3 21:7 22:7 23:3 26:2 
-0.4361652890847781 0.347041986076182 0.235338517423272 0.3182623832129206 0.4497114218626929 0.3473863795929696 0.3174710644562092 0.2904584340437244 0.277972858286295 1:5 2:3 3:2 4:2 5:3 6:2 7:2 8:2 9:4 10:6 11:1 12:1 17:4 18:2 19:2 20:3 21:7 22:7 23:4 26:4 
-0.3194081379794551 0.3470035062553429 0.2749584163841028 0.2985625375116928 0.6108129294489202 0.5103397630089905 0.3007408363135114 0.2784160963329839 0.1239777364419418 2:1 6:1 7:6 8:3 9:2 10:2 11:2 12:2 13:2 14:2 15:3 16:5 17:4 18:2 19:2 20:3 21:7 22:7 23:3 26:3 
-0.6205320287669153 0.6013972730627896 0.651801820448568 0.4949464839934652 0.9022783133439766 0.5517934211884533 0.6202064159412012 0.4258863045803306 0.4805389312748643 3:1 4:5 5:3 6:2 7:3 8:6 9:2 10:2 11:2 12:3 13:5 16:1 17:5 18:2 19:2 20:3 21:7 22:7 23:5 24:1 25:1 26:2 
-0.9461009567933946 -1 0.8309987664458397 0.8865500268573157 1 0.9239381381948329 0.9039354319225537 0.7851968117915472 0.6986160411723198 1:10 3:4 4:4 5:3 6:2 7:3 8:3 9:3 10:3 11:3 12:7 17:5 18:6 19:5 20:5 21:6 22:6 23:3 24:1 25:1 26:7 
-0.4986782514227338 -0.6988556047155879 0.5465337530092814 0.396375056221119 0.5513148741160608 0.7929208082495779 0.5478384498585427 0.332581069324204 0.471573452798829 2:4 3:4 4:3 5:3 6:2 7:2 8:2 9:2 10:2 11:6 12:1 17:4 18:5 19:4 20:4 21:5 22:5 23:2 26:2 
-0.7586965104227152 -1 0.8063687401058122 0.6722332375312972 1 0.9426623053865377 0.7633675897041913 0.5925943814285006 0.7325585523612046 3:4 4:4 5:3 6:2 7:2 8:2 9:2 10:2 11:2 12:6 13:1 17:5 18:5 19:4 20:4 21:5 22:5 23:2 
-0.5522445997208583 -0.9264857485044368 0.5218977399331866 0.5223412700718049 0.6442211353784399 0.767926306249536 0.6189203195608879 0.4654911302160512 0.5957631143676204 4:4 5:4 6:3 7:2 8:2 9:2 10:2 11:2 12:2 13:6 14:1 17:4 18:5 19:4 20:5 21:5 22:5 23:2 
-0.9547400988349604 -1 0.8280235761778199 0.8929930609552856 1 0.9238425827159142 0.9088740829313646 0.7926241661587952 0.7056903247592912 1:1 2:2 3:2 4:2 5:2 6:2 7:5 8:6 9:5 10:4 11:4 12:7 13:7 14:3 15:3 16:7 17:5 18:9 19:11 20:4 21:6 22:6 23:7 24:12 25:1 26:1 
-0.5389818757154865 -0.6465944333999901 0.5347579145766035 0.5274560688755174 0.6431692151409181 0.4744195258657007 0.4926776049045705 0.48068807733423 0.3706373267737274 2:4 3:5 4:3 5:2 6:2 7:2 8:2 9:2 10:2 11:6 17:4 18:5 19:5 20:4 21:5 22:5 23:2 
-0.8581751390050016 -1 0.8185309028122985 0.7533447179985174 1 0.7732872077394135 0.8972584347538676 0.6548560076483944 0.6907015991874589 4:4 5:4 6:3 7:3 8:3 9:3 10:3 11:4 12:3 13:6 14:1 16:1 17:5 18:5 19:4 20:4 21:6 22:5 23:2 26:7 
-0.9515419889903024 -1 0.8268857797790694 0.8887322644134777 1 0.9184233090267918 0.966849109889825 0.7881422513354585 0.7003152763942369 1:1 2:5 3:4 4:4 5:3 6:3 7:3 8:3 9:2 10:3 11:7 12:1 13:1 14:1 15:1 16:1 17:5 18:16 19:4 20:4 21:5 22:6 23:3 
-0.950577150003912 -1 0.8282353072572599 0.8938047530540254 1 0.9260003681725553 0.9082159795440733 0.7925205707085032 0.7151511950275421 1:4 2:5 3:4 4:3 5:3 6:4 7:3 8:3 9:4 10:8 11:3 12:2 13:3 14:2 15:4 16:5 17:4 18:11 19:15 20:6 21:7 22:6 23:4 25:2 26:5 
-0.9525324559266979 -1 0.8275529512965315 0.8922139020716849 1 0.9230920295234176 0.9087112338425913 0.7912313702290069 0.7060311953715096 1:4 2:2 3:10 4:2 5:2 6:1 7:4 8:6 9:5 10:3 11:2 12:3 13:4 14:5 15:3 16:7 17:6 18:6 19:9 20:9 21:9 22:7 23:5 24:2 25:3 26:7 
-0.8177887117265592 -1 0.8111266461039761 0.7425863510040017 0.997373126129007 0.866553788003297 0.8209533173013857 0.6584856004319688 0.7062812882670608 3:2 4:5 6:4 7:4 8:3 9:2 10:2 11:2 12:2 13:2 14:2 15:6 17:5 18:6 19:5 20:5 21:5 22:5 23:2 24:1 25:1 26:1 
-0.9525751853073972 -1 0.8284403009470874 0.8931811112778555 1 0.9243348663162588 0.9120225845105407 0.7926506027017883 0.7167822908566875 1:1 2:1 3:5 4:5 5:5 6:3 7:3 8:3 9:4 10:4 11:3 12:9 13:2 14:1 15:1 16:1 17:4 18:5 19:5 20:4 21:5 22:5 23:5 24:15 25:1 26:2 
-0.9863576371227015 -1 0.9363921828927614 0.7826740197320265 1 0.9920165783018322 0.8787401467826116 0.6860419684846973 0.9757105660161762 5:4 6:4 7:3 8:2 9:2 10:3 11:2 12:2 13:2 14:6 17:4 18:5 19:4 20:4 21:5 22:6 23:2 
-0.8392138577961292 -1 0.8249203669082609 0.7600240303344135 1 0.8862144791430832 0.8936964850722989 0.6680567056012293 0.6382997655466733 1:1 3:7 6:4 7:4 8:4 9:2 10:2 11:2 12:2 13:2 14:2 15:6 17:5 18:5 19:4 20:4 21:6 22:6 23:3 24:1 25:1 26:3 
-0.2812719537942877 -0.4403193723303861 0.5609472647980379 0.2267671769126159 0.3253779839791148 0.3678952340407139 0.2904473192252586 0.1955859132305319 0.2789644255059233 4:4 5:5 6:4 7:2 8:2 9:2 10:2 11:2 12:2 13:6 14:1 16:1 17:5 18:5 19:4 20:4 21:5 22:5 23:2 26:3 
-0.9228607881990847 -1 0.8171676489916394 0.851096186897277 1 0.8853323635850135 0.8812437388634149 0.7552526295362814 0.6759573082080362 1:1 2:1 3:7 4:8 5:7 6:2 7:3 8:2 9:2 10:2 11:2 12:6 16:1 17:6 18:6 19:5 20:5 21:6 22:5 23:3 24:2 25:1 26:5 
-0.8915283492638661 -1 0.778545485659635 0.8310513217536459 1 0.8886703082788228 0.8946428861943165 0.7401130901570667 0.6584559583923437 3:10 5:4 6:4 7:4 8:3 9:2 10:2 11:2 12:2 13:2 14:6 15:1 17:5 18:6 19:5 20:6 21:6 22:6 23:3 24:1 25:1 26:3 
-0.9531390811222291 -1 0.8334183241703353 0.8956043237759016 1 0.9362469604295854 0.9082911888767904 0.792324218436964 0.7058427678430143 2:10 3:1 4:1 5:1 6:1 7:5 8:5 9:4 10:2 11:2 12:2 13:2 14:2 15:2 16:7 17:5 18:6 19:5 20:5 21:6 22:6 23:4 24:1 25:1 26:8 
-0.9936965445167175 -1 0.8929009241598626 0.891003994405937 1 0.9413758991177026 0.9642215085545942 0.784487300318899 0.7346363959407821 1:4 2:3 3:2 4:2 5:3 6:2 7:10 8:2 9:6 12:1 13:1 14:1 15:2 16:1 17:8 18:6 19:3 20:4 21:5 22:6 23:3 24:1 25:1 26:3 
-0.9522907201416659 -1 0.8370492471681322 0.8911026343064878 1 0.9290196778203524 0.907003548824954 0.7908238987182429 0.7060796020951882 1:10 7:4 8:4 9:3 10:2 11:2 12:2 13:2 14:2 15:2 16:7 17:5 18:6 19:5 20:5 21:6 22:6 23:4 24:1 25:1 26:1 
-1 -1 -1 1 1 1 1 0.934093878993276 0.850137146057775 1:10 5:4 6:4 7:2 8:1 9:4 10:4 11:3 12:3 13:4 14:4 17:9 18:6 19:4 20:4 21:7 22:7 23:3 24:1 25:1 26:1 
-0.8959780931821777 -0.7898279331363002 -0.825961416686093 0.6145865142419831 0.814853938066371 0.7095594825696258 0.9167024211715139 0.5347764443578079 0.7598186426539348 2:4 3:4 4:2 5:1 6:5 7:5 8:3 9:3 10:4 11:4 17:8 18:5 19:3 20:3 21:6 22:6 23:2 26:2 
-1 -1 -1 1 1 1 1 0.94883735170654 0.863418247379766 1:5 2:5 3:3 4:2 5:5 6:4 7:4 8:3 9:4 10:5 13:10 16:2 17:10 18:6 19:4 20:4 21:8 22:8 23:3 24:1 25:1 26:7 
-0.7650679103547833 -0.971629245405629 -0.78011823445255 0.5594109908633937 1 0.6625483903127517 0.8518676800923304 0.4968769563894332 0.786464634166627 2:1 3:1 6:4 7:4 8:2 9:1 10:4 11:4 12:3 13:3 14:4 15:4 17:8 18:5 19:3 20:3 21:6 22:6 23:2 26:2 
-1 -1 -0.9681065443243343 0.8683416067066552 1 0.9018946715801954 1 0.7795460947104093 0.7273001545911829 3:4 4:5 5:3 6:1 7:4 8:10 9:3 10:3 11:4 12:4 17:8 18:5 19:4 20:4 21:6 22:6 23:3 24:1 25:1 26:3 
-0.4731649065489694 -0.4360059942662107 -0.4603339372359735 0.3992924810062923 0.7788406265452982 0.389493030956643 0.3405541324702595 0.3550179019714651 0.7538645149068882 7:4 8:4 9:2 10:1 11:4 12:4 13:3 14:3 15:4 16:4 17:8 18:5 19:3 20:3 21:6 22:6 23:2 
-0.8972503579687734 -1 -0.9226194544903643 0.8139837095504572 0.977934219147109 0.8329190040900261 1 0.7307696536428447 0.7713547925436471 6:4 7:4 8:8 9:1 10:4 11:4 12:3 13:3 14:4 15:4 17:8 18:6 19:4 20:4 21:7 22:6 23:2 25:1 26:1 
-0.2618525097197305 -0.6867546359485779 -0.2325689849289101 0.2124821883069905 0.565402458652818 0.3089199722699013 0.287222276934935 0.1946044817003291 0.0774320957452623 7:5 8:5 9:2 10:1 11:4 12:4 13:3 14:3 15:4 16:4 17:8 18:5 19:3 20:3 21:6 22:6 23:2 26:2 
-1 -1 -1 1 1 1 1 0.8873849033757967 0.8517683835585901 1:4 2:4 3:2 4:2 5:5 6:5 7:4 8:10 9:4 10:4 11:1 17:8 18:6 19:4 20:4 21:7 22:6 23:2 24:1 25:1 26:6 
-0.7051872544763903 -0.693716598004902 -0.5120778117137212 0.5006293628995421 0.8309439350193703 0.4181148104496386 0.7665117502468934 0.4148388062515244 0.381824960811662 1:4 2:2 3:2 4:4 5:4 6:3 7:3 8:5 9:6 10:1 17:8 18:4 19:2 20:2 21:7 22:7 23:2 26:2 
-0.8461586356870734 -1 -1 0.7646900574548926 1 0.8620350234497748 1 0.6802124007993975 0.9506442436552117 4:4 5:4 6:3 7:1 8:4 9:4 10:3 11:3 12:4 13:5 17:8 18:5 19:3 20:3 21:6 22:6 23:2 26:2 
-0.7643316330085873 -0.8209749456311222 -0.5863812766271271 0.5158920727834359 0.60103814967629 0.5073242984840792 0.6766683073488725 0.4601843072086126 0.4571004378314167 5:1 7:4 8:4 9:2 10:1 11:4 12:5 13:5 14:3 15:4 16:4 17:8 18:6 19:4 20:3 21:6 22:6 23:2 26:2 
-0.7273773222606632 -0.679776162611233 -0.6892081829958819 0.5481852221393305 1 0.7675862091058827 0.7177785406335382 0.5147117604610133 0.555080425534158 1:4 2:2 3:1 4:4 5:4 6:3 7:3 8:4 9:4 17:8 18:4 19:2 20:2 21:5 22:6 23:2 
-1 -1 -0.9704051955547054 0.7676742757540379 1 0.8063829632950522 0.9283955621863647 0.6801551079361443 0.770565113258877 1:2 2:2 3:5 4:5 5:3 6:1 7:4 8:5 9:4 10:4 11:4 12:4 17:8 18:5 19:4 20:5 21:7 22:7 23:4 25:2 26:1 
-0.9467077710967509 -0.9203088755373292 -0.6808633274842568 0.5966192547728483 0.9517552556737959 0.6487490087729151 0.760133980167659 0.528666460127546 0.6167799636963567 1:4 2:4 3:2 4:2 5:4 6:4 7:3 8:3 9:4 10:4 17:8 18:5 19:3 20:3 21:7 22:6 23:2 
-1 -1 -1 0.7622170832716624 1 0.790454905334448 1 0.6678499868093027 0.7845590858210681 4:1 5:4 6:5 7:2 8:2 9:4 10:4 11:3 12:3 13:5 14:4 17:8 18:5 19:3 20:3 21:8 22:6 23:2 26:2 
-0.8455087206007225 -0.9634666748387495 -0.8620494566995128 0.7797118120660657 0.8810692379745195 0.7901249249855743 0.7837343857248801 0.6958882321746248 0.6120861175202218 2:8 3:5 4:2 5:1 6:4 7:4 8:3 9:3 10:4 11:5 12:2 17:9 18:5 19:4 20:3 21:6 22:8 23:3 24:1 25:1 26:1 
-1 -1 -1 1 1 1 1 0.9529500686401874 0.8694789502563799 1:3 2:5 3:6 4:3 5:2 6:10 7:6 8:4 9:4 10:5 11:6 12:1 13:1 14:1 15:1 16:2 17:8 18:7 19:3 20:3 21:7 22:7 23:4 24:4 25:6 26:11 
-0.9571460184916515 -1 -1 0.8873917470900271 1 0.9339033777622303 0.9977530934432666 0.8027968959575131 0.7191920819016583 1:1 2:6 3:5 6:4 7:4 8:2 9:2 10:4 11:4 12:3 13:3 14:4 15:4 16:1 17:9 18:6 19:4 20:4 21:7 22:7 23:3 24:2 25:1 26:4 
-1 -1 -1 -0.9470226533812616 1 1 1 0.8980730496136534 0.8507145837203066 1:4 2:5 3:6 4:6 5:6 6:6 7:9 8:4 9:4 10:4 11:2 12:2 13:2 14:2 15:2 16:2 17:3 18:3 19:3 20:3 21:10 22:12 23:8 24:9 25:14 26:1 
-0.9935832038574516 -1 -1 -0.8850491613094581 1 0.9729423624984591 0.9612364630321782 0.8392441896777791 0.7998325197928539 1:2 2:3 3:4 4:4 5:5 6:4 7:8 8:5 9:8 10:3 11:1 12:1 13:1 14:1 15:1 16:1 17:4 18:4 19:4 20:4 21:10 22:16 23:2 24:1 25:1 26:6 
-1 -1 -1 -0.9165041551723285 1 0.9737912127616009 0.9754573308937856 0.8386673809159904 0.8185851423343342 6:1 7:2 8:3 9:4 10:4 11:4 12:3 13:7 14:2 15:2 16:2 17:3 18:3 19:3 20:3 21:10 22:11 23:1 
-0.9702877816000839 -1 -1 -0.8656197362770701 1 0.9414055448047738 0.9557718611499563 0.8093074523622706 0.77417981393616 4:2 5:3 6:4 7:10 8:5 9:3 10:7 11:2 12:2 13:2 15:1 16:1 17:4 18:4 19:3 20:4 21:10 22:10 23:2 24:1 25:1 26:3 
-1 -1 -1 -0.9401029555598013 1 1 1 0.8911357274385001 0.8444106840846934 3:2 4:3 5:4 6:4 7:5 8:5 9:8 10:3 11:3 12:3 13:1 14:1 15:2 16:1 17:3 18:3 19:3 20:3 21:10 22:10 23:1 25:10 26:2 
-1 -1 -1 -0.9320067255304783 1 1 1 0.8813440914723449 0.8419833821895163 4:1 5:1 7:10 8:3 9:4 10:5 11:5 12:4 13:8 14:3 15:3 16:3 17:4 18:4 19:4 20:4 21:10 22:10 23:2 24:2 25:3 26:7 
-0.6155325988052371 -0.7374474196229849 -0.6407680815209114 -0.5461149139195547 0.7016083438508958 0.6084298808062811 0.5970165032920997 0.5311949159136311 0.4952858397741308 1:2 2:3 3:4 4:5 5:5 6:4 7:3 8:8 9:2 10:2 11:2 16:1 17:3 18:3 19:3 20:3 21:11 22:11 23:1 26:6 
-1 -1 -1 -0.8906038772131437 1 0.975072454244034 0.9813966508441492 0.8330494579568879 0.8307178615341959 1:4 2:5 3:5 4:6 5:4 6:8 7:4 8:3 9:4 10:1 11:1 17:3 18:3 19:3 20:3 21:9 22:9 23:5 24:4 25:3 26:3 
-0.9895232356153789 -1 -1 -0.8882889204813744 1 0.9703148299708674 0.9814503424203643 0.8366938073130408 0.7972925595307671 4:3 5:3 6:4 7:5 8:4 9:3 10:8 11:10 12:2 13:2 16:1 17:4 18:4 19:4 20:4 21:11 22:10 23:3 24:2 25:1 26:2 
-0.803488574835001 -1 -0.8313431010570228 -0.7200470272013907 0.9101980838910969 0.7775251966737613 0.7838267068703136 0.6656725649952332 0.6446040789153703 1:2 2:3 3:4 4:4 5:4 6:4 7:8 8:3 9:3 10:3 11:1 16:1 17:3 18:3 19:3 20:3 21:10 22:10 23:1 25:1 26:6 
-1 -1 -1 -0.9106892395176519 1 1 0.9898710629027994 0.8626611408484001 0.8186015497397537 1:1 2:1 3:1 4:1 5:3 6:4 7:4 8:5 9:5 10:5 11:8 12:2 13:2 14:2 15:1 16:2 17:3 18:4 19:3 20:11 21:12 22:10 23:1 26:3 
-0.5943162083729246 -0.8324801158032908 -0.6190243258722737 -0.5770162722643515 0.6698418615261753 0.5660876092649677 0.6134968511877332 0.4734649210617572 0.4699272775381177 2:2 3:3 4:4 5:4 6:4 7:3 8:7 9:2 10:3 11:3 12:1 13:1 17:3 18:3 19:3 20:3 21:10 22:10 23:1 26:4 
-0.9923122039583617 -1 -1 -0.8936314439392384 1 0.997207362122509 0.9690419199825354 0.8465413960391716 0.8009714547400273 1:3 2:4 3:4 4:4 5:3 6:7 7:2 8:2 9:2 10:1 11:1 12:1 13:1 14:1 15:1 16:1 17:3 18:3 19:3 20:3 21:16 22:9 23:1 
-0.9828355479812526 -1 -1 -0.8981221600690231 1 0.9600001022472691 0.9642586734015248 0.8263205824018117 0.7895119250921101 2:10 3:3 4:4 5:4 6:4 7:4 8:7 9:2 10:2 11:2 14:1 16:1 17:4 18:5 19:4 20:4 21:10 22:10 23:2 24:1 25:1 26:3 
-0.9720969203046346 -1 -1 -0.8891784350094785 1 0.9610514132029693 0.9585577261776234 0.8219544839804562 0.7919422470778736 1:3 2:4 3:4 4:4 5:3 6:7 7:2 8:2 9:3 10:1 12:5 13:5 17:4 18:4 19:4 20:4 21:10 22:10 23:2 24:1 25:1 26:3 
-0.9939937886179505 -1 -1 -0.8911107020620095 1 0.9565613972616738 0.9837458886267709 0.8224443054713702 0.7960867289793705 6:3 7:3 8:4 9:5 10:5 11:5 12:8 13:2 14:2 15:2 17:3 18:3 19:3 20:3 21:10 22:10 23:2 24:1 25:1 26:3 
-0.869635172992413 -1 -0.9044332733116517 -0.7596615982374406 -0.7779444071285352 0.8182489346128646 0.8266251166983147 0.7018431509322762 0.6684635703146889 3:1 4:6 5:2 6:2 7:5 8:6 9:2 10:2 11:3 12:4 13:6 14:8 15:1 17:8 18:5 19:6 20:4 21:6 22:6 23:4 24:1 25:1 26:7 
-0.8485084952057415 -1 -1 -0.8602234145581148 -0.7479683799323124 0.7894048803625308 0.7986566075204173 0.6592704603124779 0.6255040656725561 1:1 2:2 3:4 4:4 5:2 6:2 7:3 8:4 9:4 12:8 13:2 16:1 17:7 18:4 19:4 20:3 21:6 22:6 23:4 24:1 25:1 26:1 
-1 -1 -0.9973563824120589 -0.9171808179655564 -0.7605218857472641 0.9781650593727294 0.8524106792881071 0.674989152938157 0.7466422868012814 3:5 4:1 5:1 6:4 7:4 8:3 9:3 10:4 11:5 12:5 13:1 17:7 18:4 19:3 20:3 21:5 22:5 23:3 26:6 
-0.881459274874294 -1 -0.9055871323467185 -0.7621506885141909 -0.7993526347646214 0.8392545424043161 0.8050694458005543 0.7227074319427403 0.6353696936454782 1:1 2:2 3:5 4:5 5:3 6:3 7:3 8:4 9:5 11:7 12:3 15:10 17:8 18:5 19:4 20:4 21:6 22:7 23:5 24:2 25:2 26:8 
-0.8790219959784774 -1 -0.903748640356791 -0.76265299006578 -0.8035792251433544 0.8421600043084875 0.7997036863167643 0.7262834046614054 0.6154338132724034 1:2 2:6 3:2 4:2 5:4 6:5 7:3 8:3 9:4 10:8 11:7 12:1 14:1 15:10 16:1 17:9 18:5 19:4 20:15 21:7 22:8 23:5 24:2 25:2 26:2 
-0.5485243037406797 -0.8153254548057228 -0.602043344219107 -0.6675618515444297 -0.5068079881876203 0.5563498359672944 0.5160273060292435 0.4619752348018344 0.4615170883279298 4:5 5:1 6:1 7:4 8:10 9:2 10:2 11:3 12:4 13:4 17:7 18:4 19:4 20:4 21:5 22:5 23:4 24:1 25:1 26:1 
-0.9067408959007311 -1 -0.900945985018092 -0.7661232778873084 -0.8082366442005686 0.8387441938440723 0.8126136846492238 0.722843258326948 0.6156378875438463 1:1 2:2 3:6 4:2 5:2 6:5 7:5 8:2 9:3 10:4 11:5 12:6 13:2 14:2 15:1 16:1 17:7 18:5 19:3 20:3 21:5 22:16 23:4 26:6 
-1 -1 -0.9637232197047537 -1 -0.7604449543677874 0.8682345868039497 0.9367868227418025 0.6724865037909618 0.845674178451258 6:6 7:2 8:1 9:5 10:5 11:2 12:2 13:3 14:4 15:4 17:7 18:4 19:3 20:3 21:6 22:6 23:3 26:2 
-0.6371004577277951 -0.7753375015819304 -0.5931110796107125 -0.6803179150153471 -0.521153695643492 0.5274458565605802 0.6673183994621624 0.4563706601255312 0.4088901625167081 4:5 5:1 6:2 7:5 8:10 9:2 10:3 11:5 12:4 13:4 17:7 18:4 19:4 20:4 21:6 22:6 23:4 24:1 25:1 26:4 
-0.9235480534377815 -1 -0.9487641930758052 -0.8061050961181003 -0.7908174516826546 0.8672688251258673 0.8639067699915535 0.701528144174934 0.6994854911225528 5:5 6:1 7:10 8:4 9:4 10:2 11:2 12:3 13:4 14:4 17:7 18:5 19:4 20:4 21:6 22:6 23:4 24:1 25:1 26:1 
-1 -1 -0.8762828069673441 -1 -0.7449866833901349 0.8689558125853845 0.8853280236872663 0.6606902374762437 0.7358491379299119 1:5 2:1 3:1 4:4 5:4 6:4 7:2 8:4 9:5 10:5 17:7 18:5 19:3 20:3 21:6 22:5 23:3 24:1 26:2 
-0.7840513142406209 -1 -0.8091656320723518 -0.7152531803878971 -0.711800065299614 0.7443828457954254 0.7257552874163785 0.6441461611441289 0.569491504158408 1:1 7:5 8:2 9:1 10:4 11:4 12:2 13:2 14:10 15:4 16:4 17:7 18:5 19:4 20:4 21:6 22:5 23:3 24:1 25:1 26:3 
-0.8804352389144764 -1 -0.9034432981746473 -0.7648240384970694 -0.8026135272466797 0.8422347642353337 0.8103834181457535 0.7248177245892029 0.6191983388633707 1:1 2:1 3:1 4:2 5:6 6:3 7:3 8:5 9:5 10:3 11:2 12:4 13:4 14:4 15:10 16:1 17:8 18:6 19:4 20:5 21:14 22:7 23:4 24:1 25:1 26:5 
-0.5095462634019396 -0.7390040221524303 -0.5788360728566007 -0.7328924180477889 -0.4951842295154388 0.5795555269117841 0.4345212830094508 0.4479398238306678 0.5718043733821266 7:5 8:1 9:1 10:4 11:4 12:2 13:2 14:3 15:4 16:4 17:7 18:4 19:3 20:3 21:5 22:5 23:3 
-0.6284687067234018 -0.8031354190585811 -0.6686636189534059 -0.5214709603764235 -0.5756162851883293 0.7258793716884563 0.6025812943041019 0.5173431153643669 0.4313178118909096 1:2 2:1 3:10 4:4 5:2 6:2 7:3 8:4 9:4 16:1 17:6 18:4 19:2 20:3 21:5 22:6 23:4 24:1 25:1 26:1 
-0.8182076824925858 -0.8690160168703579 -0.7156867275442426 -1 -0.5314033749038086 0.9564982977172252 0.7151885111922212 0.4724608368963484 0.5066059543799797 1:2 2:1 3:4 4:4 5:2 6:2 7:3 8:4 9:4 17:6 18:3 19:2 20:2 21:4 22:6 23:3 
-0.8534959567728163 -1 -0.8901502786495683 -0.7470830536949883 -0.7594518899773107 0.8017465580962672 0.7814380270805001 0.6854729127938473 0.595949290855572 1:5 2:1 3:10 4:4 5:4 6:2 7:3 8:4 9:4 10:4 14:1 15:3 16:3 17:8 18:7 19:5 20:5 21:6 22:6 23:4 24:2 25:1 26:4 
-0.7541939076627975 -1 -0.496447600493531 -1 -0.3761851726504387 0.5324134379173764 0.5830377780852247 0.3299159366862919 0.5454630868455145 6:1 7:5 8:2 9:1 10:4 11:4 12:3 13:3 14:3 15:4 16:4 17:7 18:5 19:3 20:3 21:5 22:5 23:3 26:3 
-0.8790202901327107 -1 -0.9044544264158172 -0.7631496392057912 -0.803124985196995 0.8957411887873252 0.7994858213233149 0.7267840020747479 0.6160259496357838 1:2 2:2 3:2 4:2 5:6 6:3 7:3 8:5 9:6 10:3 11:3 12:4 13:5 14:4 15:1 16:1 17:7 18:4 19:3 20:16 21:5 22:5 23:3 24:3 25:3 26:3 
-0.7997826377490889 -0.8564668859269072 -0.7581694153582906 -0.6419522479255387 -0.6216168662281945 0.7545007504838113 0.6716119525456964 0.5532938191488104 0.5113621537721532 1:1 2:2 3:6 4:8 5:3 6:2 7:4 8:4 9:4 13:1 14:1 17:6 18:5 19:3 20:3 21:4 22:5 23:4 24:1 25:1 26:4 
-0.8795366628878247 -1 -0.9006178978775947 -0.7570691443862577 -0.7972670352357331 0.8361922603696612 0.7976062756671867 0.7206611584808955 0.6140093104597937 3:3 4:7 5:2 6:1 7:6 8:2 9:2 10:4 11:6 12:2 13:2 14:3 15:6 16:8 17:8 18:5 19:7 20:5 21:6 22:6 23:5 24:2 25:3 26:7 
-0.8913709603786197 -1 -0.9398253093244558 -0.7761654883275491 -0.7855709076372807 0.8244761169579952 0.9667835745740343 0.7089085710346085 0.6237107666492154 4:7 5:9 6:3 7:5 8:6 9:3 10:2 11:3 12:4 13:5 16:3 17:8 18:6 19:5 20:5 21:6 22:7 23:5 24:1 25:1 26:6 
-0 -0.04088979543517111 -0 -0 -0 -0.1061557906529679 0 0 0.006055491938684287 4:7 5:2 6:2 7:2 8:2 9:2 10:2 11:2 12:1 13:1 17:4 18:3 19:3 20:3 21:3 22:4 23:3 
-0.5570681699790765 -0.6945379599969452 -0.5304294924728397 -0.4829742784322644 -0.5282288609436525 -0.6190491041910353 0.5179136639377547 0.4711194834820244 0.451212036589393 4:8 5:2 6:2 7:2 8:2 9:2 10:2 11:3 12:1 13:1 17:4 18:3 19:3 20:3 21:3 22:4 23:3 26:2 
-0.429977647181129 -0.5383272517282197 -0.466017916804206 -0.3547499670722735 -0.389194723262632 -0.4981515582280779 0.3903875973771635 0.3467591233104382 0.3252508435915945 1:8 2:2 3:2 4:2 5:2 6:2 7:2 8:2 9:1 10:1 12:1 13:1 17:4 18:3 19:3 20:3 21:3 22:4 23:3 24:1 26:2 
-1 -1 -1 -0.9218919107916379 -0.9566471546909687 -1 0.9902251483559135 0.8489637586988504 0.8050279120304622 1:1 2:1 3:1 4:1 5:1 6:1 7:7 8:3 9:4 10:4 11:4 12:4 13:4 14:3 15:1 16:1 17:15 18:4 19:3 20:3 21:3 22:4 23:3 26:6 
-0.6848492948077022 -0.9365739951254296 -0.9878061132521014 -0.6322335688715371 -0.6045781862742715 -1 0.6479989072076235 0.5354248397495018 0.5618383590824587 2:1 3:7 4:3 5:2 6:2 7:2 8:2 9:2 10:2 11:1 12:1 14:1 15:1 17:4 18:3 19:3 20:3 21:4 22:4 23:4 26:2 
-0.8893479741467177 -1 -0.9267137330030366 -0.777871656085196 -0.7808597770957324 -1 0.8172023954121402 0.6747236444126695 0.7731488672128422 1:2 2:2 3:2 4:1 5:2 6:8 7:2 8:2 9:2 10:3 11:3 12:2 13:2 14:1 15:2 16:1 17:4 18:3 19:3 20:3 21:4 22:6 23:5 24:2 25:2 26:5 
-0.569265867665974 -0.7052611431056938 -1 -0.5953571966498348 -0.5116676141247439 -0.6708966616025157 0.5898267755142779 0.456419059767911 0.5502807359787343 4:7 5:3 6:2 7:2 8:2 9:2 10:2 11:2 12:1 13:2 17:4 18:5 19:3 20:3 21:3 22:4 23:3 
-0.8578100815816956 -1 -1 -0.7957644102005483 -0.778487771979691 -0.9850499422197466 0.8160404650889933 0.6918643553927626 0.8058715399871443 5:7 6:2 7:2 8:2 9:2 10:2 11:2 12:2 13:1 14:2 15:1 17:4 18:3 19:3 20:3 21:3 22:4 23:3 26:2 
-1 -1 -1 -0.8933649093050018 -0.9424813946458206 -1 0.9804751758418513 0.8465998223687708 0.8105025310809598 1:1 2:1 3:1 4:1 5:1 6:7 7:3 8:4 9:4 10:3 11:3 12:2 13:2 14:2 15:2 16:1 17:4 18:7 19:12 20:3 21:3 22:4 23:3 26:2 
-0.6384754956271267 -0.8138370204216762 -0.6534779722223129 -0.6523697763937355 -0.5846413359735365 -0.7723994358220285 0.6384434531480357 0.5190086291444531 0.47724859249641 1:8 2:3 3:2 4:2 5:2 6:2 7:2 8:2 9:1 10:1 17:4 18:3 19:3 20:3 21:4 22:4 23:3 24:1 
-0.9563925168393473 -1 -1 -0.9028538568695179 -0.8819202913549838 -1 0.9190607087079654 0.7810814568779247 0.8733016802633183 7:8 8:2 9:2 10:2 11:2 12:2 13:2 14:3 15:2 16:1 17:4 18:3 19:3 20:3 21:3 22:4 23:3 26:3 
-0.5811498496411358 -0.7187942314370566 -0.617153101984563 -0.5351881858302062 -0.5504013975790426 -0.7314149602431044 0.56748739634979 0.4918267773715717 0.437366991499126 1:2 2:2 3:2 4:2 5:3 6:3 7:3 8:2 9:1 17:3 18:2 19:2 20:2 21:2 22:3 23:2 26:4 
-1 -1 -1 -0.8960238075400239 -0.9548951156615907 -1 0.9810811486330396 0.8474257736463887 0.7778208589041625 1:8 2:4 3:4 4:3 5:3 6:3 7:3 8:3 9:2 10:2 11:1 12:1 13:1 14:2 15:1 16:1 17:4 18:3 19:3 20:3 21:3 22:5 23:13 24:5 25:3 
-1 -1 -1 -0.9074803294655762 -0.9830766649264139 -1 0.9875677522526286 0.8501983536842442 0.7809531809299242 1:1 2:1 3:2 4:1 5:7 6:3 7:3 8:2 9:2 10:3 11:3 12:3 13:2 14:2 15:1 16:2 17:4 18:3 19:3 20:4 21:16 22:4 23:3 26:1 
-1 -1 -1 -0.9013861766052497 -0.9590722440667304 -1 0.9851074981545715 0.8509824029825772 0.7817587738418948 1:5 2:7 3:1 4:1 5:8 6:4 7:10 8:3 9:4 10:4 11:3 12:3 13:1 14:1 17:6 18:5 19:5 20:5 21:6 22:5 23:4 24:7 25:6 26:6 
-0.9277055654237483 -1 -1 -0.8468878528638386 -0.867610468357667 -1 0.9063692290937434 0.769198446441985 0.7747904423018022 6:10 7:7 8:2 9:2 10:2 11:2 12:2 13:2 14:1 15:2 16:1 17:5 18:4 19:4 20:4 21:4 22:4 23:3 24:1 25:1 26:3 
-1 -1 -1 -0.8964177695238121 -0.9548323150548828 -1 0.9799320624163073 0.8774093285466946 0.7832726339046362 1:1 2:1 3:1 4:1 5:7 6:3 7:3 8:3 9:2 10:3 11:4 12:3 13:2 14:2 15:1 16:1 17:4 18:3 19:4 20:14 21:4 22:4 23:3 26:2 
-0.8387709793903292 -1 -0.9572113955933248 -0.773501839255554 -0.782353375408924 -0.9488248117820298 0.8120041347357039 0.693256451547148 0.6566811049375384 2:7 3:2 4:2 5:2 6:3 7:2 8:2 9:2 10:2 11:2 14:1 15:2 16:2 17:4 18:3 19:3 20:3 21:3 22:4 23:3 24:1 25:2 26:5 
-0.7620640336667647 -0.9918734332339196 -0.8453630108285555 -0.6756462143249035 -0.7139144531464043 -0.9559113861672316 0.735819224802065 0.6364032116310592 0.5949537087466903 3:7 4:2 5:2 6:2 7:2 8:2 9:3 10:3 11:2 12:2 13:1 14:1 15:1 16:2 17:4 18:3 19:3 20:3 21:3 22:4 23:3 25:3 26:6 
-0.9913080849988484 -1 -1 -0.888046367338027 -0.9355262213114777 -1 0.9644743510222609 0.8297249541403899 0.7720870509811553 1:7 2:2 3:2 4:2 5:2 6:3 7:2 8:2 9:1 10:2 11:10 17:5 18:4 19:4 20:4 21:4 22:5 23:4 24:1 25:1 26:3 
-1 -1 -1 -0.9039609617750239 -0.9239483277003454 -1 -0.9623060604804706 0.8229844823219286 0.7692395586394374 1:1 2:1 3:1 4:5 5:4 6:3 7:5 8:4 9:4 10:3 11:3 12:10 13:4 15:6 16:2 17:8 18:8 19:5 20:4 21:8 22:9 23:5 24:1 25:1 26:7 
-1 -1 -1 -0.9783924017713819 -0.9203108732104973 -1 -0.9616321368293381 0.8226113082605869 0.7553982269756858 4:2 5:5 6:4 7:3 8:4 9:5 10:5 11:3 12:3 13:4 14:10 17:9 18:8 19:4 20:3 21:7 22:8 23:4 24:1 25:1 26:3 
-1 -1 -1 -1 -0.9143145746321594 -1 -0.9276389741573171 0.7924601571954244 0.7520549414825037 2:1 3:5 4:5 5:5 6:5 7:5 8:10 9:3 10:3 11:4 12:4 17:7 18:7 19:4 20:4 21:8 22:7 23:4 24:1 25:1 26:7 
-0.9394235432593466 -0.9842709806735055 -0.8278695320644737 -0.6980778677932226 -0.736690004742008 -1 -0.7696991868512626 0.660757685864011 0.6138492946616285 4:4 5:5 6:3 7:4 8:8 9:6 10:3 11:3 12:5 13:5 14:1 15:1 16:1 17:8 18:7 19:3 20:4 21:7 22:8 23:4 24:1 25:1 26:6 
-1 -1 -1 -0.9541012596086013 -0.9730137489078921 -1 -1 0.8685022935942343 0.79306545536193 1:1 2:1 3:1 4:5 5:5 6:4 7:5 8:5 9:5 10:6 11:5 12:5 13:6 14:3 15:2 16:1 17:10 18:9 19:4 20:3 21:7 22:7 23:3 24:16 25:1 
-1 -1 -1 -0.9391109627745686 -0.9515753124913313 -1 -0.9934380868796348 0.8490927215336631 0.7829268387791455 1:1 2:2 3:5 4:5 5:4 6:5 7:5 8:5 9:4 10:4 11:5 12:5 13:1 14:1 15:1 16:1 17:7 18:7 19:3 20:4 21:7 22:7 23:3 25:1 26:15 
-1 -1 -1 -1 -0.9376183323962632 -1 -0.9637730572931128 0.8239324461125601 0.7695254380816017 5:1 7:4 8:4 9:3 10:4 11:10 12:5 13:3 14:3 15:4 16:4 17:8 18:7 19:3 20:3 21:7 22:8 23:4 24:1 25:1 26:3 
-1 -1 -1 -1 -0.9282117388895714 -1 -0.971050084734413 0.8281890784687052 0.7596905859875698 1:1 2:1 3:10 4:1 6:4 7:5 8:3 9:4 10:4 11:4 12:3 13:3 14:4 15:4 17:8 18:8 19:4 20:4 21:8 22:8 23:4 24:1 25:1 26:5 
-0.2667032572739361 -0.1249413030489531 -0.1687319658670481 -0.4954530788522346 -0.04127420270917097 -0.2220069475289884 -0.00972773528888528 0 0.01603996345689606 4:4 5:4 6:3 7:4 8:5 9:5 10:3 11:3 12:4 13:4 16:1 17:7 18:7 19:3 20:3 21:7 22:7 23:3 26:3 
-1 -1 -0.9948442862175929 -0.9340935107516932 -0.8713921997987801 -1 -0.9089284831835125 0.7637333748436004 0.7165194989846014 1:1 2:1 3:3 4:2 5:1 6:5 7:6 8:4 9:5 10:5 11:4 12:3 13:3 14:4 15:4 17:7 18:7 19:3 20:3 21:7 22:7 23:3 24:4 25:5 26:5 
-1 -1 -0.9550350893732201 -1 -0.7862748637258521 -1 -0.8185081986862415 0.658229508348136 0.9580844923205371 5:1 6:4 7:5 8:4 9:4 10:4 11:4 12:4 13:3 14:4 15:4 17:7 18:7 19:5 20:3 21:7 22:7 23:3 26:2 
-1 -1 -1 -0.8747232729161957 -0.9064230987389676 -1 -0.9461625812266883 0.8106743515148953 0.7288861361715963 1:1 2:1 3:1 4:5 5:4 6:4 7:4 8:4 9:4 10:4 11:4 12:4 13:4 14:1 15:1 16:1 17:7 18:16 19:3 20:3 21:7 22:8 23:3 
-1 -1 -1 -1 -0.9144730387650281 -1 -0.9439115626670633 0.769302885365323 0.9539194487374901 2:4 3:4 4:3 5:5 6:5 7:4 8:3 9:3 10:5 11:5 17:7 18:7 19:3 20:3 21:7 22:7 23:4 26:3 
-0.7238630664798441 -0.9571723221848766 -0.837048371856332 -1 -0.5823447454631809 -0.7762040983084975 -0.660080464318617 0.5120944081054879 0.8622543137835679 4:4 5:4 6:3 7:4 8:4 9:4 10:3 11:3 12:4 13:4 17:7 18:7 19:3 20:3 21:7 22:7 23:3 
-1 -1 -1 -0.9490538567975586 -0.961286448977444 -1 -1 0.8577251271529063 0.7820719453399618 6:10 7:4 8:4 9:3 10:4 11:4 12:4 13:3 14:3 15:5 16:8 17:8 18:8 19:4 20:4 21:8 22:9 23:5 24:2 25:2 26:2 
-1 -1 -1 -1 -0.9889289903782008 -1 -1 0.822689240688607 0.8519436971488107 1:4 2:4 3:4 4:4 5:4 6:3 7:4 8:4 9:4 16:1 17:7 18:6 19:2 20:2 21:7 22:7 23:3 24:1 26:1 
-0.9174421339366099 -1 -0.8775005412562947 -0.7722624261485584 -0.8192586392363419 -0.9863995389962845 -0.8296334428164933 0.7130582788717464 0.6483200311540767 1:2 2:1 3:1 4:5 5:4 6:4 7:5 8:5 9:5 10:4 11:6 12:5 13:5 14:1 17:9 18:8 19:5 20:5 21:9 22:12 23:3 26:2 
-0.6973392843906258 -0.7662982494296265 -0.606881174483672 -0.5280925312314746 -0.5577888400187995 -0.6682291806955023 -0.5609270326387791 0.4912883603949941 0.4355860246629583 3:1 4:4 5:5 6:3 7:4 8:4 9:4 10:7 11:3 12:5 13:4 14:1 17:7 18:9 19:5 20:4 21:8 22:7 23:3 26:2 
-1 -1 -1 -0.9861507103717505 -1 -1 -1 -1 0.9256408298428784 7:9 8:5 9:5 10:3 11:2 12:2 13:2 14:2 15:6 16:6 17:3 18:4 19:10 20:10 21:2 22:2 23:2 24:2 25:2 26:5 
-0.4080458629024213 -0.476971229744741 -0.4301270116436989 -0.3624493778262455 -0.3839186287445734 -0.4543960737872005 -0.4091818095176625 -0.3956846276943871 0.3404811991893993 3:2 4:4 5:4 6:2 7:2 8:2 9:2 10:2 11:3 12:4 16:1 17:2 18:3 19:10 20:10 21:1 26:2 
-0.6517856205590521 -0.7499586930500736 -0.6782026544858091 -0.5860662981878294 -0.6179820883400979 -0.7172788850395698 -0.6459013814167532 -0.6355378248973514 0.5496175626101043 4:3 5:3 6:4 7:2 8:2 9:2 10:2 11:4 12:3 13:5 14:2 15:2 16:2 17:4 18:4 19:12 20:12 21:2 26:2 
-0.1155492154231933 -0.1362484552800935 -0.1220415045120387 -0.1018822220525378 -0.1080932635422238 -0.1285835658554055 -0.1286726352040867 -0.1121576682638975 0.09699041379535783 1:4 2:4 3:2 4:2 5:2 6:2 7:2 8:2 9:4 15:1 16:1 17:1 18:3 19:9 20:9 21:2 26:2 
-1 -1 -1 -0.9738292757005553 -1 -1 -1 -1 0.9137689935283547 3:10 4:3 5:4 6:2 7:3 8:2 9:2 10:2 11:2 12:4 14:1 17:2 18:4 19:10 20:10 21:2 22:1 23:1 24:1 25:1 26:3 
-0.2525079931991375 -0.2944703687030579 -0.2647365894328716 -0.2294608149345111 -0.2430272817204552 -0.2816714570207453 -0.2601846937741726 -0.2481106655126164 0.2148817771806164 4:2 5:3 6:4 7:2 8:2 9:2 10:2 11:2 12:2 13:4 16:2 17:1 18:3 19:10 20:11 21:1 22:1 
-0.6422843084054775 -0.7384795855010381 -0.6660953411330321 -0.5771893384814575 -0.6096390759507755 -0.7071130184042027 -0.6276542684178992 -0.6266869110386186 0.5418655353973796 1:3 2:4 3:2 4:2 5:2 6:2 7:2 8:2 9:4 16:2 17:1 18:3 19:10 20:10 21:1 
-0.5153116313870397 -0.5844608569895243 -0.5380082984191086 -0.4635989375675648 -0.4865332863470903 -0.5616285124780398 -0.5088212994950968 -0.5015211976565808 0.4357121269870176 4:2 5:3 6:4 7:2 8:2 9:2 10:2 11:2 12:2 13:4 17:1 18:3 19:10 20:10 21:1 
-0.735264046706589 -0.846526651179891 -0.7644951336251591 -0.6632614750107271 -0.6986735813030914 -0.8104511249292389 -0.7303021814610118 -0.7180588193563727 0.6224773418612832 1:3 2:4 3:2 4:2 5:2 6:2 7:2 8:2 9:5 10:1 11:1 12:1 13:1 14:1 16:1 17:1 18:3 19:9 20:9 21:1 26:7 
-1 -1 -1 -0.9705516938682868 -1 -1 -1 -1 0.9109844908172511 1:3 2:4 3:2 4:10 5:3 6:2 7:2 8:2 9:4 17:2 18:5 19:9 20:9 21:2 22:1 23:1 24:1 25:1 26:1 
-0.855133553230863 -0.9853046538406335 -0.8946050847471297 -0.7679718090194625 -0.8101206913791185 -0.9426419678568485 -0.8494541142923423 -0.8333798684395328 0.7206455768036109 1:1 2:3 3:4 4:5 5:2 6:2 7:2 8:3 9:2 10:2 11:5 12:1 15:1 17:1 18:3 19:10 20:10 21:1 22:2 26:6 
-0.7586816018708626 -0.8726768601961273 -0.7914943542018028 -0.6839944200866118 -0.7207726745773668 -0.83559709736553 -0.764492923464319 -0.7402829781360413 0.6425103078467193 3:2 4:3 5:4 6:3 7:2 8:2 9:3 10:4 11:4 12:5 13:1 14:1 15:2 16:3 17:4 18:5 19:11 20:12 21:3 22:1 24:1 26:2 
-0.9722604259350297 -1 -1 -0.870007969004206 -0.9202293331953372 -1 -0.9633681752840916 -0.9466342607826495 0.8168953610563661 5:1 6:1 7:3 8:4 9:5 10:3 11:2 12:2 13:2 14:2 15:2 16:6 17:2 18:3 19:10 20:10 21:1 22:1 26:6 
-0.8381218383199284 -0.9631268377718815 -0.8743571824658721 -0.7551425838011889 -0.7960819294427257 -0.9220421875334514 -0.8338011799252812 -0.8183052131460602 0.7087975021782515 3:1 4:3 5:5 6:5 7:3 8:3 9:2 10:2 11:2 12:2 13:4 16:1 17:1 18:3 19:10 20:10 21:2 26:7 
-1 -1 -1 -1 -1 -1 -1 -1 0.9719828669159509 1:1 2:3 3:4 4:5 5:4 6:3 7:3 8:3 9:3 10:3 11:6 12:1 13:1 14:1 15:1 16:2 17:3 18:3 19:10 20:10 21:1 24:1 25:16 
-1 -1 -1 -1 -1 -1 -1 -1 0.9714337967843419 1:1 2:1 3:1 4:1 5:3 6:5 7:6 8:4 9:4 10:4 11:4 12:4 13:3 14:5 15:1 16:1 17:1 18:3 19:10 20:10 21:2 25:16 26:6 
-0.2997059477314114 -0.3456044855142849 -0.3155846091258382 -0.2686047673008333 -0.2826976329194429 -0.3313278112571936 -0.2965552109446487 -0.2909656737127018 0.2508527075946865 1:3 2:5 3:3 4:2 5:2 6:2 7:2 8:2 9:4 17:1 18:3 19:9 20:9 21:1 26:2 
-1 -1 -1 -1 -1 -1 -1 -1 0.9709578120656049 1:1 2:1 3:1 4:1 5:2 6:2 7:4 8:5 9:2 10:3 11:4 12:3 13:10 14:3 15:6 16:4 17:4 18:6 19:16 20:11 21:3 22:2 23:3 24:2 25:2 26:3 
-1 -1 -1 -1 -1 -1 -1 -1 -1 4:2 5:5 6:6 7:4 8:3 9:3 10:3 11:5 12:5 13:2 15:10 17:7 18:5 19:6 20:6 21:5 22:7 23:5 24:1 25:1 26:5 
-1 -1 -1 -1 -1 -1 -1 -1 -0.951583980744188 1:2 2:4 3:4 4:3 5:3 6:8 7:5 8:4 9:5 10:3 17:6 18:5 19:5 20:5 21:5 22:6 23:4 24:1 25:1 26:3 
-0.5973847155728648 -0.6965989307842888 -0.489484932677163 -0.7218140772868031 -0.3713026153828422 -0.7656593074964554 -0.484859339475831 -0.555419224804895 -0.3177316547075464 6:2 7:4 8:4 9:3 10:3 11:3 12:3 13:4 14:4 15:2 17:6 18:4 19:4 20:4 21:4 22:6 23:4 
-0.757247840811048 -0.6806400977545097 -0.8627026105783262 -0.6704942393714195 -0.4895233190625968 -0.6487233969809588 -0.6121163813884563 -0.6075721901622977 -0.4244395946736036 5:2 6:4 7:4 8:3 9:3 10:3 11:3 12:4 13:4 14:2 17:6 18:4 19:4 20:4 21:4 22:6 23:4 
-1 -1 -1 -1 -0.7712843335475738 -1 -1 -1 -0.668790192867479 2:1 3:2 4:4 5:4 6:4 7:3 8:3 9:3 10:4 11:4 12:2 13:1 14:1 17:8 18:4 19:4 20:4 21:4 22:6 23:4 26:2 
-1 -1 -1 -1 -1 -1 -1 -1 -1 1:1 2:1 3:3 4:5 5:5 6:4 7:4 8:3 9:4 10:5 11:5 12:3 13:10 14:1 15:1 16:4 17:7 18:5 19:6 20:5 21:5 22:8 23:11 24:8 25:1 26:3 
-1 -1 -1 -1 -1 -1 -1 -1 -1 1:2 2:1 3:3 4:4 5:5 6:5 7:4 8:4 9:4 10:5 11:4 12:3 13:1 14:5 15:6 17:7 18:9 19:13 20:6 21:6 22:7 23:5 24:1 25:1 26:1 
-1 -1 -1 -1 -1 -1 -1 -1 -0.952603629649327 1:5 2:4 3:3 4:3 5:3 6:3 7:4 8:5 9:3 10:1 11:1 12:1 13:1 14:1 15:1 16:1 17:15 18:5 19:3 20:3 21:4 22:6 23:4 
-1 -1 -1 -1 -1 -1 -1 -1 -1 1:2 2:5 3:6 4:6 5:4 6:4 7:5 8:4 9:6 10:5 11:3 12:1 13:1 14:1 15:1 16:1 17:6 18:5 19:4 20:5 21:4 22:6 23:4 24:15 25:1 26:5 
-0.9172851247238895 -0.8880298425825195 -0.8343472163286068 -0.7665616752324614 -0.66607449754085 -0.8490232120140279 -0.7768506754930594 -0.8619504726557766 -0.5884328263059304 4:2 5:4 6:6 7:3 8:3 9:3 10:4 11:4 12:4 13:2 17:6 18:5 19:4 20:4 21:4 22:6 23:5 24:1 
-1 -1 -1 -1 -1 -1 -1 -1 -0.9549583354370984 1:3 2:6 3:5 4:4 5:5 6:5 7:4 8:4 9:5 10:3 11:1 12:1 13:1 14:1 15:1 16:2 17:16 18:4 19:4 20:4 21:4 22:7 23:4 24:1 25:1 26:6 
-1 -1 -0.9975136873015297 -1 -0.8664628834457188 -1 -0.9255969399415852 -0.9244340041070291 -0.7603203183635577 7:2 8:4 9:4 10:3 11:3 12:3 13:3 14:4 15:4 16:2 17:6 18:4 19:4 20:4 21:4 22:6 23:4 
-1 -1 -1 -1 -1 -1 -1 -1 -0.9886632993154576 3:1 4:1 6:2 7:4 8:4 9:3 10:4 11:4 12:4 13:6 14:5 15:3 16:1 17:6 18:4 19:4 20:4 21:4 22:6 23:4 24:1 26:9 
-1 -1 -1 -1 -1 -1 -1 -1 -0.9989723703909864 1:2 2:4 3:4 4:6 5:4 6:6 7:5 8:5 9:6 10:5 11:3 12:3 13:2 14:2 15:1 16:3 17:8 18:7 19:7 20:7 21:9 22:9 23:4 24:1 25:2 26:7 
