svm_type c_svc
kernel_type rbf
gamma 0.0384615
nr_class 10
total_sv 40
rho 0.301667 0.0702393 -0.0427528 0.164985 -0.0386656 0.370679 0.156291 -0.0517762 0.147367 -0.250317 -0.399753 -0.201227 -0.407553 0.126072 -0.207989 -0.401348 -0.222618 -0.130739 0.10638 -0.137176 0.321832 0.0302887 -0.121384 0.0815207 0.257377 -0.000296147 0.475567 0.250019 -0.0208988 0.219722 -0.249418 0.300711 -0.00814678 -0.249974 -0.0262123 0.475544 0.25946 -0.0196537 0.230877 -0.300734 -0.47553 -0.300766 -0.247533 -0.0112338 0.220577
label 3 5 6 7 2 0 1 8 4 9
nr_sv 4 5 4 3 4 3 6 4 3 4
SV
1 1 0.9458966546219953 1 0.9449212814124887 1 1 0.9257247414743175 1 1:3 2:2 3:2 4:2 5:2 6:2 7:3 8:4 9:6 10:1 11:1 14:1 17:3 18:1 19:1 20:2 21:6 22:7 23:3 26:6 
0.7860516213286565 0.7343671499203107 0.5783087691365095 0.7056912979911902 0.5891485764496307 0.8292860255737943 0.7313906870203086 0.5678871872996133 0.6980653194916678 4:5 5:4 6:2 7:2 8:3 9:2 10:2 11:2 12:3 13:5 17:4 18:3 19:3 20:3 21:7 22:7 23:3 
0.7380768517506732 0.5821864230540548 0.5470597241226308 0.6509458208913854 0.5348969917981516 0.7705610847915573 0.8008006576961262 0.5740329007344138 0.6423031183708687 4:5 5:3 6:2 7:2 8:4 9:2 10:2 11:3 12:3 13:5 14:1 15:1 17:4 18:3 19:3 20:3 21:8 22:7 23:3 26:2 
1 1 0.9287348521188644 1 0.931033150339729 1 1 0.9323551704916554 1 2:1 6:1 7:6 8:3 9:2 10:2 11:2 12:2 13:2 14:2 15:3 16:5 17:4 18:2 19:2 20:3 21:7 22:7 23:3 26:3 
-0.698178632688881 0.7494794500993275 0.6001551955273619 0.8036551886819181 0.5923554605014693 1 0.7909917164415525 0.5984234244625702 0.7768691031467209 1:1 2:2 3:2 4:2 5:2 6:2 7:7 8:2 9:2 10:5 11:4 12:2 13:2 14:4 15:5 16:6 17:7 18:4 19:3 20:3 21:5 22:5 23:3 24:3 25:10 26:7 
-0.6978756663754535 0.7488123839508555 0.5992710317202518 0.7983742693835939 0.5923597005268592 1 0.7916313718871711 0.5977638422338054 0.7769877475862449 6:5 7:1 8:1 9:6 10:6 11:3 12:5 13:9 14:6 15:8 16:1 17:7 18:6 19:5 20:7 21:7 22:5 23:4 24:3 25:3 26:4 
-0.7039171712363084 0.7803238225862897 0.599741933118385 0.8000503289409225 0.5924804561374164 1 0.8222993255506231 0.5992242568878002 0.7791682523486766 4:1 5:10 6:2 7:2 8:5 9:5 10:3 11:3 12:3 13:4 14:4 15:1 17:7 18:4 19:3 20:4 21:5 22:6 23:4 24:1 25:1 26:8 
-0.7197596005593038 0.7478476333079538 0.5997262608381843 0.7994095163783226 0.5922291938431027 1 0.7951698022581498 0.6058291550703616 0.8831052366002431 7:5 8:2 9:2 10:5 11:4 12:9 13:2 14:3 15:4 16:4 17:7 18:5 19:4 20:4 21:6 22:5 23:3 24:1 25:1 26:4 
-0.704397402219383 0.7546601297417058 0.6011055787958172 0.7985106966152429 0.6305751889911525 1 0.7999077838625033 0.5987593213454625 0.7838696603181146 1:4 2:9 4:5 5:1 6:1 7:4 8:4 9:2 10:2 11:3 12:4 13:4 17:8 18:5 19:5 20:5 21:6 22:7 23:4 24:1 25:1 26:1 
-0.7603123394262381 -0.8951687720957118 0.6712768660735045 0.7885117484798083 0.6606587631337179 0.9432628410589617 1 0.6290126188559918 0.8527710458153576 1:4 2:2 3:1 4:4 5:4 6:4 7:3 8:4 9:5 10:1 17:8 18:4 19:2 20:2 21:6 22:6 23:2 26:2 
-0.9785810155174243 -1 0.8584138789403524 1 0.8540972946327808 1 1 0.8715476575587081 1 4:5 5:10 6:2 7:1 8:4 9:4 10:3 11:3 12:4 13:4 16:1 17:8 18:5 19:4 20:4 21:6 22:7 23:4 24:1 25:1 26:1 
-0.6476285163627306 -0.8859546475904205 0.6007500969004026 0.7827788286921665 0.6220829865171413 0.9367400285898033 0.9536325861189215 0.6208359805226102 0.8145491620629125 1:4 2:2 3:2 4:7 5:6 6:3 7:4 8:4 9:5 16:1 17:8 18:5 19:2 20:2 21:6 22:7 23:3 24:1 25:1 26:3 
-0.9300317016679726 -1 0.8695591580857406 1 0.86316095571636 1 1 0.8786037430626898 1 1:3 2:7 3:6 4:2 5:1 6:5 7:5 8:3 9:3 10:4 11:4 14:10 15:1 17:9 18:6 19:4 20:4 21:9 22:8 23:5 24:2 25:3 26:4 
-1 -1 -1 1 1 1 1 0.9792975284666556 1 1:7 2:2 3:2 4:2 5:2 6:2 7:2 8:2 9:1 10:1 17:4 18:3 19:3 20:3 21:3 22:4 23:3 
-1 -1 -1 1 0.9977551000873434 1 1 0.9776394922225315 1 1:7 2:2 3:2 4:7 5:3 6:4 7:3 8:3 9:5 10:5 11:4 12:3 13:3 14:2 15:2 16:2 17:5 18:4 19:4 20:5 21:15 22:5 23:6 24:5 25:3 26:5 
-1 -1 -1 1 0.9986572221102206 1 1 1 1 1:1 2:1 3:1 4:1 5:1 6:7 7:3 8:3 9:2 10:2 11:4 12:4 13:3 14:2 15:2 16:1 17:4 18:3 19:3 20:3 21:15 22:5 23:3 26:2 
-0.8334608284884915 -1 -0.8919171486049216 -0.7411674738749985 0.7494875706146925 1 0.9895999658950064 0.7484392068799742 0.9721947692789139 1:1 2:1 3:2 4:2 5:2 6:2 7:5 8:6 9:3 10:2 11:2 12:2 13:10 14:5 15:6 16:8 17:5 18:6 19:4 20:5 21:7 22:8 23:6 24:5 25:7 26:6 
-0.8504387055202947 -1 -0.8915192833685884 -0.7409801936795058 0.7495130336964698 1 0.9909995424314811 0.7483986095951572 0.9772365748993044 5:3 6:4 7:9 8:6 9:3 10:2 11:2 12:2 13:2 14:3 15:2 16:9 17:5 18:6 19:6 20:5 21:6 22:7 23:4 24:1 25:3 26:4 
-0.8351048266405257 -1 -0.893678912127554 -0.7426008118148628 0.750695456441851 1 0.9921168589548376 0.7501198852481812 0.9739130472566442 1:1 2:1 3:1 4:1 5:5 6:5 7:4 8:3 9:6 10:5 11:3 12:4 13:5 14:7 15:3 16:1 17:6 18:8 19:6 20:5 21:6 22:5 23:2 25:16 26:1 
-0.8376327582332638 -1 -0.8941752330709106 -0.775251520630633 0.7503039392469867 1 0.9961467100897705 0.7530422982766874 0.9738811285725659 1:1 2:1 3:1 4:1 5:4 6:4 7:5 8:4 9:3 10:3 11:4 12:5 13:3 14:7 15:1 16:1 17:5 18:5 19:4 20:5 21:14 22:5 23:2 25:1 26:7 
-1 -1 -1 -0.9986572221102206 -1 1 1 0.9790749600339046 1 1:5 2:4 3:3 4:3 5:3 6:3 7:4 8:4 9:2 13:10 16:5 17:9 18:6 19:5 20:5 21:6 22:7 23:5 24:1 25:1 26:1 
-1 -1 -1 -1 -1 1 1 0.9800453332531339 1 1:4 2:4 3:3 4:3 5:3 6:3 7:5 8:4 9:2 12:6 14:1 17:7 18:5 19:4 20:4 21:5 22:6 23:4 26:3 
-1 -1 -1 -0.9977551000873434 -1 1 1 0.9770024586731738 1 1:5 2:10 3:3 4:3 5:3 6:3 7:4 8:4 9:2 14:1 15:6 16:4 17:7 18:5 19:5 20:5 21:5 22:7 23:6 24:4 25:2 26:2 
-0.61007318934301 -0.847936863254557 -0.657845736108251 -0.5083254613689294 -0.6785811360283929 -0.5083638308764237 0.6777219300571877 0.5085151598801873 0.6786651519020601 6:2 7:3 8:4 9:2 10:2 11:2 12:8 13:4 14:2 15:5 17:3 18:4 19:10 20:10 21:2 22:1 23:1 24:1 25:1 26:1 
-0.5877477247471555 -0.8167999425381183 -0.6338256720284949 -0.4897583681005919 -0.6530405156592852 -0.4897749913825437 0.6530237357319256 0.4899445181271893 0.6531803671752306 2:2 3:3 4:4 5:9 6:3 7:2 8:3 9:2 10:2 11:5 12:2 13:1 17:2 18:4 19:10 20:11 21:2 22:2 23:1 24:1 25:1 26:4 
-0.6290682843821921 -0.8739905019036133 -0.6781871180427721 -0.5242283068702414 -0.6997280002527468 -0.5242278899086797 0.698985295293433 0.5244193106108708 0.6997635281661301 1:2 2:3 3:3 4:4 5:3 6:3 7:3 8:4 9:3 10:4 11:6 12:3 13:3 14:2 15:2 16:2 17:7 18:16 19:11 20:11 21:3 22:2 
-0.5617581465159267 -0.7799390428414509 -0.6059520325590612 -0.4686977690776366 -0.6241433053571561 -0.4686795102916824 0.6241544061659288 0.4683213123824529 0.6241402089016422 2:2 3:3 4:4 5:2 6:3 7:2 8:2 9:2 10:4 11:5 17:1 18:3 19:10 20:10 21:1 25:1 26:3 
-0.5813625049706628 -0.8071593665997489 -0.6265202517645597 -0.4842564679866226 -0.6454811048178024 -0.4841411208371925 0.6462677491541237 0.4843206816575527 0.6453146582072807 5:2 6:3 7:4 8:2 9:2 10:2 11:2 12:2 13:2 14:4 17:1 18:3 19:10 20:10 21:1 
-0.6298372604064044 -0.8741742828625118 -0.6776720591456261 -0.5247336265959783 -0.6990259378846165 -0.5248126567034781 0.6998468835974013 0.5244790173417471 0.6989360856476562 1:1 2:10 3:4 4:6 5:4 6:4 7:4 8:4 9:3 10:4 11:6 12:2 13:1 14:1 15:1 16:2 17:3 18:4 19:10 20:11 21:2 22:1 23:1 24:1 25:16 26:8 
-0.825874156016385 -1 -0.9844895052408232 -0.7352128299087748 -0.9895999658950064 -0.7262028092073293 -1 0.7399944929574426 0.9741100521446473 4:1 5:10 6:5 7:4 8:3 9:4 10:4 11:4 12:3 13:3 14:4 15:4 17:8 18:8 19:4 20:5 21:8 22:8 23:4 24:1 25:2 26:1 
-1 -1 -1 -0.7302971142061447 -0.9822423635621332 -0.7320394411795583 -1 0.7615287428055172 0.9796363427364172 4:4 5:4 6:3 7:4 8:4 9:5 10:3 11:3 12:4 13:5 14:1 17:7 18:7 19:3 20:3 21:7 22:7 23:3 26:3 
-0.8435088188518545 -1 -0.9691430808780983 -0.7499032152123184 -1 -0.7400281532333571 -1 0.7527886600046614 0.9891960106331378 1:1 2:1 3:1 4:1 5:1 6:1 7:4 8:5 9:4 10:5 11:5 12:5 13:4 14:4 15:5 16:4 17:8 18:7 19:3 20:16 21:7 22:7 23:3 
-0.8628083698481953 -1 -1 -0.7845868406727621 -0.997020747913956 -0.8017295963797553 -1 0.745688104232379 1 1:4 2:3 3:4 4:4 5:5 6:3 7:3 8:4 9:4 16:1 17:7 18:6 19:3 20:2 21:6 22:7 23:3 24:1 
-1 -1 -1 -1 -1 -1 -1 -1 1 1:2 2:3 3:4 4:6 5:5 6:4 7:7 8:4 9:2 10:4 11:2 12:5 13:4 14:1 15:2 16:1 17:6 18:5 19:6 20:5 21:12 22:16 23:3 26:3 
-1 -1 -1 -0.9853593892285968 -1 -0.9681694817611152 -1 -1 1 6:2 7:3 8:4 9:4 10:4 11:4 12:7 13:2 14:2 15:2 17:3 18:3 19:3 20:3 21:10 22:10 23:2 
-1 -1 -1 -0.9715776314605904 -1 -0.9679532701990972 -1 -1 1 1:1 3:2 4:3 5:4 6:4 7:4 8:3 9:7 10:2 11:6 12:6 17:4 18:4 19:4 20:4 21:10 22:10 23:2 24:1 25:2 26:1 
-0.7882269996041635 -1 -0.8450841713608117 -0.7210768129220674 -0.9493271785825248 -0.7149892076164251 -1 -0.9472702106176608 -0.7226472832118639 1:1 2:4 3:6 4:5 5:5 6:7 7:5 8:2 9:3 10:4 11:4 12:1 17:6 18:8 19:5 20:6 21:5 22:8 23:6 24:1 26:2 
-0.9091203646732027 -1 -0.9190307434021914 -0.780323779182262 -1 -0.7697592635231115 -1 -1 -0.7878598841591355 7:4 8:4 9:3 10:3 11:5 12:5 13:2 14:4 15:5 16:5 17:7 18:6 19:3 20:3 21:5 22:8 23:6 26:2 
-0.8038432338834646 -1 -1 -0.7303588979708189 -0.9478983414249037 -0.7571127090356704 -1 -1 -0.7217208889955493 1:4 2:4 3:3 4:3 5:6 6:5 7:3 8:4 9:5 10:4 12:1 17:6 18:6 19:3 20:4 21:5 22:8 23:6 24:1 25:1 26:2 
-0.8391778397017058 -1 -0.903205293115267 -0.7682405099248517 -1 -0.7581388198247929 -1 -0.9956721948965415 -0.7677719436334512 1:4 2:10 3:4 4:5 5:6 6:6 7:3 8:3 9:4 10:5 11:2 12:4 13:3 14:2 17:7 18:8 19:6 20:5 21:6 22:10 23:8 24:2 25:2 26:7 
