svm_type c_svc
kernel_type rbf
gamma 0.0384615
nr_class 10
total_sv 559
rho 0.103795 -0.0671709 -0.273672 0.160533 0.022004 0.0241493 -0.154815 -0.088264 -0.292887 -0.159299 -0.351828 0.0550079 -0.103347 -0.0753267 -0.278302 -0.263825 -0.396162 -0.203406 0.192399 0.0929 0.081451 -0.0707771 -0.00512648 -0.18148 0.380678 0.284994 0.285337 0.133906 0.193489 0.0329764 -0.136953 -0.121463 -0.307842 -0.246317 -0.448384 -0.00231312 -0.173291 -0.0959533 -0.301102 -0.154711 -0.0885101 -0.323587 0.0716633 -0.128606 -0.192962
label 2 6 4 1 5 3 7 9 8 0
nr_sv 62 69 46 37 65 58 58 61 54 49
SV
0.5778813499191275 0.2860872916813862 0.2114481075580084 0.607875787130789 0.45942630423723 0.4414905257817788 0.280745760634931 0.2813135702043992 0.3656137724599649 6:4 7:4 8:4 9:3 10:3 11:3 12:3 13:3 14:2 15:6 17:4 18:5 19:4 20:4 21:5 22:5 23:2 26:6 
0.9169105824522129 0.3292887816212547 0.2341100863599189 1 0.6042784545450663 0.506976807687526 0.504948743095991 0.853844848899 0.7771774175930991 4:4 5:4 6:3 7:3 8:2 9:2 10:2 11:2 12:2 13:6 17:5 18:5 19:4 20:4 21:5 22:5 23:2 
0.71378229757026 0.6361175040438762 0.5029852665817484 0.7499636794054584 0.8012705448384374 0.7136661901914357 0.4566364557324634 0.5508930908869317 0.4139779833114346 1:4 2:4 3:3 4:2 5:2 6:2 7:2 8:3 9:3 10:8 11:1 12:1 13:1 17:4 18:5 19:4 20:4 21:5 22:5 23:3 26:6 
1 0.9022413949196756 0.7014981094128087 1 0.9971455836288168 1 0.817359863105298 0.8821675166449412 0.6841239571862793 1:4 2:3 3:2 4:2 5:2 6:3 7:2 8:2 9:6 13:1 16:10 17:5 18:5 19:4 20:4 21:5 22:6 23:3 24:1 25:1 26:3 
1 0.9373031650678842 0.7209323838885174 1 1 1 0.8434136153888773 1 0.7076832901734317 1:5 2:4 3:4 4:5 5:4 6:3 7:2 8:2 9:6 10:1 11:1 12:1 13:1 14:1 15:2 16:2 17:5 18:15 19:6 20:4 21:4 22:5 23:2 24:1 26:2 
0.687064073739146 0.4961323876683207 0.3990976533522844 0.6594891554525506 0.2294981679357244 0.4396262771901538 0.4483866326539503 0.572032293750125 0.5190648492922343 1:4 2:4 3:3 4:2 5:2 6:3 7:3 8:3 9:2 10:6 17:4 18:6 19:5 20:5 21:5 22:5 23:2 
0.4736872349615609 0.2554410154713782 0.2074133202941489 0.484987272010578 0.3224243482531777 0.01319082112299472 0.547969794596727 0.4228564171076865 0.5409092802100862 1:4 2:3 3:2 4:2 5:3 6:2 7:2 8:2 9:6 17:4 18:4 19:3 20:3 21:4 22:6 23:2 
0.695764665340206 0.5181022349464249 0.4000461653990124 0.7935180024454507 0.6631063987726822 0.538468534523462 0.5075920762560233 0.5166511929263878 0.3745462755113453 3:1 6:4 7:5 8:4 9:2 10:2 11:2 12:2 13:2 14:2 15:10 16:4 17:4 18:5 19:5 20:4 21:6 22:6 23:4 24:1 25:1 26:4 
0 0 0 0.1260764020937985 0 0.2973448725911496 0 0 0.0604907422748147 2:4 3:4 4:3 5:2 6:2 7:2 8:2 9:2 10:2 11:6 13:1 14:1 17:4 18:5 19:4 20:4 21:5 22:5 23:2 26:2 
0.2784905264330146 0 0 0.1094027927057537 0.3007894436283078 0 0 0 0.0640842282990329 4:4 5:5 6:3 7:2 8:2 9:2 10:2 11:2 12:3 13:6 16:1 17:5 18:5 19:4 20:4 21:5 22:5 23:2 26:2 
0.9128163090198479 0.4564094179730325 0.3564435740872723 0.838066091889791 0.325799411351067 0.3897449093743131 0.5037442393909176 0.6843668295687684 0.4394118226425066 3:4 4:4 5:3 6:2 7:2 8:2 9:2 10:2 11:2 12:6 16:2 17:5 18:6 19:4 20:4 21:5 22:5 23:2 
0.6893514662329259 0.6355319717840788 0.4881225615748342 0.7469259545633418 0.6392841583514534 0.7099688376005436 0.654603510451224 0.7597650525842566 0.5679673593915932 3:5 4:6 5:5 6:6 7:3 8:4 9:2 10:2 11:2 12:6 17:4 18:7 19:5 20:5 21:5 22:6 23:3 26:6 
0 0 0 0 0.03651218765450642 0 0 0 0 4:4 5:4 6:3 7:2 8:2 9:3 10:3 11:2 12:2 13:6 17:4 18:5 19:4 20:4 21:5 22:5 23:2 26:2 
0 0 0 0 0 0.06201787103752789 0 0 0 1:4 2:4 3:3 4:2 5:3 6:2 7:2 8:2 9:2 10:6 12:1 17:4 18:5 19:4 20:4 21:5 22:5 23:2 26:2 
0.2506183919606809 0.1717312909895419 0.1481606775644829 0.3532049893486394 0.2462316846017182 0.06711609968826596 0.238903314936537 0.1209013248921513 0.1269773392002186 3:4 4:4 5:3 6:2 7:2 8:3 9:3 10:3 11:3 12:7 13:1 17:4 18:5 19:4 20:4 21:5 22:5 23:2 26:6 
1 0.9274729128071452 0.7219512106045468 1 1 1 0.8425949888648007 0.9099298256932882 0.7044342684565423 1:5 2:3 3:3 4:3 5:3 6:3 7:4 8:3 9:7 10:1 11:2 12:10 13:1 14:1 15:1 16:1 17:7 18:5 19:4 20:4 21:5 22:6 23:3 24:2 25:1 26:14 
1 0.8838128484997962 0.6852867578521933 1 0.9824659916822109 0.9942811556404123 0.8126245692506496 0.8910884695853217 0.6862693203594366 1:5 2:4 3:3 4:2 5:2 6:2 7:2 8:2 9:3 10:6 12:10 13:1 14:1 17:6 18:6 19:5 20:5 21:6 22:6 23:3 24:1 25:1 26:4 
0.3619454728497002 0.459301925666984 0.358446552344158 0.3501280085596855 0.4159474607544196 0.2866337900194671 0.374837313424878 0.3768876145608309 0.1220545562859561 5:4 6:4 7:4 8:2 9:2 10:2 11:2 12:2 13:2 14:7 17:4 18:5 19:4 20:4 21:5 22:5 23:2 26:2 
0.3143995351836113 0 0 0.4260695611931407 0.2742692204760486 0.0656055051845361 0.1197916607204161 0.1916491719055471 0.7903294880858541 5:4 6:4 7:3 8:2 9:2 10:2 11:2 12:3 13:3 14:6 17:4 18:5 19:4 20:4 21:5 22:5 23:2 26:2 
0.6654918239798474 0.3749730583701364 0.2327116679573898 0.7403893290931023 0.7103026141514136 1 0.4118394577376474 0.4583698829858752 0.7347326764026458 1:4 2:3 3:2 4:3 5:3 6:3 7:3 8:2 9:6 17:4 18:4 19:3 20:3 21:4 22:5 23:2 26:4 
1 0.9004806853173309 0.7013537937417211 1 1 1 0.8459353543154166 0.8901069140659962 0.6904532571573695 1:5 2:5 3:3 4:2 5:3 6:4 7:2 8:2 9:3 10:8 11:1 12:1 13:2 14:1 15:1 16:1 17:4 18:5 19:4 20:4 21:5 22:5 23:8 24:7 26:2 
0.8913394661540647 0.7427148442632256 0.5871415320761965 0.9299479547388629 0.8324259582249958 1 0.6972713936755008 0.7367686638929405 0.6645824962029842 1:10 2:3 3:2 4:3 5:3 6:2 7:2 8:2 9:6 17:4 18:4 19:4 20:4 21:4 22:5 23:3 24:1 25:1 26:3 
0 0 0 0 0 0.1703786617009146 0 0 0 1:4 2:5 3:3 4:2 5:2 6:2 7:2 8:2 9:3 10:6 17:4 18:5 19:4 20:4 21:5 22:5 23:2 26:2 
0 0 0 0 0 0.9610742221229964 0 0 0 1:4 2:3 3:2 4:2 5:2 6:2 7:2 8:2 9:6 17:4 18:4 19:3 20:3 21:4 22:5 23:2 
0.6897774378051772 0.5417531820045605 0.3962462323402851 0.6795705500877629 0.6795845190389861 0.5139259776583305 0.6287619675541224 0.6894974063012682 0.6547480753782683 6:4 7:4 8:6 9:5 10:4 11:4 12:2 13:2 14:2 15:6 17:4 18:6 19:5 20:5 21:6 22:5 23:3 24:1 25:1 26:3 
0 0 0.05368259216705041 0 0 0.5490496261636792 0 0 0 2:5 3:4 4:3 5:2 6:2 7:2 8:2 9:3 10:2 11:6 17:4 18:5 19:4 20:4 21:5 22:5 23:2 26:2 
0 0 0 0 0 0.08886335058095099 0 0 0 1:4 2:4 3:3 4:2 5:2 6:3 7:3 8:2 9:2 10:6 17:4 18:5 19:4 20:4 21:5 22:5 23:2 26:2 
0.2971647808094103 0.2087883257998066 0.1467928214195866 0.3719218874709846 0.9026607023332899 0.4135787832600049 0.1416694578366013 0.1664543246369053 0.1529647422687431 1:4 2:4 3:3 4:2 5:2 6:2 7:2 8:2 9:2 10:6 17:4 18:5 19:4 20:4 21:5 22:5 23:2 
0.6290813000382484 0.3930680941833058 0.2807606819529789 0.5743338811282853 0.7730794737249153 0.1242721757610674 0.5243734684263328 0.4848921998950902 0.3155083768097174 2:4 3:4 4:3 5:2 6:2 7:3 8:2 9:2 10:3 11:7 17:4 18:5 19:4 20:4 21:5 22:6 23:2 26:2 
0.5974817643012866 0.5219605884622099 0.4167201536272627 0.6819154078307385 0.557360490476186 0.5936797947971184 0.450701756555919 0.4868214023146116 0.3502306056198122 1:1 2:1 3:1 4:1 6:4 7:6 8:3 9:2 10:3 11:2 12:2 13:2 14:2 15:10 16:1 17:4 18:5 19:5 20:6 21:5 22:5 23:3 24:1 25:1 26:6 
0.3414085650212257 0.1264205158816897 0.07905959406527964 0.396533667155148 0.5615702114235764 0.6294227709713803 0.5038004012386713 0.3651930013792717 0.5297970897971512 1:4 2:4 3:3 4:2 5:3 6:3 7:3 8:3 9:3 10:7 17:4 18:5 19:4 20:4 21:5 22:5 23:4 26:4 
0.2616229386104439 0.3353901002417119 0.2756295152559762 0.3958849605304737 0.6779633136096761 0.5742100984590522 0.2639126877270885 0.3179449534793546 0.0456401223064813 3:1 4:5 5:5 6:4 7:3 8:3 9:2 10:2 11:2 12:2 13:6 17:4 18:5 19:4 20:4 21:5 22:5 23:2 26:6 
1 0.9034292106293996 0.7015742663941567 1 1 1 0.8284477489586365 0.9646451564204919 0.6944330912218675 1:10 3:1 4:1 5:1 6:5 7:5 8:3 9:2 10:3 11:2 12:2 13:2 14:2 15:6 17:5 18:6 19:5 20:5 21:6 22:6 23:3 24:1 25:1 26:7 
0.1924068012591177 0.05067467171959217 0.005657557371970942 0.3134392562715079 0.0639568570122286 0 0.1211444776158468 0.1773023185983832 0.4393704717624951 4:4 5:5 6:4 7:3 8:3 9:3 10:3 11:2 12:2 13:6 17:4 18:5 19:4 20:4 21:5 22:5 23:2 26:6 
0 0 0 0.05383580681010881 0 0.08296945439092979 0 0 0.02203933658963895 4:1 5:5 6:4 7:3 8:2 9:2 10:2 11:2 12:2 13:2 14:6 17:4 18:5 19:4 20:4 21:5 22:5 23:2 26:2 
0.1703874255765452 0.02442757812751399 0 0 0 0 0.03843017047588487 0.3275355883227674 0.03458240239750243 3:4 4:5 5:3 6:3 7:2 8:3 9:4 10:2 11:3 12:6 17:4 18:6 19:4 20:4 21:6 22:5 23:2 26:4 
1 0.8780370952735979 0.6679847216850616 1 0.9724515555827563 1 0.7833318652118808 0.8646670661257042 0.6617540919177828 5:1 6:10 7:4 8:5 9:4 10:2 11:2 12:2 13:2 14:2 15:3 16:6 17:5 18:6 19:5 20:5 21:8 22:6 23:3 24:1 25:1 26:3 
0.678554638660086 0.4145475360609536 0.3079655317773277 0.7756773370072994 0.7548775424696089 0.6561606081345311 0.5137172011360356 0.5692582223849915 0.4634780219972357 3:1 4:1 5:4 6:6 7:4 8:3 9:2 10:2 11:2 12:2 13:2 14:2 15:6 16:1 17:5 18:6 19:4 20:4 21:5 22:6 23:3 24:1 25:1 26:3 
0.7514918829932318 0.4693708154026875 0.3624101997899392 0.8159503639986144 0.6250967643452895 0.8469319100279155 0.4582507790952288 0.5677436635616588 0.5308760183196586 6:4 7:4 8:3 9:2 10:2 11:2 12:2 13:2 14:2 15:6 17:4 18:5 19:4 20:4 21:5 22:5 23:2 
0 0 0 0 0 0 0 0 0.2831120635959999 2:4 3:4 4:3 5:2 6:2 7:2 8:2 9:3 10:3 11:6 17:4 18:5 19:4 20:4 21:5 22:5 23:2 26:2 
0.3827420753264157 0.1992263104755471 0.09408640192758747 0.3906171306005386 0.7960583489439207 0 0.1198660865681761 0.2704385748702232 0.02736002004253067 2:5 3:4 4:3 5:2 6:2 7:2 8:2 9:3 10:2 11:6 12:1 17:4 18:5 19:4 20:4 21:6 22:5 23:2 26:2 
1 0.8101380667514363 0.6291847584632688 1 1 0.912665219599096 0.7403060048852185 0.7882277250475037 0.6840323754908152 5:4 6:4 7:4 8:3 9:3 10:3 11:3 12:3 13:3 14:7 15:1 16:1 17:4 18:5 19:4 20:4 21:5 22:5 23:2 26:10 
0.5004926680259817 0.08669688114454703 0.04739975393006455 0.5585939732664812 0.4193711351823247 0.4138887025665582 0.1726874704798416 0.2193149442499741 0.5365147042844934 3:4 4:4 5:3 6:2 7:3 8:3 9:3 10:3 11:3 12:6 14:1 17:4 18:5 19:4 20:4 21:5 22:5 23:2 26:6 
0.7560808621966572 0.6173776653800154 0.4888909242206519 0.7865360572770886 0.697450219900987 0.7918268954357066 0.610318299201033 0.6160106568957107 0.5495934981690309 4:4 5:8 6:3 7:3 8:3 9:3 10:3 11:3 12:2 13:6 14:1 17:4 18:5 19:5 20:5 21:5 22:5 23:3 24:1 26:6 
0.4652530153674682 0.2996334335702683 0.1806817532263362 0.3560252434419994 0.6379748177458829 0 0.04875560859778998 0.2750404990786356 0.1860957951234829 1:4 2:3 3:2 4:2 5:2 6:3 7:2 8:2 9:6 17:4 18:4 19:3 20:3 21:5 22:5 23:2 
1 0.9330114487849273 0.7263967589125611 1 1 1 0.8794143467605819 0.9113793107246769 0.708542458601837 1:2 2:1 3:3 4:1 5:6 6:6 7:5 8:4 9:4 10:3 11:3 12:4 13:4 14:7 15:1 16:1 17:4 18:5 19:4 20:5 21:5 22:5 23:2 24:2 25:15 26:8 
1 0.904864119008494 0.6623951048746108 1 1 0.9345737640131955 0.7744900087367699 0.8669279928045803 0.6721065592282635 1:1 2:1 3:1 4:1 5:1 6:1 7:4 8:5 9:5 10:3 11:3 12:2 13:2 14:3 15:3 16:6 17:4 18:5 19:4 20:9 21:11 22:5 23:2 26:2 
0.04476189274430901 0.09256185447651222 0.1309275029338532 0.1831512738253585 0.1116525099359348 0.04619237145929202 0.0603492117686901 0.1030894748621758 0 1:4 2:3 3:2 4:3 5:2 6:2 7:2 8:3 9:7 17:4 18:4 19:3 20:3 21:4 22:5 23:2 26:3 
1 0.8942550582743753 0.6927849992232162 1 1 1 0.9748876637894756 0.9167961642671185 0.7179674237443991 1:8 2:6 3:4 4:3 5:3 6:3 7:4 8:3 9:3 10:3 11:7 17:5 18:6 19:6 20:5 21:6 22:6 23:4 24:1 25:1 26:7 
0 0 0 0 0.0913090959186638 0.03127819862643973 0 0 0 3:4 4:4 5:3 6:2 7:2 8:3 9:2 10:2 11:2 12:7 13:1 17:4 18:5 19:4 20:4 21:5 22:5 23:2 26:3 
0 0.2136415564900257 0.1820061702849668 0.02674515398796769 0.1446069764428931 0.08691507814958153 0.0852985269675542 0.05880526120183417 0 3:4 4:4 5:3 6:2 7:2 8:2 9:3 10:3 11:3 12:7 13:1 14:1 17:4 18:5 19:4 20:4 21:5 22:5 23:2 26:6 
0.121634185603291 0.05637729572008485 0.03464108373983358 0.2267001600414724 0.2628491304213415 0.189920543131042 0.04820177227914066 0.06626399812878472 0 5:5 6:4 7:3 8:2 9:2 10:2 11:2 12:3 13:2 14:6 17:4 18:5 19:4 20:4 21:5 22:5 23:2 26:2 
0 0 0 0.00533510784634878 0 0 0 0 0 2:4 3:4 4:3 5:2 6:2 7:2 8:2 9:2 10:2 11:6 17:4 18:5 19:4 20:4 21:5 22:5 23:2 
0.926734767940784 0.7355156129372242 0.5765555598846202 0.9039479372002268 0.7877796215380733 0.8602040669679353 0.6742354056370097 0.7222821270883434 0.5417563409445547 3:4 4:10 5:4 6:3 7:2 8:2 9:3 10:2 11:2 12:7 13:1 14:1 15:1 16:1 17:4 18:6 19:5 20:5 21:5 22:5 23:3 24:1 25:1 26:8 
1 0.7833406087082393 0.5854889413315096 1 1 1 0.7785773544155662 0.8892054615685172 1 7:4 8:4 9:3 10:2 11:2 12:2 13:3 14:3 15:2 16:6 17:4 18:5 19:4 20:4 21:5 22:5 23:2 26:2 
0.1927177520060703 0.2665389091283093 0.2000835105695976 0.4023115529660517 0.693972758341436 0.9316840171685965 0.2400246395479729 0.1222541634947328 0.3448680717357475 3:4 4:4 5:3 6:2 7:2 8:2 9:2 10:2 11:2 12:6 17:4 18:5 19:4 20:4 21:5 22:5 23:2 
0 0.3525572554828311 0.2867496226265105 0.09904876457090031 0.680183438632838 0.5096949499390084 0.1716995399129055 0 0 4:4 5:4 6:3 7:2 8:2 9:2 10:2 11:2 12:2 13:6 17:4 18:5 19:4 20:4 21:5 22:5 23:2 
0 0 0 0 0.147420671065997 0.211165114281211 0 0 0 2:1 3:5 4:5 5:4 6:3 7:2 8:2 9:3 10:2 11:2 12:6 17:4 18:5 19:4 20:4 21:5 22:5 23:2 26:6 
0.3566549231482157 0.26586426469625 0.2082403195363622 0.2076355297062417 0.4929606285733355 0.5684659022132841 0.2710954876746007 0.2560764951653802 0 5:5 6:5 7:3 8:2 9:2 10:2 11:2 12:2 13:2 14:6 17:4 18:5 19:4 20:4 21:5 22:5 23:2 26:2 
1 1 0.6841985239481104 1 1 0.9626995609857562 0.8453434365263026 0.9420237005318288 0.6781617679988297 1:1 2:5 3:4 4:3 5:2 6:2 7:3 8:3 9:3 10:3 11:6 12:1 13:1 14:1 15:1 16:2 17:4 18:5 19:4 20:4 21:12 22:10 23:2 
1 0.8597055967636644 0.7034573724793965 1 0.9508668394846834 0.93317462255214 0.7818019627829251 0.8601444280449438 0.7250025321568313 1:1 2:1 3:1 4:1 5:4 6:5 7:5 8:3 9:4 10:4 11:3 12:3 13:3 14:7 15:2 16:1 17:6 18:6 19:6 20:11 21:6 22:5 23:2 26:6 
0.3956504071846899 0.3716509031577939 0.2973500128957089 0.4480492700900294 0.2234447482693546 0.4878723275251367 0.3501646046928885 0.403696580686584 0.3650309886535361 2:4 3:4 4:4 5:2 6:2 7:2 8:2 9:2 10:2 11:6 17:4 18:5 19:4 20:4 21:5 22:5 23:2 24:1 
-0.2522429346903324 0 0 0.01891767447029296 0.1139374153275469 0 0 0 0 3:1 4:1 5:1 6:5 7:5 8:3 9:1 10:4 11:4 12:3 13:3 14:4 15:4 17:8 18:5 19:3 20:3 21:6 22:6 23:2 26:6 
-0.01181890566088573 0 0 0.105502052929808 0.05847042873162363 0.0731525709664011 0 0 0 1:5 2:4 3:2 4:1 5:4 6:4 7:3 8:3 9:4 10:4 12:1 13:1 17:8 18:5 19:3 20:3 21:6 22:6 23:2 25:1 26:2 
-0.09067225260143993 0 0 0 0.02749210538570288 0 0 0.5261349373295811 0 4:4 5:4 6:3 7:1 8:4 9:4 10:3 11:4 12:4 13:5 17:8 18:6 19:3 20:3 21:6 22:6 23:2 26:2 
-0.8933854676793769 0.8235588478746779 0.6348909508113367 1 0.8800531915321715 0.9077578272355978 0.7237695686264235 0.7470024178979747 0.6017319097145186 1:5 2:5 3:3 4:2 5:5 6:5 7:3 8:10 9:5 10:6 11:2 12:1 13:1 14:1 15:1 16:1 17:8 18:6 19:4 20:4 21:7 22:6 23:10 24:7 25:1 26:3 
-0 0 0 0.4650259293290394 0 0 0 0 0.263235230760248 3:4 4:4 5:2 6:2 7:4 8:4 9:3 10:4 11:5 12:4 17:8 18:5 19:3 20:3 21:6 22:6 23:2 26:3 
-0.8188293082350467 0.7719220047058661 0.5942445817731681 0.9687958947233133 0.8303268338299132 0.8471933198700241 0.671990478849781 0.682082038794174 0.5519918268398026 1:1 2:1 3:1 4:10 5:6 6:3 7:2 8:5 9:6 10:4 11:3 12:4 13:5 14:1 15:2 17:15 18:6 19:4 20:3 21:6 22:7 23:4 24:1 25:1 26:7 
-0.7176812688178704 0.5670228342312243 0.4365142744102224 0.7001863306182828 0.6156252718859978 0.7363440505778093 0.5259764841478852 0.8105294533878886 0.5566100000981645 3:4 4:10 5:3 6:1 7:4 8:4 9:4 10:4 11:5 12:4 17:8 18:5 19:4 20:4 21:6 22:6 23:3 24:1 25:1 26:5 
-0 0 0.01693766662560832 0 0 0 0 0 0 6:4 7:4 8:2 9:1 10:4 11:4 12:3 13:3 14:4 15:5 17:9 18:5 19:3 20:3 21:6 22:6 23:2 
-0.5378377438482106 0.540931771426251 0.404909682790087 0.7635879778674702 0.6326142518238665 0.5777587091458495 0.5585010038549065 0.8155923440595836 0.5753950787193337 1:4 2:2 3:1 4:4 5:5 6:4 7:3 8:4 9:5 10:2 11:7 12:3 13:2 17:10 18:6 19:4 20:4 21:6 22:7 23:3 24:1 25:2 26:3 
-0 0.3570700676628363 0.2760323956100899 0.408440665400525 0.3692674758340954 0.2665923172363854 0.6969122913743941 0.9089903087889958 0.570473263340062 1:4 2:2 3:1 4:4 5:4 6:3 7:3 8:5 9:4 17:8 18:4 19:2 20:2 21:5 22:6 23:3 
-0.4043693919674178 0.2426930640872181 0.1658218231105169 0.8976812798011911 0.4820099011996509 0.3793133864098175 0.1958144315389034 0.2378819390996953 0.6574351114878876 2:4 3:4 4:2 5:1 6:4 7:4 8:4 9:4 10:4 11:4 12:1 13:1 16:2 17:8 18:5 19:4 20:4 21:6 22:6 23:2 26:4 
-0 0.3033046941551672 0 0.1821366277070846 0.536817855479102 0 0.4866143545484833 1 0.3255692331580624 1:4 2:4 3:2 4:2 5:4 6:4 7:3 8:3 9:4 10:4 17:8 18:5 19:3 20:3 21:6 22:7 23:2 
-0.744945226144283 0.7029429427908682 0.5393765233927241 0.9439268229570464 0.7940064888140412 0.7819452767358892 0.866059480159296 0.6568362331916866 0.5196326088332676 2:10 4:4 5:5 6:3 7:2 8:4 9:4 10:3 11:3 12:4 13:4 17:9 18:6 19:5 20:4 21:7 22:7 23:3 24:1 25:1 26:3 
-0.3729229195888484 0.04253398222447316 0.07325259162606157 1 0.1779348981705259 0.5348675482377947 0.2577759127177086 0.125002396969974 0.7177415098346084 1:5 2:2 3:1 4:4 5:4 6:3 7:3 8:4 9:4 10:1 17:8 18:4 19:3 20:2 21:5 22:6 23:3 
-0 0.07085121333274881 0.02518727909808595 0 0 0 0 0.04768469992799985 0 6:4 7:5 8:3 9:2 10:5 11:5 12:3 13:3 14:5 15:4 17:8 18:5 19:3 20:3 21:6 22:6 23:2 26:6 
-0 0.03769631411545449 0.01883910358287614 0 0.01792024004782122 0 0 0 0 2:4 3:4 4:2 5:1 6:4 7:5 8:4 9:3 10:4 11:4 17:8 18:5 19:3 20:3 21:6 22:6 23:2 26:2 
-0.3784056464044357 0.125774681964218 0.09710135220681333 0.6377506683029573 0.1528175477580475 0.2594697797096346 0.137262571938176 0.3190809769507434 0.06902665321745155 5:4 6:4 7:2 8:1 9:4 10:4 11:3 12:3 13:4 14:4 17:8 18:5 19:3 20:3 21:6 22:6 23:2 
-0.8261875105194693 0.7588607922767965 0.57727492272263 1 0.8883243983614576 0.8593579127202418 0.6902504289983153 0.7288723682562278 0.5417711614114078 1:10 2:1 4:4 5:4 6:2 7:2 8:4 9:4 10:4 11:4 12:4 13:4 17:9 18:6 19:5 20:4 21:7 22:7 23:3 24:1 25:1 26:4 
-0.9017199278765666 0.8009692402372394 0.6154655381377191 1 0.888810966822052 0.8870085120337711 0.6922393463497182 1 0.5769165276131513 1:10 6:4 7:4 8:2 9:1 10:4 11:4 12:3 13:3 14:4 15:4 17:9 18:6 19:4 20:4 21:7 22:7 23:3 24:1 25:1 26:1 
-0.3209167621891063 0.355182680330514 0.2814159180895204 0.4726021826105187 0.3457345776020334 0.3645106679909885 0.3538755062807595 0.7152177065085259 0.1859041314220905 2:1 3:4 4:4 5:2 6:1 7:4 8:5 9:4 10:4 11:5 12:5 13:1 14:1 15:2 16:2 17:10 18:7 19:3 20:4 21:7 22:6 23:2 26:6 
-0.3643438684790189 0.1958682045539049 0.1131812445254047 0.7574392758077642 0.2676607140301273 0.3005659189741481 0 0.5881565824201382 0.1790857483858315 6:4 7:4 8:2 9:1 10:4 11:4 12:3 13:3 14:4 15:4 17:8 18:5 19:3 20:3 21:6 22:6 23:2 
-0.4483702633203502 0.04676482003591539 0 0.7340246145265644 0.3806346228378293 0.2605379757408344 0.2514788744279062 1 0.4424379994877485 2:4 3:4 4:3 5:2 6:4 7:4 8:3 9:3 10:4 11:4 17:8 18:5 19:3 20:3 21:6 22:6 23:2 26:2 
-0.3778491319775048 0.01885855163854814 0.01968249646191545 0 0 0 0 0 0 1:4 2:2 3:1 4:4 5:4 6:3 7:3 8:4 9:4 17:8 18:4 19:2 20:2 21:5 22:6 23:2 
-0.420574224966784 0.5493313938489546 0.4388159656209934 0.4901690821816759 0.4775720027730225 0.5516803508631297 0.7834909120873603 0.6479175844723992 0.2759048763321729 2:5 3:5 4:2 5:1 6:5 7:5 8:3 9:3 10:6 11:4 17:9 18:5 19:3 20:4 21:6 22:7 23:3 26:2 
-0 0 0 0.3149895847984145 0 0 0.4422557526730139 0.3625314911640683 0.259497339302547 3:1 6:4 7:4 8:3 9:1 10:5 11:4 12:3 13:3 14:4 15:4 17:8 18:5 19:3 20:3 21:6 22:6 23:3 26:2 
-0.586168502988852 0.6002224488400273 0.4533479387596911 1 0.5986201520479312 0.6368103106871886 0.7128834876167288 1 0.4724038590162778 6:1 7:5 8:4 9:2 10:1 11:5 12:8 13:5 14:3 15:4 16:4 17:8 18:6 19:4 20:4 21:6 22:6 23:3 24:1 25:1 26:3 
-0.869449349048422 0.663306058907267 0.4948885168521295 1 0.7698942967904778 0.7369486068582648 0.6056893428535379 0.7564365022283542 0.5465504173646341 1:4 2:4 3:2 4:1 5:4 6:4 7:3 8:3 9:4 10:4 12:7 17:8 18:5 19:3 20:4 21:7 22:7 23:3 24:1 25:1 26:1 
-0.8940052870684341 0.8356065603895663 0.6430340135535193 1 0.8890482816079658 0.9164878456859795 0.7167539908174687 0.7403537343640226 0.6044587476246168 1:4 2:5 3:4 4:4 5:4 6:6 7:5 8:4 9:8 10:6 11:2 12:1 13:1 14:1 15:1 16:1 17:8 18:7 19:6 20:14 21:7 22:6 23:3 24:1 25:2 26:3 
-0.7904708687010908 0.5253337027582418 0.3978545277470821 1 0.7145246811791484 0.5562619184264678 0.6185491047810652 0.6764269810707071 0.2962319899203098 6:4 7:4 8:2 9:1 10:4 11:4 12:3 13:3 14:4 15:9 16:1 17:8 18:5 19:3 20:3 21:6 22:7 23:3 24:1 25:1 26:2 
-0.01483175782632373 0 0 0 0 0 0 0 0 1:4 2:4 3:2 4:1 5:4 6:4 7:3 8:3 9:4 10:4 17:8 18:5 19:3 20:3 21:6 22:6 23:2 
-0.4424823508908524 0 0 0.3372441601068195 0.3292497875386617 0.01034295655357439 0 0 0 4:4 5:4 6:2 7:1 8:4 9:4 10:3 11:3 12:4 13:4 17:8 18:5 19:3 20:3 21:6 22:6 23:2 
-0.7034323812526454 0.6932024350372813 0.5144816086794022 1 0.6793247703992877 0.7500481363690165 0.5695501489115222 0.7178996398647177 0.5133633239994346 1:4 2:4 3:2 4:1 5:4 6:5 7:9 8:3 9:5 10:4 16:1 17:8 18:6 19:4 20:4 21:7 22:6 23:2 24:1 25:1 26:3 
-0 0 0 0.269023204019767 0.1031847559660231 0 0 0 0 5:4 6:4 7:2 8:1 9:4 10:4 11:3 12:4 13:5 14:4 17:8 18:5 19:3 20:3 21:6 22:6 23:2 26:2 
-0.7332971680950244 0.6780395605378324 0.5246472452350524 0.9943457078192011 0.7685618643232247 0.7849098263644807 0.6106198391738811 0.536635819168959 0.499616288243689 1:1 2:1 3:1 5:10 6:4 7:2 8:1 9:4 10:4 11:3 12:3 13:4 14:4 17:9 18:5 19:3 20:3 21:6 22:7 23:3 24:1 25:1 26:4 
-0.125829661381838 0.1894792359999866 0.1216540569766933 0.5998080047850429 0.2322997047697332 0.1721454429388691 0.2973012504229026 0.1137641256641297 0.205965744193069 5:4 6:4 7:2 8:1 9:4 10:6 11:3 12:3 13:4 14:4 15:1 16:1 17:8 18:5 19:3 20:3 21:6 22:6 23:2 24:1 25:1 26:2 
-0.3318501611076132 0.3507865649072411 0.2771221165510014 0.3862292247740243 0.4470867115351745 0.4156635424665062 0.5644611092467393 0.2582703042837822 0.4020341235784909 4:1 5:1 6:5 7:5 8:3 9:1 10:4 11:6 12:3 13:3 14:5 15:4 17:8 18:5 19:3 20:3 21:6 22:6 23:4 26:6 
-0.7725147523136312 0.02561275469228631 0.1579819100519808 0.3399498486011636 0 0.2991550325365169 0.07153683148956831 1 0 3:4 4:4 5:2 6:2 7:4 8:4 9:3 10:3 11:4 12:4 17:8 18:6 19:3 20:3 21:6 22:6 23:2 
-0.1880504004571104 0 0 0.02110804731624717 0.009779651106178696 0 0.04436402189665632 0.2235253513265923 0.06325860931044051 1:1 2:1 3:1 4:1 5:5 6:4 7:2 8:1 9:4 10:4 11:3 12:4 13:4 14:4 17:8 18:7 19:5 20:3 21:6 22:6 23:2 26:2 
-0.703284752354687 0.5078940597263482 0.3707151935191916 0.9448964055910137 0.6475013124667158 0.5477818433251459 0.564395831409282 0.600894042834861 0.4621984707159665 3:4 4:4 5:2 6:1 7:5 8:5 9:4 10:4 11:5 12:6 14:1 17:8 18:5 19:3 20:3 21:6 22:7 23:2 26:7 
-0.8872672370924081 0.8323312647531329 0.6414410439938614 1 0.8875295335173284 0.9149534170188146 0.7153048529674864 0.7296598111315097 0.6007410263837222 1:1 2:2 3:5 4:6 5:3 6:3 7:4 8:5 9:5 10:4 11:5 12:4 13:1 14:3 15:8 16:1 17:9 18:6 19:15 20:4 21:7 22:7 23:3 24:1 25:1 26:7 
-0.9079209411143151 0.8374073483141105 0.6436486210711885 1 0.9025353251229004 0.9209530803791887 0.736741791684513 0.8245298857558319 0.6160671870719912 1:5 2:5 3:3 4:2 5:5 6:5 7:4 8:4 9:5 10:5 12:1 13:1 14:1 15:1 16:1 17:8 18:5 19:3 20:3 21:6 22:6 23:2 25:1 26:14 
-0 0.06152542310599467 0 0 0 0 0 0.2199875378755607 0 1:4 2:2 3:1 4:4 5:5 6:4 7:3 8:4 9:4 12:1 17:8 18:4 19:2 20:2 21:6 22:6 23:2 26:2 
-0.277015754202438 0.3373135745988769 0.2499540809993747 0.265534728639256 0.4220766545800107 0.3153518348262948 0.5274622494550674 0.7467339329531489 0.3246219736265527 1:2 5:4 6:5 7:2 8:1 9:4 10:4 11:3 12:4 13:4 14:4 17:8 18:6 19:3 20:4 21:7 22:6 23:3 
-0.6110540351616695 0.5478212819893263 0.4209615100133911 0.6426459355294073 0.7647475872768477 0.5847185438627972 0.5201316042801207 0.7966738418093642 0.4910384734584336 4:4 5:4 6:2 7:1 8:4 9:4 10:4 11:4 12:5 13:4 14:1 15:1 16:2 17:8 18:8 19:7 20:3 21:6 22:6 23:2 
-0.864800793814363 0.7809483216926248 0.5745127610314029 1 0.8318403272291611 0.8265804093803668 0.7975970642629083 1 0.6356814046771785 6:4 7:5 8:3 9:10 10:4 11:4 12:3 13:3 14:4 15:4 17:8 18:6 19:4 20:4 21:7 22:7 23:3 24:1 25:1 26:3 
-0.07275964116077087 0.1176810787288014 0.04203711038629598 0.2943983871699638 0.1454116534871944 0.07715699753957149 0.3329373971947848 0.509001238557989 0.6135009844130914 1:4 2:4 3:2 4:1 5:4 6:5 7:4 8:4 9:5 10:4 17:8 18:5 19:3 20:3 21:6 22:6 23:2 26:4 
-0.8759023492632636 0.8212442623817184 0.6348123446056397 1 0.881046532845028 0.9034181813514323 0.7343844599590618 0.7735367277950471 0.824597945090912 1:1 2:1 3:2 4:4 5:5 6:3 7:2 8:5 9:6 10:4 11:4 12:5 13:4 14:1 15:1 16:1 17:8 18:5 19:16 20:4 21:6 22:6 23:2 26:2 
-0.0582583542519658 0.4678451115687215 0.1858825891950168 0.646379671545405 0.6480104446327039 0.3052143764909322 0.7075657435450678 0.7263787832445262 0.5932961357719636 3:4 4:4 5:2 6:2 7:4 8:4 9:3 10:3 11:4 12:4 17:8 18:5 19:3 20:3 21:6 22:7 23:2 
-0.8424693760644896 0.8185600228518115 0.6111067438184098 1 0.8457823164782983 0.8712663696796161 0.6841849232646653 0.7673001512065759 0.5688315742888758 1:2 2:4 3:5 4:10 5:4 6:5 7:4 8:3 9:3 10:4 11:5 12:1 13:1 14:2 15:2 16:1 17:14 18:8 19:4 20:5 21:7 22:6 23:3 24:2 25:2 26:5 
-0.2577698239681721 0 0.05053071678420196 0 0.02305252307513907 0.2815512529991325 0 0.09039203147170753 0 1:4 2:5 3:2 4:1 5:4 6:4 7:3 8:3 9:5 10:4 17:8 18:5 19:3 20:3 21:6 22:6 23:2 26:2 
-0.4616516320005452 0.3258949675716409 0.2447772307281448 0.6989286279610516 0.4712165338779722 0.3518392667661185 0.305132916532142 0.5839935029083088 0.364675907107484 4:2 5:5 6:5 7:3 8:2 9:4 10:4 11:4 12:3 13:4 14:4 15:1 16:1 17:9 18:6 19:3 20:3 21:7 22:6 23:2 26:6 
-0.9261083272112333 0.7964209367654989 0.618156099020803 1 0.8819061082434468 0.8723091201450706 0.6833852784160168 0.7710355971529534 0.6529984084292146 1:1 2:1 3:1 4:1 5:4 6:5 7:3 8:2 9:4 10:5 11:5 12:4 13:5 14:4 15:1 16:1 17:8 18:6 19:8 20:11 21:6 22:6 23:2 
-0.5710026038274092 0.2538798430376045 0.162700006927211 0.9156132304200716 0.4421102212439059 0.2837474702115362 0.4455376207769763 0.5285075369069701 0.3959666492204755 7:4 8:4 9:3 10:1 11:4 12:4 13:3 14:3 15:4 16:5 17:8 18:5 19:3 20:3 21:6 22:6 23:2 26:2 
-0 0 0 0 0 0 0 0 0.4597091068915067 5:4 6:4 7:2 8:1 9:4 10:4 11:4 12:4 13:5 14:4 17:8 18:5 19:4 20:3 21:6 22:6 23:2 26:2 
-0.7415967504236968 0.7108891011607963 0.5376960655946699 0.9112092992505061 0.9048749362489621 0.8058993648036114 0.5952489728425031 0.7409332622002743 0.5671553657437686 1:4 2:4 3:2 4:1 5:4 6:4 7:3 8:10 9:4 10:4 13:1 14:1 17:8 18:6 19:4 20:4 21:7 22:6 23:2 24:1 25:1 26:3 
-0.4964825421550283 0.4559288686759552 0.3565420672509189 0.6442678836089631 0.5445515177399609 0.515337713391364 0.4565116876922472 0.4648894392057847 0.294631641088276 3:1 4:10 5:4 6:2 7:1 8:4 9:4 10:3 11:4 12:5 13:4 17:9 18:5 19:3 20:3 21:6 22:7 23:3 24:1 25:1 26:4 
-0.8890808805683366 0.8267633463789242 0.6359564581214592 1 0.8911455118247095 0.9142729928766841 0.9239198907791446 0.9033234698594713 0.6336757062518547 1:5 2:6 3:3 4:2 5:5 6:5 7:3 8:3 9:6 10:5 11:1 12:1 13:1 14:1 17:8 18:5 19:3 20:3 21:6 22:7 23:13 26:2 
-0.7268473593781117 0.6721368332198028 0.5158125891076525 0.8320685094069132 0.8373656488433391 0.7703416111288161 0.6117866330568017 0.7483095771455371 0.4904240400794919 2:10 3:4 4:4 5:2 6:1 7:4 8:5 9:4 10:3 11:4 12:4 17:9 18:6 19:4 20:4 21:7 22:7 23:3 24:1 25:1 26:3 
-0.2899023387188883 0.2473844738612371 0.1962102762305841 0.5433054377213941 0.2482449353609313 0.2539852759468775 0.4050785634795238 0.7397218649101477 0.356786789394998 5:1 6:4 7:5 8:2 9:2 10:4 11:5 12:3 13:3 14:4 15:5 17:9 18:5 19:4 20:5 21:6 22:6 23:3 
-0.6856530560766975 0.6024662789968163 0.4607948759886671 0.9708719775194977 0.6673935385274499 0.6713454278245968 0.6338206164790451 0.554585650051291 0.4283766168917746 2:1 3:1 4:1 5:1 6:5 7:4 8:2 9:2 10:4 11:4 12:3 13:3 14:4 15:6 16:5 17:9 18:5 19:3 20:3 21:6 22:7 23:3 24:2 25:1 26:7 
-0.4749607000289914 0.4014845946334935 0.3100281492740299 0.55074024403045 0.450527498441965 0.4841859681326299 0.4361422337938813 0.7364525373691226 0.6521670265282503 7:4 8:5 9:2 10:1 11:4 12:4 13:3 14:3 15:4 16:4 17:8 18:5 19:4 20:3 21:6 22:6 23:2 
-0 0.2210279825149888 0.1690322512475697 0.6168610846177549 0.2299955752156401 0.2910724662050852 0.4040913838498808 0.5324255086526717 0.4379218718008199 4:4 5:4 6:2 7:1 8:4 9:5 10:3 11:3 12:4 13:4 17:8 18:5 19:3 20:3 21:6 22:6 23:3 
-0.8704264434694137 0.8171663099929714 0.6273709427083984 1 0.8813981741715972 0.8941468265093028 0.7106682982557559 0.7936798543021539 0.5972998336679483 2:4 3:5 4:2 5:1 6:4 7:5 8:4 9:3 10:4 11:4 13:10 15:1 16:1 17:9 18:6 19:4 20:4 21:7 22:7 23:3 24:1 25:1 26:6 
-0.3215310111538849 0.1764538225494051 0.1400734842047548 0.7927686831718624 0.2351764836219881 0.2914101151788391 0.04588515714742249 0.3165277732905552 0.218794705621097 6:5 7:5 8:3 9:2 10:5 11:4 12:3 13:4 14:4 15:4 17:8 18:5 19:3 20:3 21:6 22:6 23:2 26:6 
-0.7200516927509757 0.6415193140101754 0.4890066607519166 0.8220373774238272 0.8333038339547152 0.7230706196559151 0.6297151195677111 0.7812365426128742 0.5270177501879095 4:9 5:4 6:4 7:2 8:1 9:4 10:4 11:3 12:3 13:4 14:4 17:8 18:6 19:4 20:4 21:7 22:7 23:3 24:1 25:1 26:1 
-0.4189902212763996 0.04574352904441252 0.1880300881568974 0.5783549011702449 0.1985630978149814 0.1799773645205846 0 0 0.02768610257177619 1:4 2:4 3:2 4:1 5:4 6:4 7:3 8:3 9:4 10:4 17:8 18:5 19:3 20:3 21:6 22:6 23:2 
-0.3180332258944645 0.2261844994884092 0.1329368928622499 1 0.4175824464529309 0.2501043297190247 0.424125654603842 0.5621047188323144 0.6003895863633705 4:4 5:4 6:2 7:2 8:5 9:5 10:4 11:3 12:4 13:4 17:8 18:5 19:3 20:3 21:6 22:6 23:2 26:4 
-0 0 0 0.04483969123786398 0.1358451337439386 0 0 0.1717555418760714 0 6:1 7:5 8:4 9:2 10:1 11:4 12:4 13:3 14:4 15:4 16:4 17:8 18:5 19:3 20:3 21:7 22:6 23:2 26:2 
-0.5753660409334574 0.3965690165993111 0.2688128722895599 0.905434237046431 0.6517724253802291 0.4700852377082059 0.1950912636312895 0.5950294220141901 0.2332276007759003 1:4 2:2 3:1 4:4 5:4 6:4 7:3 8:4 9:5 13:1 14:1 17:8 18:4 19:2 20:2 21:6 22:6 23:2 26:3 
-0.4532038593538351 -0.4881456107635568 0.3399412934038184 0.5004634453623584 0.4177571196765111 0.4591101538487182 0.38636299033378 0.4130027642121668 0.3388566254473507 1:3 6:1 7:2 8:3 9:4 10:4 11:4 12:3 13:7 14:2 15:2 16:2 17:3 18:3 19:3 20:4 21:11 22:11 23:1 25:1 
-0 -0 0 0 0 0 0 0 0.02047947787305389 1:3 2:4 3:4 4:4 5:3 6:7 7:3 8:3 9:3 17:3 18:3 19:3 20:3 21:9 22:9 23:1 26:3 
-0.3568193379147116 -0.3136081719902514 0.2063521930359907 0.328204202075156 0.3264508049730671 0.2790823041054858 0.2607533140842542 0.3017544171916441 0.2224652862352691 2:2 3:3 4:4 5:4 6:4 7:3 8:7 9:2 10:2 11:2 17:3 18:3 19:3 20:3 21:10 22:10 23:1 
-0.05836103874438932 -0.05818106697761622 0.05132014162043607 0.06906248807611257 0.07664220442135028 0.06973045270452388 0.06169043584345223 0.05784975742431106 0.04412741419289162 6:1 7:2 8:3 9:4 10:4 11:4 12:3 13:7 14:2 15:2 16:2 17:3 18:3 19:3 20:3 21:10 22:11 23:1 
-1 -1 0.7805419164404418 1 1 1 0.9325111578312525 0.9884024158259158 0.8039677103401661 1:10 3:1 4:4 5:4 6:6 7:5 8:5 9:3 10:7 11:2 12:2 13:2 17:4 18:4 19:4 20:5 21:11 22:11 23:4 24:2 25:3 26:3 
-0.8632310895384221 -0.9341069161141075 0.635083040396173 0.9530935101315955 0.8793509570965868 0.8621300315788492 0.7453282017947994 0.7978073546935734 0.6713480891665342 5:2 6:3 7:5 8:5 9:6 10:4 11:8 12:2 13:3 14:9 17:4 18:4 19:4 20:5 21:10 22:10 23:2 24:1 25:1 26:6 
-0.4889061793200877 -0.53277679995967 0.3489241108950923 0.5514580898556984 0.5947560052140241 0.4844793763856162 0.4541750730548857 0.4830698613904821 0.4250478058847147 1:1 2:1 3:2 4:3 5:5 6:5 7:4 8:4 9:3 10:7 11:2 12:2 13:2 17:3 18:3 19:3 20:3 21:10 22:10 23:2 24:2 25:3 26:2 
-0.4190299063639205 -0.4529688469097879 0.3121720010525617 0.4707089817053769 0.4141452522878128 0.425124927290405 0.3606491859541053 0.3821985375801261 0.3161721543638008 1:2 4:1 5:1 6:1 7:2 8:3 9:4 10:5 11:5 12:3 13:7 14:2 15:2 16:2 17:3 18:3 19:3 20:3 21:10 22:10 23:1 24:1 25:1 26:5 
-0 -0 0 0 0.1032014880151893 0 0 0 0 5:2 6:3 7:4 8:4 9:4 10:3 11:7 12:2 13:2 14:3 15:1 17:3 18:3 19:3 20:3 21:10 22:10 23:1 26:2 
-0.6192062738345815 -0.6719644920627397 0.4467237806929638 0.6851526398867743 0.6184557790179666 0.6148744172097577 0.5494231103250372 0.5980698655792791 0.4778705637347883 6:2 7:3 8:4 9:4 10:4 11:3 12:7 13:2 14:2 15:3 17:3 18:3 19:3 20:4 21:10 22:10 23:1 
-1 -1 0.7962321283812592 1 1 1 0.9328654256463473 1 0.8272327670042083 1:1 2:2 3:3 4:6 5:6 6:8 7:6 8:4 9:7 10:3 11:3 12:3 13:1 14:1 15:1 16:1 17:3 18:3 19:3 20:3 21:11 22:11 23:15 24:2 25:1 26:4 
-0.1843315820343799 -0.2170594479345707 0.1542404281483283 0.254942069931409 0.2547935931745985 0.2359952857743235 0.1939550921306973 0.221988235799438 0.2000613660193043 1:3 2:3 3:5 4:4 5:4 6:3 7:7 8:3 9:2 10:2 17:3 18:3 19:3 20:3 21:10 22:10 23:2 26:2 
-0.2855776999067289 -0.3479954216015063 0.2296622878230525 0.3526816727699837 0.378830775316711 0.3232812963406315 0.2652254200912031 0.2832190088623109 0.2436817882090762 2:2 3:3 4:4 5:4 6:4 7:3 8:8 9:2 10:2 11:2 15:1 17:3 18:3 19:3 20:3 21:10 22:10 23:1 26:2 
-0.1295166314172069 -0.1404694672630932 0.08114175123645977 0.1374941034044776 0.2605109032150054 0.1110385325193071 0.1016328749604926 0.1368665058946686 0.1079067392725069 6:2 7:3 8:4 9:5 10:4 11:3 12:7 13:3 14:3 15:3 17:3 18:3 19:3 20:4 21:10 22:10 23:1 26:3 
-0.2816033401045688 -0.316918953882704 0.215613051359421 0.3289330525433978 0.3906490320808508 0.2974140495179163 0.2324821474686125 0.24085914081813 0.2230430616693788 4:2 5:3 6:4 7:4 8:4 9:4 10:8 11:3 12:3 13:2 17:3 18:3 19:3 20:3 21:10 22:10 23:1 26:4 
-0.7253864710417689 -0.7927460937645869 0.5359850994222037 0.8104529074985468 0.7614621334417804 0.7286768391525559 0.6561680932081936 0.7180879069477245 0.5783782497552276 3:2 4:3 5:4 6:5 7:5 8:5 9:9 10:3 11:2 12:4 13:3 17:3 18:3 19:3 20:5 21:10 22:10 23:2 24:2 25:2 26:5 
-0.5421739075596456 -0.5219998897270595 0.3720948953148785 0.5308918543603012 0.4200999566098519 0.492262236074883 0.3041127126955571 0.4110106671150212 0.3248887353660536 1:2 2:3 3:4 4:4 5:4 6:3 7:7 8:2 9:2 10:2 17:3 18:3 19:3 20:3 21:10 22:10 23:1 
-0.5412090680716221 -0.5907049134928967 0.4018636283204175 0.6101203807876021 0.6020599588065298 0.5472755790452528 0.4768188216768335 0.518123182625244 0.4174079709630027 3:2 4:4 5:5 6:5 7:5 8:4 9:8 10:2 11:2 12:2 17:3 18:3 19:3 20:3 21:10 22:10 23:1 26:6 
-0.8340386094552591 -0.9080770621707753 0.6225539702793834 0.9318864200885378 0.8656236569381835 0.845017689949694 0.7360407197809037 0.7848265309328909 0.6447326570501068 5:2 6:3 7:4 8:4 9:4 10:3 11:7 12:3 13:3 14:10 15:2 16:2 17:4 18:4 19:4 20:4 21:11 22:12 23:3 24:1 25:2 26:2 
-1 -1 0.7887150364229552 1 1 1 0.9238585049344717 1 0.8112204979041742 1:3 2:4 3:5 4:4 5:4 6:5 7:7 8:3 9:3 10:3 11:1 12:1 13:1 14:1 15:1 16:1 17:3 18:16 19:3 20:3 21:10 22:10 23:2 
-0.263718888398062 -0.2184969048378797 0.2044501253800989 0.2467721376767079 0 0.2315031534337194 0.06543745817971354 0.09117193853510321 0.06189324518090144 1:3 2:4 3:4 4:5 5:3 6:7 7:2 8:2 9:2 11:1 17:3 18:3 19:3 20:3 21:9 22:9 23:1 26:2 
-0.2778474317321996 -0.2981211098109694 0.1946219470660576 0.3066869848917627 0.3619322055158259 0.2714598044202124 0.2300007520050685 0.2661205696400807 0.1989995601789144 4:2 5:3 6:4 7:4 8:4 9:3 10:7 11:2 12:2 13:2 17:3 18:3 19:3 20:3 21:10 22:10 23:1 
-0.9040386945186369 -0.9756776061182868 0.6645188255471589 0.99990870774067 0.9343992756190586 0.9045234082376956 0.7895517728195955 0.8596878411237239 0.6855462678705367 6:2 7:3 8:4 9:4 10:4 11:3 12:7 13:2 14:2 15:3 16:10 17:5 18:4 19:4 20:4 21:11 22:11 23:2 24:1 25:1 26:1 
-0.8938291452350321 -0.9680565781020198 0.6626297069706812 0.9986582464844537 0.9280196832700931 0.9056613067049463 0.7860112936971301 0.8522679977846025 0.6910949471166307 2:2 3:3 4:4 5:9 6:4 7:4 8:8 9:3 10:3 11:3 12:1 17:3 18:3 19:3 20:4 21:10 22:10 23:2 24:1 25:1 26:7 
-0.6725136157313634 -0.7305542119066616 0.4883791577086049 0.7420650758901786 0.7047153780803233 0.6632282078554436 0.5959975883259125 0.6347380609377108 0.5324430251840325 6:1 7:2 8:3 9:4 10:5 11:5 12:3 13:7 14:4 15:6 16:2 17:3 18:3 19:4 20:4 21:10 22:10 23:2 24:1 25:1 26:4 
-0.742678830013504 -0.80544580455198 0.5544986637739938 0.8316086203687153 0.7516731320366736 0.7522907973252602 0.6549712613759541 0.7006153103413366 0.5735120363690988 2:2 3:3 4:4 5:4 6:10 7:3 8:7 9:2 10:3 11:3 17:3 18:3 19:4 20:4 21:10 22:10 23:2 24:1 25:1 26:3 
-0.3252325782924915 -0.3405432021446308 0.2042268085195007 0.3272233713760319 0.4530137711119384 0.2855261485136263 0.2871672348963957 0.3045182041419301 0.240903413885301 1:2 2:3 3:4 4:4 5:4 6:3 7:7 8:3 9:3 10:3 11:1 17:3 18:3 19:3 20:3 21:10 22:10 23:1 26:4 
-0 -0 0 0 0.09800989119432732 0 0 0 0.008642928966474955 1:3 2:1 5:1 6:1 7:2 8:3 9:4 10:4 11:4 12:3 13:7 14:2 15:2 16:2 17:3 18:3 19:3 20:3 21:10 22:10 23:2 24:1 25:1 26:3 
-0.9065753375458634 -0.9819764660573419 0.674828388646843 1 0.9277749166714386 0.9130077240984575 0.8204408355627029 0.8455782103765535 0.6869999611224128 1:3 2:6 3:5 4:4 5:4 6:9 7:4 8:3 9:3 10:2 11:2 12:1 13:1 14:1 15:1 16:1 17:4 18:4 19:3 20:4 21:13 22:12 23:2 24:1 25:1 26:6 
-0.2243160681887121 -0.2627057131955211 0.18219660121576 0.2669088793936276 0.239819741795493 0.258205137382532 0.2057007522289342 0.2170365790276862 0.2057402563673607 5:2 6:3 7:4 8:5 9:5 10:3 11:7 12:2 13:2 14:2 17:3 18:3 19:3 20:3 21:10 22:10 23:1 26:2 
-0.9938616318010354 -1 0.7012261128166156 1 0.9726808845172952 0.9656831951236639 0.8662136650902956 1 0.7557634651602881 1:3 2:4 3:5 4:5 5:4 6:7 7:3 8:3 9:3 10:1 11:1 12:1 13:1 14:1 15:2 16:1 17:6 18:8 19:6 20:6 21:9 22:9 23:1 
-0.299363045366086 -0.2834281753113214 0.2091624603912519 0.3046173595825677 0.2329419672943524 0.2805126652874774 0.2381105477335609 0.2429455619278935 0.2068525982795986 5:2 6:3 7:4 8:4 9:4 10:4 11:7 12:2 13:2 14:2 15:1 17:3 18:3 19:3 20:4 21:10 22:11 23:1 
-0.2169643924344294 -0.2316380468350484 0.1469561406595934 0.2250260933224349 0.1587259702310385 0.196396896504704 0.2271361911122664 0.2419266849338104 0.1771748143403501 4:2 5:4 6:4 7:4 8:4 9:4 10:8 11:4 12:2 13:2 17:3 18:4 19:3 20:4 21:10 22:10 23:1 26:3 
-0.7982501170016787 -0.8319509012590637 0.5721753846775071 0.8641590629804854 0.7850633998756853 0.7807232739952962 0.6677947113281277 0.7114991446686112 0.5877204872974489 2:2 3:5 6:1 7:2 8:3 9:4 10:4 11:4 12:3 13:7 14:2 15:2 16:2 17:3 18:3 19:3 20:4 21:11 22:12 23:2 24:1 25:1 26:1 
-0.9112002162197337 -0.9722556216554153 0.6662316685980157 0.9993496921354925 0.9436799422563897 0.9056626577737094 0.780003226394868 0.8422973873390078 0.6902122489853919 7:2 8:3 9:5 10:5 11:4 12:3 13:7 14:3 15:2 16:10 17:4 18:4 19:5 20:4 21:10 22:10 23:2 24:1 25:1 26:3 
-0.9161865333846639 -0.9700620507965544 0.6639628123150758 1 0.9678176220777615 0.902337489502124 0.7792215534142992 0.8407200053519118 0.6864941462448582 4:2 5:3 6:4 7:4 8:4 9:3 10:7 11:2 12:2 13:2 15:4 16:7 17:4 18:4 19:4 20:4 21:11 22:11 23:2 24:1 25:2 26:1 
-1 -1 0.7919137677997922 1 1 1 0.9243472133946687 0.9897095002630452 0.8190020467646609 1:1 2:1 3:1 4:1 6:2 7:3 8:5 9:5 10:5 11:4 12:8 13:3 14:3 15:4 16:1 17:3 18:3 19:3 20:4 21:10 22:10 23:1 25:12 26:1 
-0.2832163236036351 -0.3246615572124579 0.1618866010512435 0.2886514368394065 0.6214732302600161 0.2478589338695966 0.2210436341134987 0.2984107434133081 0.2529771667097037 1:3 2:4 3:4 4:4 5:3 6:7 7:2 8:3 9:3 17:3 18:3 19:3 20:3 21:9 22:9 23:1 26:2 
-0.04575765800024176 -0.07180026484267453 0.01791310117172076 0.05581534085767428 0.07243026486400096 0.02815932197672159 0.03948225654533727 0.08048885417585007 0.05768218444089689 4:1 7:2 8:3 9:4 10:4 11:5 12:3 13:7 14:3 15:2 16:2 17:4 18:3 19:3 20:3 21:10 22:10 23:1 26:2 
-1 -1 0.7538521965250186 1 1 1 0.9229951517341283 1 0.825978679302832 1:4 2:5 3:5 4:7 5:5 6:7 7:4 8:4 9:4 10:2 11:2 12:1 17:11 18:3 19:4 20:4 21:9 22:9 23:2 24:1 25:1 26:6 
-0 -0.04226210822915083 0.004074479674476779 0.04492494315978007 0.07505877294129409 0.01624172555498481 0.1405635267095506 0.06389847142867269 0.04430839510082435 1:2 2:3 3:4 4:4 5:4 6:4 7:7 8:2 9:2 10:2 17:3 18:3 19:3 20:3 21:10 22:10 23:2 
-0.3757435928043283 -0.3670010039653439 0.2044466230897824 0.3552225365350345 0.366180586166243 0.2777670801559539 0.2910625354834616 0.341952890149961 0.2376250900906358 1:2 4:1 5:2 6:3 7:4 8:4 9:4 10:3 11:7 12:2 13:2 14:2 15:1 16:1 17:4 18:4 19:3 20:3 21:10 22:11 23:1 26:2 
-0.8724015385049179 -0.9619152496104233 0.6482887398568224 0.9833607988912741 0.9028767092715468 0.8806519344760224 0.781099343044827 0.8722809141593625 0.6927374517966227 6:2 7:5 8:8 9:5 10:5 11:4 12:8 13:2 14:2 15:2 17:4 18:4 19:3 20:3 21:10 22:10 23:2 24:1 25:1 26:5 
-0.2774175810309265 -0.3221532530087408 0.1893939458725926 0.3484514303516462 0.4675291300577828 0.3222051416484382 0.4040827969768738 0.3923980069371246 0.3148259331085058 1:3 2:4 3:4 4:5 5:4 6:7 7:2 8:2 9:2 11:1 17:3 18:3 19:3 20:3 21:9 22:9 23:2 26:2 
-1 -1 0.7903099953691014 1 1 1 0.9213388729760158 0.9886946500820185 0.8548996903179404 1:1 2:1 3:2 4:1 5:1 6:1 7:4 8:4 9:4 10:10 11:6 12:5 13:7 14:3 15:3 16:3 17:4 18:3 19:8 20:12 21:10 22:10 23:2 24:1 25:1 26:5 
-0.5402590713603778 -0.5737839077091091 0.3716181211908809 0.5880343736058971 0.6145313107435655 0.5131434276102457 0.4500030711019709 0.5091831462646721 0.3978611409201875 3:2 4:3 5:4 6:4 7:4 8:3 9:7 10:2 11:2 12:2 17:3 18:3 19:3 20:3 21:10 22:10 23:1 
-0.2194637475526585 -0.2426767252256572 -0.191853073259819 0.2533299920630243 0.221282843528778 0.2199713921058816 0.1737788611226616 0.1887746357672795 0.156971186787716 4:1 5:3 6:4 7:5 8:3 9:2 10:2 11:3 12:2 13:2 14:4 17:1 18:3 19:10 20:10 21:1 26:6 
-0.3431013036398474 -0.3739989278107562 -0.3162043466983832 0.3860716857081533 0.3468914122093982 0.3507237159064757 0.2917023258122584 0.312366630457531 0.2637379045160095 1:2 2:3 3:4 4:3 5:3 6:3 7:3 8:3 9:2 10:4 11:1 17:1 18:3 19:10 20:10 21:1 26:6 
-0.9749084733872696 -1 -0.9115039301949522 1 0.9788716441162836 0.9806982513594251 0.8552447703478256 0.9039437825581995 0.7813299831748417 3:3 4:4 5:5 6:3 7:3 8:8 9:2 10:2 11:2 12:5 13:1 17:4 18:4 19:10 20:10 21:2 22:1 25:1 26:6 
-0.2676217326691429 -0.283517796059148 -0.2471625006022185 0.2908488259361672 0.2672755631921626 0.273110068221444 0.2323492458654013 0.2452012282584795 0.2132552455428671 1:3 2:4 3:2 4:2 5:2 6:2 7:3 8:3 9:5 10:1 17:1 18:3 19:9 20:9 21:1 26:4 
-0.02184897968218917 -0.03022881741310679 -0.01858152799197062 0.03246002521619037 0.02398206645145022 0.01914466228810847 0.0189688979961645 0.01910821702963374 0.01594297793142921 1:2 2:3 3:4 4:2 5:2 6:2 7:2 8:2 9:3 10:5 17:1 18:3 19:10 20:10 21:1 26:2 
-0.4357920716614663 -0.4555790218685704 -0.4133502694078418 0.4645615816076288 0.4364445650757381 0.4411802967484827 0.3911563866882468 0.4104640750992191 0.359139817826345 2:1 7:2 8:3 9:5 10:2 11:2 12:2 13:2 14:2 15:2 16:4 17:1 18:3 19:10 20:10 21:1 26:2 
-0.615999612246233 -0.650163157187386 -0.5740893133378919 0.6638963984394115 0.6234008739553825 0.6189651731435668 0.5408913989492364 0.5706899815743479 0.5008684898882088 4:2 5:3 6:4 7:2 8:3 9:4 10:2 11:3 12:4 13:5 17:1 18:3 19:10 20:10 21:1 22:2 23:2 24:1 26:2 
-0.4092258551036729 -0.434500577094902 -0.3777518884629196 0.4464799153960535 0.4081628737617882 0.412720375314095 0.3523872363067528 0.3735068587172492 0.3207691621596745 1:2 2:3 3:4 4:2 5:2 6:3 7:2 8:2 9:2 10:4 17:1 18:3 19:10 20:10 21:2 
-0.3820356756689616 -0.405797813734473 -0.3608359429756234 0.4141588391694768 0.3850082248268795 0.3882337268324819 0.3401300031244764 0.3578863500420848 0.3089173984435537 4:2 5:4 6:4 7:2 8:2 9:2 10:2 11:2 12:2 13:4 17:2 18:3 19:10 20:10 21:1 
-0.1616650883706406 -0.1821344221252786 -0.1547523031016654 0.1931671253836341 0.1637273943938587 0.1649034819963585 0.145679180697852 0.1534985027089948 0.1297181650345449 3:2 4:3 5:5 6:3 7:3 8:4 9:3 10:2 11:2 12:5 17:1 18:3 19:10 20:10 21:1 25:1 26:6 
-0.1289175756532831 -0.1389470528019308 -0.1138691088227465 0.1427830970824233 0.1274426842455907 0.1292473304349275 0.1028594919104388 0.1119255904488754 0.09508420895201751 5:2 6:3 7:5 8:3 9:3 10:3 11:3 12:3 13:2 14:4 17:1 18:3 19:10 20:10 21:1 26:6 
-0 -0.000750048369330213 -0 0 0 0 0 0 0 6:2 7:3 8:4 9:2 10:2 11:2 12:2 13:2 14:2 15:4 17:1 18:3 19:10 20:10 21:1 
-0.7565414129690287 -0.7977794761009719 -0.7104815215006756 0.814063656769485 0.7586661748481915 0.7600023123935981 0.6690360071749963 0.7045344021186893 0.6098949604901571 3:2 4:3 5:4 6:2 7:2 8:2 9:3 10:2 11:2 12:8 13:1 14:1 17:2 18:3 19:10 20:10 21:1 22:1 25:1 26:4 
-0.001373462879135297 -0 -0 0 0 0 0 0 0 5:2 6:3 7:4 8:2 9:2 10:2 11:2 12:2 13:2 14:4 17:1 18:3 19:10 20:10 21:1 
-1 -1 -1 1 1 1 1 1 0.933940817318004 1:2 2:3 3:5 4:3 5:3 6:3 7:3 8:10 9:2 10:6 17:3 18:4 19:10 20:10 21:2 22:1 23:1 24:1 25:1 26:7 
-1 -1 -0.9744193958514051 1 1 1 0.9177411732835916 0.9664826186919329 0.8365458814980319 1:8 2:3 3:4 4:2 5:2 6:2 7:2 8:3 9:2 10:4 15:1 17:1 18:3 19:10 20:10 21:2 22:1 23:1 24:1 25:1 26:3 
-1 -1 -1 1 1 1 0.9852331647822125 1 0.8995936958431705 5:2 6:10 7:5 8:3 9:3 10:3 11:2 12:2 13:3 14:5 15:1 17:4 18:3 19:10 20:10 21:2 22:1 23:1 24:1 25:1 26:6 
-1 -1 -1 1 1 1 0.9771429767194263 1 0.8912846525422307 5:3 6:4 7:5 8:3 9:3 10:3 11:2 12:2 13:2 14:10 17:2 18:3 19:10 20:10 21:1 22:1 23:1 24:1 25:1 26:7 
-0.2318838106101419 -0.2676344339731175 -0.2390728633413213 0.2734423695058618 0.2485951360774453 0.2295939016467937 0.2244447100934767 0.2364273586722494 0.2043560247117419 2:1 3:2 4:3 5:4 6:2 7:2 8:2 9:2 10:2 11:2 12:5 13:1 17:1 18:3 19:11 20:10 21:1 22:2 
-0.8315009851650681 -0.8701358690268791 -0.774297124609624 0.8890423072272233 0.8268369096702552 0.8268316178890898 0.7288712972805412 0.7668592384186654 0.6664016674115655 1:3 2:4 3:2 4:2 5:2 6:2 7:2 8:2 9:7 17:2 18:3 19:9 20:9 21:1 22:1 23:1 
-0.1377210107483427 -0.122580319958939 -0.1096949522752037 0.1249611718629826 0.1235836127559005 0.146150374200905 0.1039542945718577 0.1087379081036764 0.09695869882399522 3:2 4:3 5:4 6:2 7:2 8:2 9:2 10:2 11:2 12:5 13:1 17:1 18:3 19:10 20:10 21:1 22:2 
-0.0512671717555479 -0.05280470744896898 -0.05028886704673361 0.05330859051407783 0.04907329202248187 0.04931059553846986 0.04764384746465981 0.04903985588451657 0.04216301073924618 4:2 5:3 6:4 7:2 8:2 9:3 10:3 11:2 12:2 13:5 17:2 18:3 19:10 20:10 21:1 26:2 
-0.2683627404473677 -0.2883917843755577 -0.2584630829721108 0.2955545055484908 0.2757914435732678 0.2769870735408723 0.2444028294070593 0.2566669555455152 0.2208617116218222 6:2 7:3 8:4 9:2 10:2 11:2 12:2 13:2 14:2 15:4 17:1 18:3 19:10 20:10 21:1 
-0.04685311082769098 -0.04967611570432446 -0.04534794377396239 0.04979889137686488 0.04664308676113955 0.04824093366558859 0.04270000533182858 0.044717821758993 0.03918687268549271 3:1 4:1 5:1 6:3 7:4 8:5 9:2 10:2 11:2 12:2 13:2 14:2 15:4 17:1 18:3 19:10 20:10 21:1 26:6 
-0.2605156419075341 -0.292427846245201 -0.2292362982412036 0.3068380908466418 0.2645524907860964 0.2655278568885028 0.2073803061086261 0.2251031773732209 0.1886331003525139 1:1 2:1 3:1 4:1 5:1 7:2 8:4 9:4 10:2 11:2 12:2 13:2 14:3 15:2 16:4 17:1 18:4 19:10 20:10 21:1 26:6 
-1 -1 -1 1 1 1 1 1 0.9336278705039595 1:2 2:3 3:4 4:2 5:2 6:2 7:10 8:2 9:2 10:4 17:2 18:4 19:10 20:10 21:2 22:1 23:1 24:1 25:1 26:1 
-1 -1 -1 1 1 1 1 1 1 1:1 2:1 3:3 4:4 5:5 6:4 7:4 8:4 9:4 10:4 11:3 12:6 13:3 14:1 15:1 16:1 17:3 18:3 19:10 20:10 21:1 22:3 23:5 24:8 26:6 
-0.7244927122631932 -0.7602163259773088 -0.6767162950381885 0.7770448706206066 0.7233889463542079 0.7284665666394895 0.6371284841513729 0.6710727852497719 0.5840528936754 2:2 3:3 4:4 5:2 6:2 7:2 8:3 9:2 10:3 11:5 17:1 18:3 19:10 20:10 21:2 22:2 
-0.2073129668951205 -0.2219182986186267 -0.1974830893191302 0.2272521827708453 0.2111649113271354 0.2392982294937828 0.1864667680768266 0.1969610334758739 0.1693813886650215 1:3 2:4 3:2 4:2 5:2 6:3 7:2 8:2 9:4 17:1 18:4 19:9 20:9 21:1 
-0.5937980984084169 -0.6309036086312707 -0.5601576884211225 0.6456290440618223 0.5991945673134019 0.5977809212761457 0.5281951900194665 0.5552015585297084 0.4805786215190016 1:3 5:1 6:3 7:4 8:5 9:3 10:2 11:2 12:3 13:2 14:2 15:4 17:2 18:4 19:11 20:10 21:1 26:6 
-0.4087307327781656 -0.4350552889353415 -0.3876733715632744 0.4446122436775789 0.41319942075405 0.4182527091630293 0.365183405776009 0.3846452915972267 0.3331082781168546 5:2 6:3 7:4 8:2 9:2 10:2 11:2 12:2 13:2 14:4 17:1 18:3 19:10 20:10 21:1 
-0.6388483062941434 -0.6755380882757431 -0.6055251715390259 0.6892805506441027 0.6448100419168813 0.6444347287281599 0.5714422239704158 0.6012120976814346 0.5215764751085296 2:2 3:3 4:4 5:2 6:3 7:3 8:3 9:3 10:3 11:5 17:1 18:3 19:10 20:10 21:1 26:6 
-0.9462310149729067 -1 -0.8946273314330268 1 0.9554468411965885 0.954523074661125 0.8439680770960692 0.8879558381854453 0.7698268832670913 1:1 2:1 3:1 4:1 5:1 6:2 7:3 8:3 9:4 10:2 11:2 12:2 13:2 14:3 15:2 16:4 17:1 18:4 19:16 20:10 21:1 26:2 
-0.534942414322491 -0.5567866885013923 -0.4939066091623462 0.5692676984533537 0.5278468486530743 0.531706231592835 0.4643463221046934 0.4899587561421774 0.4269919390592036 6:3 7:4 8:4 9:2 10:2 11:2 12:2 13:3 14:3 15:5 17:3 18:4 19:10 20:10 21:1 26:2 
-1 -1 -1 1 1 1 1 1 0.9615161064173718 1:1 2:1 3:3 4:4 5:4 6:2 7:4 8:2 9:10 10:2 11:2 12:4 15:1 16:3 17:2 18:4 19:10 20:10 21:3 22:1 23:2 24:2 25:2 26:7 
-0.1621966546252252 -0.1733527594216046 -0.1555773191896406 0.1782146771056494 0.1645463266608758 0.1598235946111234 0.1473731206487195 0.1543376487695909 0.1314463475799718 6:1 7:2 8:4 9:5 10:2 11:2 12:2 13:2 14:2 15:2 16:4 17:1 18:3 19:10 20:11 21:1 26:2 
-1 -1 -1 1 1 1 0.9721256336522718 1 0.885019623488519 3:1 4:1 5:1 6:1 7:3 8:4 9:5 10:3 11:3 12:2 13:2 14:2 15:3 16:5 17:1 18:3 19:10 20:10 21:1 26:11 
-0.8505458524451973 -0.8317921581874601 -0.4973009189384967 -0.3782130120369194 0.8233624925511104 0.7985046909554016 0.4885746274217762 0.5675343596765754 0.5597863328744831 4:5 5:1 6:1 7:4 8:4 9:2 10:2 11:3 12:4 13:4 17:7 18:4 19:3 20:3 21:5 22:5 23:3 
-0.6362978374343191 -0.7792588657904561 -0.5590766910844522 -0.4146710342957878 0.6977452127398779 0.6501709678265671 0.5486388680206108 0.5672175901498945 0.414260053534955 2:1 3:5 4:1 5:1 6:4 7:4 8:2 9:3 10:3 11:4 12:4 16:6 17:7 18:4 19:3 20:3 21:6 22:6 23:4 24:1 25:1 26:3 
-0.1397474465062555 -0.2797119444555822 -0 -0 0 0.03671106632143731 0.1961878470098105 0.3980413023649102 0.1544263673073805 2:5 3:2 4:2 5:5 6:5 7:2 8:2 9:3 10:4 11:4 17:7 18:5 19:3 20:3 21:5 22:5 23:3 26:3 
-0.143426939257374 -0 -0 -0 0.2773355483938451 0.5834790507242323 0 0 0.0534896145174822 1:1 2:1 3:4 4:4 5:2 6:2 7:3 8:4 9:4 14:1 15:1 17:6 18:3 19:2 20:2 21:4 22:5 23:3 26:2 
-0 -0.2867859145465505 -0 -0 0 0 0 0 0 4:5 5:1 6:1 7:4 8:5 9:3 10:2 11:3 12:4 13:4 15:1 17:8 18:4 19:3 20:3 21:5 22:5 23:3 26:2 
-0.2676825151780976 -0.3538891737657519 -0.2788277349982814 -0.2121754078412083 0.3054730616296644 0.2908682046620162 0.231492288891238 0.2511524811033607 0.1591108907236397 3:1 7:5 8:1 9:1 10:5 11:4 12:2 13:2 14:3 15:10 16:4 17:7 18:4 19:4 20:4 21:5 22:5 23:4 24:1 25:1 26:3 
-0.6995632724602571 -0.8184634376569775 -0.577477748762658 -0.4192706917669649 0.802548524815106 0.862497365360048 0.5504269575144465 0.6940085245500706 0.9015803439279783 1:1 2:1 3:4 4:5 5:3 6:3 7:4 8:5 9:5 17:6 18:3 19:2 20:2 21:4 22:5 23:3 26:6 
-0.2128309839726848 -0.261782236975087 -0.293695057148853 -0.2131758221995429 0.2448619277534964 0.07863401030014194 0.2520689464455525 0.3122284416744557 0.4076879515213207 5:5 6:1 7:1 8:4 9:5 10:2 11:2 12:3 13:4 14:4 17:7 18:4 19:3 20:4 21:5 22:5 23:3 
-0.1689236326409002 -0.385887139726007 -0.1687468158451521 -0.1357914520849844 0.05665320405074593 0.2500012714581199 0.2841090225360714 0.1413924256233159 0.1626464450326437 5:5 6:1 7:1 8:4 9:6 10:4 11:2 12:3 13:4 14:4 17:7 18:4 19:3 20:4 21:5 22:5 23:3 24:1 26:2 
-0 -0 -0 -0 0 0 0 0 0.5214787831185054 5:5 6:2 7:1 8:4 9:4 10:3 11:3 12:3 13:4 14:4 17:7 18:4 19:3 20:3 21:5 22:5 23:3 26:3 
-0.9552096790064499 -1 -0.7472749606455173 -0.5731530165536407 0.8403942291938743 0.82522351375783 0.6737402514042924 0.7875413951278695 0.5507470301848525 1:5 2:1 3:1 4:4 5:4 6:2 7:2 8:3 9:4 10:4 12:10 13:1 17:9 18:5 19:4 20:4 21:6 22:6 23:4 24:1 25:1 26:1 
-0.5428896120675037 -0.6501341010696561 -0.3935296103281694 -0.3107575980753903 0.5001044969757609 0.5825219906185702 0.4126643686662805 0.4521268510158429 0.3633566750019777 1:10 2:1 3:5 4:1 5:1 6:4 7:4 8:2 9:3 10:3 11:4 12:4 17:8 18:5 19:4 20:4 21:6 22:6 23:4 24:1 25:1 26:3 
-0.8327241503948111 -0.9872223784235598 -0.8174483412886859 -0.6141053621789977 0.8582303226518547 0.8715736385992683 0.7024827575380741 0.789638445093659 0.5608956395047378 1:5 2:4 3:4 4:5 5:5 6:5 7:5 8:6 9:6 10:4 11:3 12:3 13:3 14:3 15:1 16:1 17:14 18:5 19:4 20:8 21:6 22:9 23:6 24:2 25:2 26:7 
-0.6035934574809417 -0.5179663881881278 -0.5364514823444897 -0.3925372288665213 0.7168513879249558 0.645368956385162 0.568407211644096 0.5392538682978113 0.5422737037010366 2:5 3:1 4:2 5:5 6:5 7:3 8:3 9:3 10:4 11:5 17:7 18:4 19:3 20:3 21:5 22:5 23:3 26:6 
-0.7703545189033216 -0.9041857126693484 -0.7494745997708671 -0.5701951688209055 0.8716209270931732 0.8073437710072526 0.9947531722283994 0.7715254805311993 0.634676625358588 1:1 2:1 3:2 4:7 5:2 6:2 7:5 8:4 9:2 10:2 11:3 12:5 13:5 14:1 15:1 16:1 17:7 18:4 19:3 20:3 21:5 22:12 23:8 26:2 
-0.8141027547036159 -0.965487226130133 -0.8407402754420933 -0.5858318301655392 0.8777992671823718 0.8280924356569178 0.7446764535882667 0.8065177229206777 0.5679250145472965 1:1 2:1 3:6 4:2 5:2 6:5 7:4 8:2 9:2 10:3 11:4 12:5 13:1 14:1 15:1 16:1 17:7 18:4 19:3 20:3 21:7 22:14 23:3 
-0.6897432198174657 -0.7036459028474812 -0.4468624299146972 -0.3434567269668101 0.4722878173180619 0.4793791014849727 0.4330363322272868 0.4195037252865648 0.3092309986992026 7:6 8:2 9:1 10:4 11:4 12:2 13:2 14:4 15:10 16:4 17:7 18:4 19:4 20:4 21:5 22:5 23:4 24:1 25:1 26:4 
-0.8389719390035925 -0.8809395180448595 -0.749913032757618 -0.5736430593623416 0.8449807919755693 0.9345418975108124 0.650779382749565 0.7109221152574049 0.5237281028352868 1:1 2:1 3:4 4:4 5:3 6:3 7:4 8:4 9:4 15:10 16:1 17:7 18:4 19:3 20:4 21:6 22:6 23:5 24:2 25:1 26:1 
-0.7046664043872058 -1 -0.4226083003333639 -0.2957712277680808 0.4145796010928631 0.6606533361568967 0.5960646352361549 0.7925990951317987 0.9539419245268852 1:1 2:1 3:4 4:4 5:2 6:2 7:4 8:4 9:4 17:6 18:4 19:2 20:2 21:4 22:5 23:3 
-0.7396072105261892 -0.8354901071710448 -0.6095327558754136 -0.4604714155402562 0.7786015906335821 0.7019502344321673 0.6088503349803183 0.6322539539561349 0.595206322505004 1:1 2:1 3:4 4:4 5:2 6:2 7:3 8:4 9:4 10:1 11:1 13:7 14:3 17:7 18:4 19:3 20:3 21:5 22:6 23:4 24:1 25:1 26:3 
-0.7398707217619469 -0.8419210369601171 -0.6526302565373421 -0.4976938930413093 0.7180095939219745 0.7112529285440393 0.6034499282085571 0.673925167844288 0.5677044091126379 2:5 3:1 4:1 5:4 6:4 7:3 8:3 9:4 10:5 11:5 12:10 14:1 17:8 18:5 19:4 20:4 21:6 22:6 23:4 24:1 25:1 26:7 
-0.7072193255159842 -1 -0.6858371699365128 -0.5138001502512332 0.7450447176282463 0.7216901653692243 0.7140217027466539 1 0.5508137053538449 7:5 8:1 9:1 10:4 11:4 12:8 13:5 14:4 15:4 16:4 17:8 18:5 19:4 20:4 21:6 22:5 23:3 24:1 25:1 26:3 
-0.6976596188594525 -0.8743906935542146 -0.6674340434558971 -0.5111061152183601 0.7162653239596855 0.7232932834076011 0.6098185670619412 0.6805430407858585 0.5317263757547248 2:5 3:1 4:1 5:4 6:4 7:3 8:3 9:5 10:5 11:6 12:10 17:9 18:6 19:5 20:6 21:6 22:7 23:5 24:1 25:1 26:1 
-0.8517867707376836 -1 -0.6260537862859475 -0.4732187118090315 0.7016187359082198 0.7350042873362247 0.6060684254271154 0.7282638637526214 0.6815913645177291 1:1 2:5 3:2 4:1 5:4 6:5 7:4 8:3 9:3 10:5 11:4 12:1 13:2 14:1 15:1 16:2 17:7 18:6 19:6 20:8 21:6 22:5 23:3 24:1 26:2 
-0.7716300599821866 -0.5554763684364169 -0.3965313042671222 -0.3039036252392538 0.6752899239647736 0.5630167265780243 0.3633958758682193 0.3755828035621301 0.3486526594965127 1:1 2:1 3:1 4:1 5:6 6:2 7:2 8:5 9:4 10:2 11:2 12:3 13:4 14:4 17:7 18:4 19:3 20:3 21:5 22:5 23:3 26:8 
-0.7610486702388648 -1 -0.7303103145705372 -0.5497735800539539 0.7715434245714334 0.7844661104701609 0.6654984777540159 0.760382887099526 0.5686617868467858 3:5 4:1 5:1 6:4 7:4 8:10 9:3 10:4 11:5 12:5 17:8 18:5 19:4 20:4 21:6 22:5 23:3 24:1 25:1 26:5 
-0.7693608824665032 -1 -0.7327718200488735 -0.5552878888445677 0.7865176440243398 0.9227642751225303 0.653316502215732 0.7542520434684367 0.5819387799207928 1:5 2:1 3:1 4:4 5:4 6:2 7:10 8:3 9:4 10:4 11:1 17:8 18:5 19:5 20:4 21:6 22:5 23:3 24:1 25:1 26:1 
-0.6617669773830023 -0.8553704574645958 -0.3155675140426202 -0.2997811180393792 0.07302554699591997 0.993105754832019 0.4461528765371721 0.2118706765825857 0.3858353409183631 1:5 2:1 3:1 4:5 5:5 6:2 7:2 8:3 9:4 10:4 17:7 18:4 19:3 20:3 21:5 22:5 23:3 26:2 
-0.4277134134343121 -0.4936528081962041 -0.4720825340640289 -0.3477554851964025 0.5176550106988588 0.423205461134645 0.5216877331115995 0.45032735402545 0.2926893346048436 1:10 2:1 3:6 4:1 5:2 6:5 7:4 8:2 9:2 10:3 11:4 12:4 17:8 18:5 19:4 20:4 21:7 22:7 23:4 24:1 25:1 26:3 
-0.69679780576315 -0.4165871464725761 -0.0443014751294165 -0.08339635480278357 0.3127617909032722 0.7064970407376512 0 0 0.1489452036019633 2:5 3:1 4:1 5:4 6:4 7:2 8:2 9:3 10:4 11:4 17:7 18:4 19:3 20:3 21:5 22:5 23:3 
-0 -0 -0.09756536450817897 -0.07138468320402448 0 0.1666705547659153 0 0 0 7:5 8:1 9:1 10:4 11:4 12:2 13:2 14:3 15:4 16:4 17:7 18:4 19:3 20:3 21:5 22:5 23:3 
-0.3613876513672908 -0.5033274563746399 -0.2823657264657528 -0.2091723407110854 0.3046848816355626 0.2458282473950492 0.3369975505001746 0.35651547187916 0.426712882781674 6:5 7:1 8:1 9:4 10:5 11:2 12:2 13:3 14:4 15:4 17:7 18:4 19:4 20:3 21:5 22:5 23:3 
-0.7584182270432885 -0.8756232039371755 -0.6843428731767144 -0.5273120407501349 0.7711190469318694 0.7782779383764615 0.6439615545088724 0.7731887871542736 0.5056210856081148 1:5 2:1 3:1 4:4 5:4 6:3 7:2 8:3 9:4 10:5 11:1 14:6 15:5 16:1 17:8 18:6 19:4 20:4 21:6 22:7 23:4 24:1 25:2 26:3 
-0.6398543083131579 -0.4796081240131126 -0.4453380145063995 -0.3434074163199737 0.3988034782817851 0.7011424983189084 0.4502034418226275 0.3997618337832864 0.5060160056529855 4:5 5:2 6:2 7:5 8:5 9:3 10:3 11:3 12:4 13:4 17:7 18:4 19:3 20:3 21:5 22:5 23:3 26:6 
-0.2538204524272487 -0.4593199591739527 -0.2256830786426201 -0.1697551127616466 0.2609445643714631 0.2205650710175536 0.4270236206575545 0.2900949231289411 0.2432058671290381 6:1 7:5 8:1 9:1 10:4 11:5 12:2 13:2 14:3 15:4 16:4 17:7 18:4 19:3 20:4 21:5 22:5 23:4 
-0.1451852618172645 -0 -0.1861300035922367 -0.1466504897066591 0.2167026209292748 0.4279307970381446 0.1570714465152097 0 0 6:7 7:1 8:1 9:4 10:4 11:2 12:2 13:3 14:4 15:4 17:7 18:4 19:3 20:3 21:5 22:6 23:3 26:1 
-0.7309172553163289 -0.8233245876976703 -0.6095051297630945 -0.4643690630514397 0.8374929619618627 0.7240156188219818 0.5725014646879025 0.6227571345473999 0.4332802262131619 2:5 3:1 4:1 5:4 6:4 7:3 8:2 9:3 10:4 11:5 12:1 15:7 17:8 18:5 19:4 20:4 21:6 22:6 23:4 26:3 
-0.8113480459795348 -0.9281828065426877 -0.7832586571038289 -0.5956689701693998 0.8620795301465818 0.8670417445448381 0.7281206077099958 0.8292785598556675 0.5965185835465738 1:2 2:2 3:5 4:5 5:3 6:3 7:5 8:6 9:6 10:2 11:3 12:2 13:1 14:1 15:2 16:1 17:6 18:3 19:2 20:2 21:5 22:7 23:7 24:5 25:6 26:6 
-0.2393602624153653 -0.4305065415934253 -0.1093105930474017 -0.07492543250721179 0.1557405056451105 0.08270261395666688 0.2196629583895796 0.4154476908259782 0.2948406139741974 6:5 7:1 8:1 9:4 10:4 11:2 12:3 13:5 14:4 15:4 17:7 18:5 19:3 20:3 21:5 22:5 23:3 26:2 
-0.5679834389713464 -0.9484010113968909 -0.5038614422457339 -0.3892519351651175 0.4796158436626922 0.5238947769600573 0.4981040563816226 0.7715024882831075 0.3599502557338318 1:2 2:1 3:1 4:1 5:1 6:1 7:5 8:1 9:1 10:4 11:4 12:2 13:2 14:3 15:4 16:4 17:9 18:8 19:4 20:3 21:5 22:5 23:3 
-0.3865951991483303 -1 -0.2668006698529172 -0.1252802169060563 1 0.08560646644043533 0.3833388103093361 0.9132439935469062 0.5112065941709218 1:5 2:1 3:1 4:4 5:5 6:3 7:2 8:4 9:4 10:4 17:7 18:4 19:3 20:3 21:6 22:5 23:3 26:2 
-0.5578247825640096 -0.8864073455940396 -0 -0 0.6595769437174388 0.370815740475914 0.2969475271893324 0.4472491028096063 0.693804884165043 7:5 8:2 9:2 10:4 11:4 12:2 13:2 14:3 15:4 16:4 17:7 18:4 19:3 20:3 21:5 22:5 23:3 26:2 
-0 -0 -0.155076327768849 -0.1119252066212556 0.1431921697306813 0.04445408963593684 0.009352239037373518 0 0 3:1 7:5 8:1 9:1 10:5 11:4 12:2 13:2 14:4 15:4 16:4 17:7 18:4 19:3 20:3 21:5 22:5 23:3 24:1 26:2 
-0.8351052888540108 -0.9643165424409945 -0.7828504328246516 -0.5993533143300952 0.8441544514474694 0.8594162391074283 0.684240936070747 0.7460036727488788 0.5506178698737202 1:1 2:1 3:1 4:1 5:10 6:1 7:6 8:2 9:2 10:4 11:4 12:2 13:2 14:3 15:4 16:4 17:8 18:5 19:4 20:4 21:6 22:6 23:4 24:1 25:1 26:9 
-0.1593084199837076 -0 -0 -0 0 0.1595293286990636 0 0 0.03704039612905918 6:5 7:1 8:1 9:4 10:4 11:2 12:2 13:3 14:4 15:4 17:7 18:4 19:3 20:3 21:5 22:5 23:3 
-0.06715706323812218 -0.7736803821657284 -0.03462228621819297 -0.01722730479666377 0.1260944930758117 0 0.1498059170783693 0.4471695340725946 0 1:1 6:6 7:2 8:2 9:4 10:4 11:2 12:2 13:3 14:4 15:5 16:1 17:9 18:4 19:3 20:3 21:6 22:6 23:3 26:2 
-0.1927305244244855 -1 -0.03281974341132113 -0 0.5719168606291875 0 0.2907963060494644 0.5644467357886176 0.6564963893037095 4:5 5:2 6:2 7:4 8:5 9:3 10:3 11:4 12:4 13:4 17:7 18:4 19:3 20:4 21:6 22:5 23:3 26:4 
-0.2317849193141786 -1 -0.1174115619770088 -0.03707462953685706 0.6811234840542659 0.0260735951305068 0.2816211129064486 0.3824004809855465 0 4:1 5:6 6:1 7:1 8:4 9:4 10:3 11:3 12:3 13:4 14:4 17:7 18:4 19:3 20:3 21:6 22:6 23:3 26:2 
-0 -0.2389082429572186 -0 -0 0 0 0 0 0 6:5 7:2 8:1 9:4 10:4 11:3 12:3 13:3 14:4 15:4 17:7 18:4 19:3 20:3 21:5 22:5 23:3 26:3 
-0.7732670605017952 -1 -0.848830209045945 -0.4934207809710021 0.9114954853008933 0.7301028608836279 0.7428725500129563 1 0.5825664676335107 1:6 2:2 3:3 4:5 5:4 6:3 7:3 8:4 9:4 10:4 11:1 12:1 13:1 14:1 15:2 16:1 17:7 18:6 19:6 20:6 21:8 22:9 23:3 
-0.09053835659259778 -0.5038499001920022 -0.4758244632290007 -0.2947219235747609 0.531881378487836 0.09016014463058214 0.6000095081466099 0.5989215826895281 0.4178571135372972 2:5 3:1 4:1 5:5 6:4 7:2 8:2 9:3 10:4 11:4 17:7 18:4 19:3 20:3 21:5 22:6 23:3 
-0.8500556150530076 -0.9432107938734737 -0.7122125552990641 -0.5440468139262037 0.8200140150193884 0.7781087520243134 0.6572624346398872 0.745594415528249 0.5118820615785937 4:5 5:1 6:1 7:4 8:4 9:3 10:3 11:3 12:4 13:4 15:10 17:8 18:5 19:4 20:4 21:6 22:6 23:4 24:1 25:1 26:3 
-0.6579155886824479 -0.7389807469899499 -0.6756760143127447 -0.5187870332954115 0.7133838076990919 0.9224579612402368 0.6202123890340816 0.6742655636812213 0.5308829514657765 1:1 2:1 3:10 4:4 5:2 6:2 7:3 8:5 9:4 17:6 18:4 19:2 20:2 21:4 22:6 23:5 24:1 25:1 26:1 
-0.9008922480183715 -1 -0.5534143049418188 -0.4050148508916984 0.8423292321931585 0.7286219589994063 0.5610910650306019 0.5648775000175581 0.5499909695897495 5:1 6:7 7:3 8:2 9:5 10:4 11:2 12:3 13:3 14:4 15:4 17:7 18:4 19:3 20:3 21:6 22:6 23:3 26:6 
-0.3001236374711315 -0.5850090146337239 -0.3680143530517313 -0.2826518799388745 0.2784639646631176 0.3356944352620614 0.3211590184559168 0.3748096600624686 0.4308180230402219 5:5 6:1 7:2 8:5 9:5 10:4 11:3 12:4 13:5 14:4 17:8 18:4 19:3 20:3 21:5 22:5 23:3 26:7 
-0.9279584071428935 -0.9500612089380049 -0.8009674078409803 -0.6085635439601188 0.872713672533122 0.8630688600593608 0.691182012877264 1 0.5554500829530729 1:5 2:2 3:2 4:5 5:4 6:3 7:3 8:4 9:4 10:4 11:1 12:1 13:1 14:1 15:1 16:2 17:9 18:15 19:3 20:3 21:5 22:5 23:3 
-0.8165456257326488 -0.8820690469984934 -0.7461640366224692 -0.5691985157957913 0.8019925100274665 0.8629998028136956 0.6413233644978403 0.6943561942058268 0.510222152750583 2:5 3:2 4:1 5:4 6:4 7:2 8:2 9:3 10:4 11:4 12:1 13:1 15:1 16:10 17:8 18:5 19:4 20:5 21:6 22:6 23:5 24:1 25:1 26:3 
-0.8233523247445292 -0.9784802001460435 -0.3429018904774828 -0.2502861323975205 0.7402963900237839 0.8332565062686003 0.4871967424252632 0.5573026255205396 0.6697835478629031 3:5 4:1 5:2 6:4 7:4 8:2 9:2 10:3 11:4 12:5 17:7 18:4 19:3 20:3 21:5 22:5 23:3 26:2 
-0.1162078585321632 -0.3862247158957762 -0.1896022801828596 -0.1550310318423173 0.1060321619080887 0.1357473889770306 0.075657190422849 0.02758983852529579 0.1766279371642674 6:5 7:1 8:1 9:4 10:4 11:3 12:3 13:3 14:4 15:5 16:2 17:9 18:4 19:3 20:4 21:5 22:5 23:3 26:2 
-0.3636905671314364 -0.919453607394174 -0.3269401080583244 -0.2515123205299721 0.3969255527248369 0.3510341774969777 0.3268789223159984 0.409094255864437 0.5090201273435365 3:5 4:1 5:1 6:4 7:4 8:3 9:3 10:4 11:5 12:5 13:1 16:1 17:8 18:4 19:3 20:3 21:5 22:5 23:3 26:6 
-0.02320734999767095 -0 -0 -0 0 0.01266948749836068 0.04748422415851418 0 0.06870676500229535 6:5 7:1 8:2 9:5 10:5 11:3 12:2 13:3 14:4 15:4 17:7 18:4 19:3 20:3 21:5 22:5 23:3 26:4 
-0 -0.5197106856937125 -0 -0 0.1788945070090518 0.2558269410616664 0 0 0.2777961532589206 2:5 3:1 4:1 5:4 6:4 7:3 8:3 9:4 10:5 11:4 17:7 18:4 19:3 20:3 21:5 22:5 23:3 26:4 
-0.4765522746091869 -0.3111864397146405 -0.1379013458641347 -0.1395903429472882 0.178954198801403 0.628404959524357 0.1028149508295013 0.2197297013495465 0.1307178715779867 5:5 6:1 7:1 8:4 9:4 10:2 11:2 12:3 13:4 14:4 17:7 18:4 19:3 20:3 21:5 22:5 23:3 
-0 -0 -0 -0 0 0.01190987454738432 0 0 0 5:5 6:1 7:2 8:5 9:4 10:2 11:2 12:3 13:4 14:4 17:7 18:4 19:3 20:3 21:5 22:5 23:3 26:2 
-0.8149815660257518 -0.9201578934263545 -0.7851190627126046 -0.6015480333590051 0.8396538798688722 0.8547227952943669 0.696236037053393 0.7524392782221584 0.5564053071368282 1:2 2:2 3:5 4:6 5:2 6:2 7:3 8:8 9:6 10:1 11:1 12:1 13:2 14:3 15:4 16:2 17:8 18:4 19:5 20:4 21:5 22:13 23:9 24:2 
-0.8945649037353789 -0.9796370666840769 -0.8183672821009323 -0.6162962839108215 -1 0.8542081228200126 0.7321335259471877 0.7973948237875998 0.6238377757996053 5:5 6:3 7:2 8:2 9:2 10:2 11:2 12:2 13:4 14:6 16:7 17:5 18:3 19:3 20:4 21:8 22:8 23:4 26:2 
-0.8579907691368839 -0.675778588088856 -0.5433298744880877 -0.4012175513219038 -0.735056398252818 0.6810443908616329 0.5083981245903619 0.5665759154095377 0.4126444235233654 2:1 3:1 4:6 5:4 6:3 7:3 8:2 9:2 10:2 11:2 12:3 13:5 17:4 18:2 19:2 20:3 21:7 22:7 23:3 26:6 
-0.6222711390653036 -0.9092361099351703 -0.7110351814966605 -0.5048392349770995 -0.8646520263675873 0.6935480115072844 0.5410575465240235 0.674011651235911 0.5462258712039534 1:5 2:3 3:2 4:2 5:2 6:2 7:3 8:8 9:3 10:5 17:5 18:3 19:4 20:4 21:8 22:7 23:3 26:1 
-0.2268014694725948 -0.04333220651511994 -0.09365059228419732 -0.1004237207567742 -0.2232566962192694 0.1841492891996236 0 0.05465502196056532 0.06148373506225634 3:1 4:1 7:5 8:3 9:2 10:2 11:2 12:2 13:2 14:2 15:3 16:5 17:4 18:2 19:2 20:3 21:7 22:7 23:3 26:2 
-0.8193465093528699 -0.9085391121339143 -0.8882749039329763 -0.4695858437988316 -0.8133211958146279 0.7135011061210627 0.6662002182042871 0.7075015999360884 0.6063564843045389 1:3 2:3 3:2 4:2 5:4 6:7 7:2 8:3 9:6 17:4 18:2 19:2 20:3 21:7 22:7 23:4 24:1 26:2 
-0.335681239954105 -0.2645870194457685 -0.2358500554638398 -0.2162877416591225 -0.3174834581747312 0.4648101046619248 0.1489352767372046 0.1778048382499626 0.07312218019586035 2:1 6:1 7:6 8:3 9:2 10:2 11:2 12:2 13:2 14:2 15:3 16:5 17:4 18:2 19:2 20:3 21:7 22:7 23:3 26:3 
-0.7437113784273244 -0.5778066536149578 -0.4694246390495664 -0.3732798417734126 -0.6310358427819857 0.6144999484584887 0.4386393141553834 0.5212579406048301 0.3856274436149251 3:6 4:4 5:3 6:3 7:3 8:3 9:2 10:2 11:3 12:5 17:4 18:2 19:2 20:3 21:7 22:7 23:3 26:6 
-0.9577764029208683 -1 -0.8659156469554897 -0.6808200962648672 -1 0.9822215923515785 0.7899915473496082 0.8627365141757033 0.6640888955613697 2:5 3:3 4:2 5:2 6:2 7:2 8:2 9:2 10:4 11:6 15:10 17:5 18:3 19:3 20:4 21:8 22:8 23:4 24:1 25:1 26:3 
-0.8879444814615862 -0.9295675043244174 -0.8700286456151076 -0.5776296301847116 -1 0.8337559241722422 0.7569501791121295 0.8297298756798598 0.6766557402797438 7:5 8:3 9:2 10:8 11:4 12:2 13:2 14:2 15:3 16:5 17:4 18:3 19:4 20:4 21:7 22:7 23:3 24:1 25:1 26:2 
-0.1447528162015555 -0.321957295591212 -0.2449663092529264 -0.07515928724080381 -0.362288303788637 0.1437680351796693 0.1745303196798981 0.1656114583365803 0.3078652485630303 3:5 4:3 5:2 6:2 7:3 8:3 9:3 10:4 11:3 12:5 17:4 18:2 19:2 20:3 21:7 22:7 23:3 25:1 26:4 
-0 -0 -0 -0.004677373690941233 -0 0 0 0 0 2:5 3:3 4:2 5:2 6:2 7:2 8:2 9:2 10:3 11:5 17:4 18:2 19:2 20:3 21:7 22:7 23:3 
-0.9236401921939491 -1 -0.853546386970326 -0.6607190450377157 -1 0.9654454224929788 0.7891109825589425 0.8757888127748363 0.6581171284242551 2:10 3:5 4:3 5:3 6:3 7:2 8:2 9:2 10:2 11:3 12:5 13:1 17:5 18:3 19:3 20:5 21:8 22:8 23:4 24:1 25:1 26:3 
-0.9794504387958041 -1 -0.9033125267807146 -0.7104359762286827 -1 0.9910025906214571 0.8224298402336254 0.9016699228773878 0.6989697630814754 1:1 2:7 3:1 4:1 5:6 6:4 7:4 8:3 9:3 10:3 11:3 12:3 13:4 14:6 15:1 16:1 17:4 18:2 19:2 20:4 21:9 22:8 23:4 24:1 25:3 26:14 
-0.5735047290618926 -0.6013864318090113 -0.5093898840843158 -0.3719898446875599 -0.7824183151908619 0.6143355245674874 0.4914189013752503 0.5101265132210281 0.519170726984473 1:3 2:2 3:2 4:3 5:3 6:4 7:3 8:4 9:6 12:1 17:3 18:1 19:1 20:2 21:6 22:7 23:4 24:1 26:6 
-1 -0.6113559134602413 -0.2045729688652257 -0.07091903446817151 -0.7038588343688361 0.2819557085435397 0.3389685687634254 0.5327176099453462 0.3116937563277794 4:5 5:4 6:2 7:2 8:3 9:2 10:2 11:2 12:3 13:5 17:4 18:3 19:3 20:3 21:7 22:7 23:3 
-0.9719815976235621 -1 -0.9092737363132085 -0.7107308799021803 -1 0.9918426421564382 0.822487453697353 0.8994718894923817 0.7129379448152864 2:2 3:1 4:1 5:1 6:1 7:6 8:4 9:3 10:3 11:3 12:4 13:3 14:3 15:4 16:7 17:4 18:2 19:2 20:3 21:7 22:7 23:4 24:5 25:11 26:1 
-0.9859138543466355 -1 -0.8255841724905804 -0.6364839002647281 -1 0.9072834856286459 0.9901836712981188 1 0.8639577276164784 1:3 2:1 4:5 5:3 6:3 7:3 8:3 9:4 10:4 11:3 12:4 13:5 14:1 15:1 16:1 17:10 18:7 19:5 20:3 21:7 22:7 23:3 26:2 
-0.500622034234777 -0.4226271095253262 -0.2906802785334032 -0.1838320880079045 -0.5577159578668419 0.383635111176556 0.2823705760020422 0.3181234386854859 0.3321452457415474 5:5 6:3 7:2 8:2 9:2 10:2 11:3 12:3 13:3 14:5 17:4 18:2 19:2 20:3 21:7 22:7 23:3 26:2 
-0.7938317930975548 -0.839786873119672 -0.6854074020409835 -0.5408370300618464 -0.8606917480093448 0.7518482908326848 0.6279388831766791 0.6999954254558426 0.5311897269076162 1:10 6:1 7:6 8:4 9:3 10:3 11:3 12:2 13:2 14:3 15:4 16:5 17:5 18:3 19:3 20:5 21:8 22:8 23:4 24:2 25:1 26:7 
-0.1806521240787965 -0.2979223926172064 -0.3218806895428974 -0.2191769376956053 -0.1821894221701625 0.2964536505393111 0.2293532394266655 0.1746490734763916 0.2288319242306326 4:5 5:4 6:2 7:2 8:2 9:2 10:3 11:2 12:3 13:5 17:4 18:2 19:2 20:4 21:7 22:7 23:3 24:1 
-0.9742483556259773 -1 -0.9048857590665624 -0.7121077213764866 -1 0.993850968480676 0.8238142827224243 0.9009674771669768 0.6968146991283322 1:1 2:6 3:4 4:3 5:3 6:3 7:3 8:3 9:3 10:5 11:6 12:1 13:1 14:2 15:9 16:1 17:5 18:3 19:3 20:4 21:8 22:8 23:4 24:2 25:13 26:4 
-0 -0 -0 -0 -0.07849435489272283 0.1914059937258205 0 0 0.08096214280492271 1:5 2:3 3:2 4:3 5:3 6:2 7:2 8:2 9:3 10:5 17:4 18:2 19:2 20:3 21:7 22:7 23:3 26:2 
-0.6120825267686983 -0.3321897804129958 -0.2961556121309891 -0.1795709575300709 -0.4763629272574199 0.5267064361506776 0.2780678672495997 0.3032636389672176 0.3737799653659572 1:3 2:2 3:3 4:2 5:2 6:2 7:2 8:3 9:5 10:1 17:3 18:1 19:1 20:2 21:6 22:7 23:3 26:2 
-1 -1 -0.9393602631111115 -0.713583717003575 -1 1 0.8481044407810034 1 0.7117007968122975 1:4 2:4 3:4 4:5 5:4 6:4 7:4 8:4 9:5 10:1 13:1 14:1 15:1 16:1 17:3 18:14 19:2 20:2 21:6 22:7 23:3 26:6 
-0.9957448619758383 -1 -0.9573185846149725 -0.6888338082525796 -1 0.9643882194504926 0.8257003463510709 0.9560954761447953 0.7280970363802501 6:5 7:3 8:2 9:4 10:4 11:3 12:10 13:3 14:4 15:5 17:5 18:3 19:4 20:5 21:8 22:7 23:3 24:1 25:1 26:6 
-0.5210542095389107 -0.5586430703961985 -0.6006520358441902 -0.4453445041633423 -0.719402428457152 0.6798164912529897 0.4907038666543131 0.472863455199777 0.4170139973346201 2:5 3:3 4:2 5:2 6:3 7:3 8:4 9:3 10:4 11:6 17:4 18:2 19:2 20:3 21:7 22:7 23:3 24:1 26:6 
-0.05546704305611384 -0 -0.001380005242747864 -0 -0.003893494198148065 0 0 0 0 2:5 3:3 4:2 5:2 6:2 7:2 8:2 9:2 10:3 11:5 17:4 18:2 19:2 20:3 21:7 22:7 23:3 
-0.419177797148988 -0.3328040120092947 -0.264721691300605 -0.1630107283808906 -0.5170761509131721 0.2419457270129702 0.2837936374900614 0.2358111397782937 0.3048787064094178 5:5 6:4 7:3 8:3 9:3 10:3 11:2 12:2 13:4 14:5 17:4 18:2 19:2 20:3 21:7 22:7 23:3 26:6 
-1 -1 -0.7202324109434923 -0.4949368571388151 -1 0.8401535887377735 0.8717142605044429 0.8793734081397476 0.7952743973008067 2:1 4:2 5:1 6:5 7:5 8:5 9:3 10:2 11:2 12:2 13:2 14:3 15:5 17:5 18:4 19:2 20:3 21:7 22:7 23:4 24:2 25:1 26:3 
-0.9858510829442401 -0.9814350805424131 -0.8038005725337813 -0.6191986625801476 -0.9924492211358632 0.8752071707142985 0.7789223660653839 0.8469888930490016 0.6478444577841016 1:5 2:3 3:2 4:2 5:2 6:2 7:3 8:4 9:7 10:10 11:1 12:1 17:5 18:3 19:3 20:4 21:7 22:8 23:4 24:1 25:1 26:6 
-0 -0 -0 -0 -0.006473335164121711 0 0 0 0 1:5 2:3 3:2 4:2 5:2 6:2 7:3 8:2 9:3 10:5 17:4 18:2 19:2 20:3 21:8 22:7 23:3 
-0.6851486927426994 -0.1313630203889907 -0.08214221622995586 -0.09339449473817059 -0.2839321586884995 0.1869769898533623 0.140914189115781 0.1176701785416338 0.04829751166813873 1:5 2:3 3:2 4:2 5:3 6:2 7:2 8:2 9:4 10:6 17:4 18:2 19:3 20:3 21:7 22:7 23:3 26:2 
-0.2572217055674398 -0.177810350693414 -0.1816229731196176 -0.1035983321453334 -0.1641655378762543 0.1716675260366078 0.1191184648337923 0.1292225678404191 0.1265732990978299 4:5 5:3 6:3 7:2 8:2 9:2 10:2 11:2 12:3 13:5 16:2 17:4 18:2 19:2 20:4 21:7 22:7 23:3 25:1 26:1 
-0 -0 -0 -0 -0 0.1185443305029338 0 0 0 6:1 7:6 8:3 9:2 10:2 11:2 12:2 13:2 14:2 15:3 16:5 17:4 18:2 19:2 20:3 21:7 22:7 23:3 26:2 
-0 -0 -0.01178150268902283 -0 -0.02125365628197829 0 0 0 0 4:5 5:3 6:2 7:2 8:2 9:2 10:2 11:2 12:3 13:5 17:4 18:2 19:2 20:3 21:7 22:7 23:3 
-0.2144147435763986 -0.1663124188654734 -0.1671059352080197 -0.1133691081967207 -0.1637215702251837 0.1948822959913585 0.1102116134439725 0.1336051763316211 0.1414312868897075 4:2 5:6 6:4 7:3 8:3 9:2 10:2 11:3 12:2 13:3 14:5 17:4 18:2 19:2 20:3 21:7 22:7 23:3 25:1 26:6 
-0.8352176516477922 -0.5481200031747832 -0.4080595767737139 -0.341232773365601 -0.4753872382553232 0.6384902608220303 0.3968619946893661 0.4502515498782222 0.323176244478076 3:5 4:3 5:3 6:2 7:2 8:2 9:2 10:2 11:3 12:6 17:4 18:2 19:2 20:3 21:7 22:7 23:3 26:2 
-1 -1 -0.7719228223255862 -0.5789839144788536 -1 0.8207081029764995 0.8314166324992633 1 0.9069500878573492 1:1 4:5 5:4 6:3 7:4 8:4 9:3 10:3 11:3 12:4 13:5 14:1 15:1 16:1 17:4 18:5 19:7 20:7 21:7 22:7 23:3 26:2 
-0.7601284497793225 -0.8859393514320004 -0.8960441840349692 -0.5761399431594677 -0.9145943996092161 0.7853727564339426 0.7621709749434451 0.7718678670245406 0.6063061581054975 1:5 2:3 3:4 4:3 5:3 6:3 7:4 8:4 9:3 10:6 11:1 12:1 13:1 14:1 15:1 16:1 17:4 18:2 19:2 20:3 21:10 22:11 23:6 26:6 
-0.9716484543503333 -1 -0.9101252729332616 -0.710312756711854 -1 0.9949392631099397 0.8601981732689702 0.9101124034124561 0.8208014845020116 1:1 2:2 3:6 4:5 5:3 6:5 7:4 8:3 9:2 10:2 11:5 12:6 13:2 14:1 15:1 16:1 17:5 18:2 19:3 20:4 21:7 22:7 23:13 24:4 26:4 
-0.9844616552292452 -0.6323926934222217 -0.5941246787684299 -0.4164039244757018 -0.7883040936570157 0.7237161033439883 0.4983708717456064 0.5324666139133485 0.4344694681979808 2:5 3:3 4:2 5:2 6:2 7:2 8:2 9:2 10:3 11:5 17:4 18:2 19:2 20:3 21:7 22:7 23:3 
-0.2388867088602523 -0.6059239072112401 -0.3336817890108472 -0.1352491433686114 -0.5502252893280982 0.1753197614933621 0.485847683784325 0.4297129780851959 0.3591120567348934 7:5 8:3 9:2 10:2 11:3 12:3 13:2 14:2 15:3 16:5 17:4 18:2 19:2 20:3 21:7 22:7 23:3 26:2 
-0.1031943155310567 -0.1354152300251238 -0.08369850682368775 -0.08230481123834296 -0.09127814821446451 0.08196413144287547 0.03801095172060915 0.07423737863217726 0 1:3 2:2 3:2 4:2 5:2 6:2 7:2 8:4 9:6 10:1 11:1 17:3 18:1 19:1 20:2 21:6 22:7 23:3 26:4 
-0.8735133388223775 -0.9319319592654373 -0.7446627706712806 -0.5750319516316423 -0.9053012625299894 0.8356006388684772 0.7024914111411859 0.7577774469557449 0.6568981728758976 7:6 8:9 9:2 10:2 11:2 12:2 13:2 14:2 15:3 16:5 17:4 18:3 19:3 20:4 21:7 22:7 23:4 24:1 25:1 26:1 
-0.0094678813870222 -0 -0.02025754662559414 -0 -0.1577337254235989 0 0 0 0.1349562517998766 4:5 5:3 6:4 7:3 8:3 9:3 10:2 11:2 12:3 13:5 17:4 18:2 19:2 20:4 21:7 22:7 23:3 26:4 
-0.7256314538069556 -0.753530086661184 -0.2112493762348286 -0.09426741687662599 -0.6600463937106883 0.3714241623298405 0.4225318839188907 0.5107059179669572 0.4693991224634269 2:5 3:3 4:2 5:2 6:2 7:3 8:3 9:3 10:4 11:5 12:1 13:2 17:5 18:4 19:2 20:3 21:7 22:7 23:3 26:4 
-1 -1 -0.852209137218178 -0.6578128395975633 -1 0.936303515217912 0.8412501414295934 0.9288041777143492 0.6475356024458249 3:1 5:5 6:3 7:2 8:2 9:2 10:2 11:3 12:3 13:3 14:5 15:10 17:5 18:3 19:3 20:4 21:8 22:8 23:4 24:1 25:1 26:4 
-0 -0.01992477721971775 -0.02427332432801276 -0 -0.2744680686998093 0.09320735577774526 0.04064443374898688 0 0.02067828269423284 3:5 4:3 5:2 6:2 7:3 8:2 9:2 10:2 11:3 12:5 14:1 17:4 18:2 19:2 20:3 21:7 22:7 23:3 26:2 
-0 -0 -0.04652801256015632 -0.1210850390123624 -0.1000717744213195 0.1454732550136102 0 0 0 4:5 5:3 6:2 7:2 8:2 9:2 10:2 11:2 12:3 13:5 17:4 18:2 19:2 20:3 21:7 22:7 23:3 
-0.7454663251039297 -0.7599776287561127 -0.1558022321810484 -0.08870334961421728 -0.6264342992261556 0.4088038034209586 0.4395725024040544 0.4924483521141065 0.5325647237869049 1:5 2:4 3:2 4:2 5:3 6:3 7:2 8:4 9:3 10:5 17:5 18:3 19:3 20:4 21:7 22:7 23:3 24:1 
-0.2365233348217766 -0.287722361861666 -0.1729266476905965 -0.1682142993939023 -0.3227618496885157 0.2598727539367504 0.1613919146381241 0.1765760587076235 0.06983054878053671 2:1 3:1 4:1 5:6 6:4 7:2 8:2 9:3 10:2 11:2 12:2 13:3 14:5 17:4 18:2 19:2 20:3 21:7 22:7 23:3 26:6 
-0.0527340771323499 -0.258079833872205 -0.4633022870319534 -0.2596348771560806 -0.1642059572209448 0.1660504617331061 0.1532975434977029 0.218190171777622 0.07736609571563483 1:5 2:3 3:2 4:2 5:2 6:2 7:3 8:2 9:3 10:5 17:4 18:2 19:2 20:3 21:8 22:7 23:3 
-1 -1 -0.8343558811093539 -0.6497265901528713 -1 1 0.8187450046977709 0.847822072212547 0.6903611479066688 1:10 2:5 3:4 4:3 5:2 6:2 7:2 8:2 9:2 10:3 11:5 17:5 18:3 19:3 20:4 21:8 22:8 23:4 24:1 25:1 26:3 
-0.07347556485966844 -0 -0 -0 -0 0 0 0 0 5:5 6:4 7:3 8:2 9:2 10:2 11:2 12:2 13:3 14:5 17:4 18:2 19:2 20:3 21:7 22:7 23:3 26:2 
-0.6752249742570434 -0.7709883249418875 -0.6251801697512291 -0.4824280935848404 -0.7858943552413011 0.6944191503534823 0.563889579875509 0.6276288245902902 0.479533456887983 1:9 2:1 7:5 8:3 9:2 10:3 11:3 12:2 13:2 14:2 15:3 16:5 17:4 18:3 19:4 20:4 21:8 22:8 23:4 24:1 25:1 26:3 
-0.8747064378191793 -0.7480895089131167 -0.6210824517689276 -0.4260082391699492 -0.6495348197111451 0.624092980920937 0.5683213627259044 0.6266806865364827 0.602061106181847 5:5 6:6 7:6 8:2 9:2 10:2 11:3 12:3 13:3 14:5 17:4 18:3 19:3 20:4 21:8 22:7 23:3 24:1 25:1 26:3 
-0.04874111246311835 -0 -0 -0 -0 0 0 0 0 2:5 3:3 4:2 5:2 6:3 7:2 8:2 9:2 10:4 11:6 17:4 18:2 19:2 20:3 21:7 22:7 23:3 26:3 
-0.2178096755232851 -0 -0 -0 -0 0 0 0 0.133213518522327 7:5 8:4 9:3 10:2 11:2 12:2 13:2 14:2 15:3 16:5 17:4 18:2 19:2 20:3 21:7 22:7 23:3 26:2 
-0.3864639187364145 -0.3407318194552367 -0.2443802177840086 -0.1892323363543058 -0.4790823919904004 -0.3420334978634973 0.2461732116104003 0.2635500827026914 0.2936093488707611 5:7 6:2 7:2 8:2 9:2 10:2 11:2 12:2 13:1 14:1 17:4 18:3 19:3 20:3 21:3 22:4 23:3 
-0.6576536632955389 -0.5768704490775534 -0.4796348857546792 -0.374380234804201 -0.634642527076511 -0.557831459574793 0.4605210761652498 0.4798562404559758 0.4297949114571926 5:7 6:3 7:2 8:2 9:2 10:2 11:2 12:2 13:1 14:1 15:4 17:4 18:3 19:4 20:3 21:3 22:4 23:4 24:1 25:1 26:1 
-0.5824792433771028 -0.3920277220803355 -0.3079657048365144 -0.2445786759350085 -0.3789419754267711 -0.3855585446658301 0.3221974330071936 0.3236447136939797 0.3663009222111491 3:7 4:2 5:2 6:2 7:2 8:2 9:2 10:3 11:1 12:1 17:4 18:3 19:4 20:3 21:3 22:4 23:3 
-0.8546179878661132 -1 -0.8000338345328928 -0.6208037059092861 -1 -0.912395100813931 0.7497604617378659 0.8077482194763947 0.7587942931670183 2:8 3:2 4:2 5:2 6:2 7:2 8:9 9:5 10:1 11:1 17:5 18:3 19:4 20:4 21:4 22:5 23:4 24:1 25:1 26:3 
-0.4764308522746253 -0.3907587414728564 -0.3475272851749363 -0.2765324129171989 -0.3376404599879103 -0.3936283560339074 0.2913811154071843 0.327051840534635 0.3827318678324431 1:2 2:3 3:2 4:2 5:2 6:2 7:2 8:1 9:1 17:3 18:2 19:2 20:2 21:2 22:3 23:2 24:1 
-0.2976912488393355 -0.08084766498037124 -0.003084737807004888 -0 -0.2783148205911588 -0.4761135297988377 0.02200254156600752 0.02695661069461407 0 1:1 7:7 8:2 9:2 10:2 11:2 12:2 13:2 14:2 15:2 16:2 17:4 18:3 19:3 20:3 21:4 22:4 23:3 26:2 
-0.356928036604043 -0.3340649756192338 -0.2748284049513235 -0.2158497198946668 -0.4501134416236496 -0.340808679789957 0.2687192975509068 0.2745961838633045 0.331808671456042 5:1 6:8 7:3 8:3 9:3 10:3 11:2 12:2 13:2 14:1 15:1 17:4 18:3 19:3 20:3 21:3 22:4 23:3 26:6 
-0.7315311855858798 -0.7520992241709779 -0.6294718360336652 -0.487368440410836 -0.8611730461803646 -0.7437420223628631 0.5877447889742721 0.6302188642203798 0.5119565255082658 2:7 3:2 4:2 5:2 6:2 7:2 8:2 9:2 10:1 11:1 14:4 15:6 17:5 18:4 19:4 20:4 21:4 22:5 23:4 24:1 25:1 26:1 
-1 -1 -0.8181333132380243 -0.6339318463907514 -1 -1 0.8168405607936332 0.8402039171641656 0.6794859771800134 2:7 3:2 4:2 5:2 6:3 7:3 8:2 9:2 10:9 11:2 17:4 18:4 19:4 20:4 21:4 22:5 23:4 24:1 25:1 26:3 
-0.9219695911266398 -0.7569423019629293 -0.4823075847944228 -0.3211718040656715 -0.9776733768287502 -0.7859637833758347 1 0.8095040891539577 1 1:3 2:4 3:5 4:3 5:4 6:3 7:4 8:3 9:3 10:2 11:2 12:1 17:5 18:4 19:4 20:4 21:4 22:6 23:5 24:3 26:2 
-0 -0 -0 -0 -0.3123551737726823 -0 0 0 0 3:7 4:3 5:2 6:2 7:2 8:3 9:3 10:2 11:1 12:1 17:4 18:3 19:3 20:3 21:3 22:4 23:3 26:3 
-0 -0 -0 -0 -0 -0 0 0 0.0588394029839685 6:7 7:2 8:2 9:2 10:2 11:3 12:3 13:2 14:1 15:1 17:4 18:3 19:3 20:3 21:3 22:4 23:3 26:2 
-0.0534635442536705 -0 -0 -0 -0 -0 0 0 0 5:7 6:3 7:2 8:2 9:2 10:2 11:2 12:2 13:2 14:1 17:4 18:3 19:3 20:3 21:3 22:4 23:3 26:2 
-0.4011253526463202 -0.4326142061992025 -0.3772004250610295 -0.3055376890729226 -0.4407779498751685 -0.2235212143995732 0.3491277692419648 0.3674126710680151 0.4295021830530782 7:7 8:2 9:2 10:2 11:2 12:2 13:3 14:3 15:1 16:1 17:4 18:3 19:4 20:4 21:3 22:4 23:3 
-1 -0.6738134927233813 -0.4782578197159522 -0.3714621748897137 -0.6281950561084357 -0.7094040365504389 0.4850747236330821 0.5113425485798627 0.682763257940631 1:6 2:7 3:2 4:2 5:2 6:2 7:2 8:2 9:3 10:2 11:2 12:1 17:5 18:4 19:4 20:4 21:4 22:5 23:3 26:4 
-0.9105060414118131 -0.6212788060617884 -0.3581689095081187 -0.2734109613297027 -0.8886430856065979 -0.4390017530228179 0.4911058453858206 0.4914497662988302 0.5740611300081319 6:7 7:2 8:2 9:2 10:2 11:2 12:2 13:2 14:2 15:1 17:4 18:4 19:3 20:3 21:3 22:4 23:3 
-0 -0.1096043176052414 -0.2251738375110964 -0.1762244765664851 -0 -0.2480945751795876 0.0817039465679989 0.1191403768877221 0 6:7 7:2 8:2 9:2 10:2 11:2 12:2 13:2 14:1 15:1 17:4 18:3 19:3 20:3 21:3 22:4 23:3 
-1 -1 -0.8491131227418111 -0.6610085154967462 -1 -1 0.8073576999578344 0.8576112665595758 0.6667467286325752 3:7 4:2 5:2 6:2 7:2 8:2 9:2 10:2 11:1 12:9 13:1 17:4 18:4 19:4 20:4 21:4 22:5 23:4 24:1 25:1 26:1 
-0.1377073572669665 -0.3119123332430675 -0.2027695046295924 -0.1567994331408527 -0.3205117173740825 -0.2270068894662682 0.2014131984680274 0.2205061007418214 0.01043826953738769 4:8 5:2 6:2 7:3 8:3 9:3 10:3 11:2 12:1 13:1 17:4 18:3 19:3 20:3 21:3 22:4 23:3 24:1 26:4 
-1 -0.5468552961889586 -0.2513261278832297 -0.2018583645028994 -0.670822827535641 -0.417440122480113 0.358321451151192 0.3676331531297056 0.8063425977138904 1:7 2:2 3:2 4:2 5:3 6:3 7:3 8:3 9:4 10:2 13:1 14:1 17:5 18:4 19:3 20:4 21:3 22:4 23:4 24:1 25:1 26:4 
-0.9966457037440933 -1 -0.9136050752017404 -0.7206039312122614 -1 -0.9977905121660743 0.8495181858305891 0.9102392307167732 0.6817539511789886 1:3 2:3 3:4 4:3 5:9 6:4 7:3 8:3 9:4 10:3 11:2 12:10 13:1 14:1 17:4 18:6 19:8 20:6 21:4 22:5 23:5 24:4 25:4 26:7 
-0.8193211551912998 -0.6171030275094842 -0.4756001781228847 -0.367236815738461 -0.8086287386153643 -0.6744760684241494 0.4663167222431447 0.4960394829815226 0.4994482882973245 4:7 5:2 6:2 7:2 8:2 9:2 10:2 11:2 12:1 13:1 17:4 18:3 19:3 20:3 21:3 22:4 23:3 
-0.1790219266116102 -0 -0.004322463818373154 -0.007563998048664707 -0.007968131319653808 -0.07045516498125665 0 0 0 1:2 2:2 3:2 4:2 5:2 6:2 7:2 8:1 9:2 10:1 11:1 12:1 17:3 18:2 19:2 20:2 21:2 22:3 23:2 26:4 
-0.7567065486003373 -0.8122447215701976 -0.6825176810638297 -0.531888587906441 -0.8894901748532439 -0.7417358676183785 0.6277237236592736 0.6779768859512748 0.5206942887319959 2:7 3:2 4:2 5:2 6:2 7:2 8:2 9:2 10:1 11:1 14:2 15:5 16:5 17:6 18:4 19:5 20:4 21:3 22:4 23:3 24:1 25:2 26:3 
-1 -1 -0.9092483727894354 -0.7032690207668149 -1 -1 0.842097912066475 0.901841093048348 0.6849996202421955 6:7 7:2 8:2 9:3 10:2 11:3 12:3 13:2 14:1 15:2 16:10 17:5 18:4 19:4 20:5 21:4 22:5 23:5 24:1 25:1 26:3 
-0 -0 -0 -0 -0.160265867457754 -0 0 0 0.2564666609762508 4:7 5:2 6:2 7:3 8:3 9:3 10:3 11:2 12:1 13:1 17:4 18:3 19:3 20:3 21:3 22:4 23:3 26:4 
-0.8868005638504906 -0.8701738943493101 -0.7144040236863098 -0.5534963733548536 -0.9263671206941306 -0.8006849591577916 0.6788578838425405 0.7303293195803853 0.6034972314341668 4:7 5:10 6:2 7:3 8:3 9:2 10:2 11:2 12:1 13:1 17:5 18:4 19:4 20:4 21:4 22:4 23:3 24:1 25:1 26:3 
-0.7757380238772017 -0.7140416915080177 -0.5725103105960558 -0.4278678352487099 -0.7847059821981669 -0.7674913924584208 0.5450297256439794 0.601794259760235 0.6533505383084572 7:7 8:4 9:5 10:2 11:2 12:2 13:2 14:2 15:1 16:1 17:4 18:3 19:4 20:4 21:5 22:4 23:3 24:1 
-0.06795942494016669 -0.07446675806919824 -0.04486366321050712 -0.03501833287655778 -0.1449917387620834 -0.009570067870244361 0.07276366255781418 0.06158067436370533 0.234709059805785 7:7 8:2 9:3 10:3 11:3 12:3 13:3 14:2 15:1 16:1 17:4 18:3 19:3 20:4 21:3 22:4 23:3 26:4 
-0.2624652420345678 -0.233626437391865 -0.2313398298737689 -0.1826127777803041 -0.2487466679855677 -0.2826154209749638 0.170544802483636 0.1944155070572123 0.05962250777409481 1:8 2:2 3:2 4:2 5:2 6:2 7:2 8:2 9:1 10:2 11:1 12:1 13:1 17:4 18:3 19:3 20:3 21:3 22:4 23:3 24:1 26:4 
-0.6235244833655008 -0.5782650626932481 -0.4931293289981312 -0.3872137661033266 -0.5652564376676683 -0.5625518515330906 0.4494730490545023 0.4947164242883965 0.3114359555209676 3:1 4:1 5:1 6:9 7:3 8:3 9:2 10:2 11:2 12:2 13:2 14:2 15:1 17:4 18:4 19:3 20:3 21:3 22:4 23:3 24:1 26:6 
-0.3063045095746393 -0.3031412194446738 -0.2607582839996943 -0.203167757057253 -0.3805929248097674 -0.3011454633232457 0.2342225185048226 0.2526094631617558 0.1697582245999515 2:1 3:1 4:1 5:1 6:1 7:8 8:2 9:2 10:2 11:2 12:2 13:2 14:2 15:1 16:1 17:4 18:3 19:3 20:3 21:3 22:4 23:3 26:6 
-0.1171200563880168 -0.1148070939760599 -0.04500089456084193 -0.03120437623238138 -0.2663257173163686 -0.1128184799512248 0.06280246590648601 0.05261849309647645 0.1525695121967787 3:1 6:7 7:2 8:2 9:2 10:3 11:3 12:3 13:2 14:1 15:1 17:4 18:3 19:3 20:3 21:3 22:4 23:3 26:4 
-0.009753315297632731 -0.07720075617082019 -0.01336502540027435 -0.01381386823257509 -0.09320588127952011 -0.06089843396453318 0 0.014734102233517 0.1867798440666553 2:1 3:8 4:2 5:2 6:3 7:2 8:2 9:2 10:3 11:2 12:1 17:5 18:3 19:3 20:3 21:3 22:4 23:3 24:1 26:3 
-0 -0 -0 -0 -0 -0 0 0 0.04348075555080982 4:1 5:7 6:2 7:2 8:2 9:2 10:2 11:3 12:2 13:1 14:1 17:4 18:3 19:3 20:3 21:3 22:4 23:3 26:2 
-0.009807478515180556 -0 -0 -0 -0.006240357722241232 -0.01082331796502342 0 0 0 1:2 2:2 3:2 4:2 5:2 6:2 7:2 8:1 9:1 17:3 18:2 19:2 20:2 21:2 22:3 23:2 
-0.3550615010595753 -0.2736769735008271 -0.2834665044516234 -0.2191103726992056 -0.3298251899614422 -0.3319708782649359 0.2352592239869465 0.2608673863992204 0.2804688259209171 1:7 2:2 3:2 4:2 5:2 6:2 7:3 8:3 9:2 10:2 11:1 14:1 17:4 18:3 19:3 20:3 21:3 22:4 23:3 26:6 
-0.8431115379005383 -0.5681882027881315 -0.4852164269030706 -0.4650246811602192 -0.6241224752542082 -0.4932791216420158 0.430689111800461 0.4806364051472561 0.5000206618583354 1:2 2:2 3:3 4:2 5:2 6:3 7:4 8:2 9:1 12:1 13:1 14:1 15:1 16:1 17:3 18:6 19:5 20:5 21:2 22:3 23:2 
-0.9657695761519743 -1 -0.8491467121328617 -0.6500074689689469 -1 -0.9303183540212621 0.8175752219901824 0.8826244235448546 0.7320026830151805 3:5 4:6 5:10 6:7 7:2 8:2 9:2 10:2 11:2 12:2 13:2 14:1 15:1 17:6 18:5 19:5 20:5 21:5 22:6 23:5 24:2 25:2 26:3 
-0.6126396823683853 -0.5278481810132849 -0.4490864262225853 -0.3464197165608303 -0.6901265081380112 -0.6210872674958881 0.4298685096387261 0.4575449518647022 0.5773159215416475 3:7 4:2 5:2 6:3 7:3 8:3 9:3 10:3 11:1 12:1 13:1 17:4 18:3 19:3 20:3 21:3 22:4 23:3 26:6 
-0.47099640388368 -0.439548834667809 -0.3423457595187783 -0.2673638783958994 -0.6075145327319428 -0.5262191620044867 0.3230897468596414 0.3467988049254244 0.2874602704643165 2:7 3:2 4:2 5:2 6:2 7:3 8:3 9:3 10:2 11:2 12:1 17:4 18:3 19:3 20:3 21:3 22:4 23:3 26:6 
-0 -0 -0 -0 -0 -0 0 0 0.2271440658652285 2:7 3:3 4:2 5:2 6:2 7:3 8:3 9:3 10:2 11:2 17:4 18:3 19:4 20:3 21:3 22:4 23:3 26:5 
-0.9742444925782699 -1 -0.9159057967227294 -0.7122887551657786 -1 -1 0.8464248930754881 0.9168023047719411 0.6917903118884551 1:1 2:1 3:1 4:1 5:1 6:7 7:3 8:3 9:5 10:4 11:3 12:3 13:2 14:1 15:1 16:1 17:16 18:3 19:3 20:4 21:3 22:4 23:3 26:2 
-0.05324377209878781 -0 -0 -0 -0 -0 0 0 0 2:1 3:7 4:2 5:2 6:2 7:2 8:2 9:2 10:3 11:2 12:1 17:4 18:3 19:4 20:3 21:3 22:4 23:3 26:2 
-0.873643843096466 -0.9765959313250402 -0.811993081534952 -0.6324911941079644 -1 -0.8961212764334077 0.7718524943835864 0.8149013873897396 0.6820948806734488 5:7 6:2 7:2 8:10 9:2 10:2 11:2 12:2 13:1 14:1 15:1 17:5 18:4 19:4 20:4 21:3 22:4 23:4 24:1 25:1 26:2 
-0.2232425918006067 -0.2356137898557701 -0.236070674102618 -0.1739110416099102 -0.4381244142569387 -0.2703113083000062 0.1763145116108296 0.2152499456845742 0.1410284538107887 3:7 4:2 5:3 6:3 7:2 8:2 9:2 10:2 11:1 12:1 17:4 18:3 19:3 20:3 21:3 22:4 23:3 24:2 
-0.8917993765689217 -0.9249037411858875 -0.7359441201714231 -0.5697489696311852 -0.9705498051706621 -0.8067224319228314 0.6820359370597274 0.7963799347007532 0.719616097365546 3:7 4:10 5:3 6:3 7:3 8:3 9:2 10:2 11:1 12:1 17:5 18:4 19:4 20:4 21:4 22:4 23:3 24:1 25:1 26:5 
-1 -1 -0.9013657060186262 -0.7008661714572253 -1 -1 0.8328023085825542 0.8996449222126884 0.6711431084871723 3:7 4:3 5:4 6:3 7:3 8:4 9:2 10:2 11:2 12:1 14:1 15:10 17:5 18:5 19:4 20:4 21:5 22:5 23:4 24:2 25:1 26:7 
-0.9583557959839067 -1 -0.8767688804394724 -0.681948790127099 -1 -0.9674253987149255 0.8084575252383811 0.872694333964642 0.6516855292007342 1:7 2:3 3:2 4:2 5:2 6:2 7:2 8:2 9:1 10:1 14:2 15:10 17:6 18:4 19:4 20:5 21:4 22:5 23:5 24:1 25:1 26:1 
-0.7757773596455018 -0.8714086701711792 -0.7594541146449314 -0.5917865424883988 -0.9281930758975324 -0.8028406964315206 0.685778850991607 0.7440619028366666 0.5591449768572674 1:3 2:3 3:10 4:4 5:2 6:3 7:3 8:1 9:1 17:4 18:3 19:3 20:3 21:2 22:3 23:4 24:1 25:1 26:6 
-0.6676380546836069 -0.4698962036804785 -0.3989606521830403 -0.309488838186016 -0.5209701324348467 -0.5621991723879548 0.3783076852220739 0.4025997345854931 0.4199826593184557 3:1 4:8 5:3 6:3 7:3 8:2 9:2 10:3 11:2 12:1 13:1 17:4 18:3 19:3 20:3 21:3 22:4 23:3 26:6 
-0.4919665380919852 -0.5456264134533527 -0.4560626181187816 -0.3532227875663996 -0.5045589965474003 -0.492726007993708 0.4285427340948265 0.4458873200397144 0.4113351695206551 6:1 7:8 8:3 9:3 10:3 11:3 12:2 13:2 14:2 15:1 16:1 17:4 18:3 19:3 20:3 21:3 22:4 23:3 26:6 
-0.9760062014642674 -1 -0.923212820192529 -0.7146803208165812 -1 -1 0.8473119218137788 0.9119603943644575 0.6799658539713977 1:1 2:1 3:8 4:2 5:2 6:2 7:4 8:4 9:3 10:3 11:2 12:2 13:10 14:4 15:3 16:4 17:5 18:5 19:5 20:5 21:5 22:16 23:5 24:2 25:2 26:5 
-0.5066264020150102 -0.356792525107169 -0.2958619648449552 -0.2314094419039806 -0.4333622412543465 -0.380255074197859 0.2674516776866874 0.2904166385504287 0.2702948898286473 2:8 3:2 4:2 5:2 6:2 7:2 8:2 9:3 10:1 11:1 17:4 18:3 19:3 20:3 21:3 22:4 23:3 26:2 
-0.9406893824627535 -1 -0.8171443646334637 -0.6344971045126782 -1 -0.9218138030487695 0.7821940326487216 0.8260188863824118 0.6303853096259199 1:10 4:7 5:2 6:2 7:2 8:2 9:2 10:2 11:2 12:1 13:1 17:5 18:4 19:4 20:4 21:4 22:5 23:4 24:1 25:1 26:1 
-0.5527582839518439 -0.4687281200923648 -0.3755705920245024 -0.2889111630717545 -0.5764019105667305 -0.5298932722542455 0.3578787876565084 0.3744900822996906 0.364268696417784 5:8 6:3 7:3 8:3 9:2 10:2 11:2 12:2 13:1 14:1 17:4 18:3 19:3 20:3 21:3 22:4 23:3 26:4 
-0.8033425853043422 -0.9107567161628443 -0.7630454903250042 -0.5880689198747823 -1 -0.8423580136677546 0.6996123501657184 0.7439470018902131 0.7398127978911597 1:7 2:2 3:2 4:2 5:2 6:2 7:9 8:3 9:1 10:1 17:4 18:3 19:4 20:4 21:4 22:5 23:4 24:1 25:1 26:1 
-0.08622112989079345 -0.1538309043845885 -0.1115772144826541 -0.06947480573605069 -0.2851408911431084 -0.119471342449819 0.1244519728690154 0.1267180777415 0.007196920279092842 1:2 2:2 3:2 4:2 5:2 6:2 7:2 8:1 9:1 17:3 18:2 19:2 20:2 21:2 22:3 23:2 
-0 -0 -0 -0 -0 -0 -0 0 0.6934258315596082 4:4 5:4 6:4 7:3 8:5 9:5 10:3 11:4 12:4 13:4 17:6 18:6 19:3 20:3 21:5 22:8 23:6 26:3 
-0 -0 -0 -0 -0 -0 -0 0 0.1137947595946972 2:1 3:1 5:4 6:4 7:3 8:3 9:5 10:5 11:2 12:3 13:4 14:4 17:6 18:6 19:3 20:3 21:5 22:8 23:6 26:2 
-0.7634583461631504 -0.94874103071704 -0.7577455133650512 -0.6120560381217992 -0.9035403783245003 -0.7436977677011345 -0.783433740269554 0.9756793115469783 0.5790981186778281 2:1 3:1 4:1 5:1 6:1 7:4 8:4 9:4 10:4 11:6 12:5 13:2 14:3 15:4 16:5 17:7 18:6 19:4 20:3 21:5 22:8 23:6 26:7 
-0 -0 -0 -0 -0 -0 -0 0.2412465933597547 0.2646967400466128 1:4 2:4 3:4 4:3 5:5 6:5 7:3 8:4 9:4 10:4 17:6 18:6 19:3 20:3 21:5 22:8 23:6 26:3 
-0.2341080026206575 -0.2388461582862311 -0.1778991550291767 -0.1433566318522924 -0.4179211391747839 -0.2789870308428898 -0.1886019141433186 0.2422259200016562 0.5368600654439092 3:1 7:4 8:4 9:3 10:4 11:5 12:5 13:2 14:4 15:5 16:4 17:6 18:6 19:3 20:4 21:5 22:8 23:6 24:1 26:2 
-1 -1 -0.969752901025847 -0.7848272632301716 -1 -1 -1 1 0.7985489281027793 4:10 5:4 6:5 7:4 8:4 9:6 10:6 11:3 12:3 13:4 14:4 17:7 18:7 19:4 20:4 21:6 22:9 23:7 24:1 25:1 26:7 
-0.7170746133743343 -0.8336335403722974 -0.6476224811630634 -0.5188536639712599 -0.8207767258793304 -0.7042645706960792 -0.6922486848163297 0.8076784957111451 0.6813877498067851 3:4 4:4 5:3 6:3 7:5 8:5 9:5 10:6 11:5 12:7 13:2 14:1 15:1 17:6 18:7 19:5 20:4 21:5 22:9 23:7 24:1 25:1 26:6 
-0.9527604102483583 -1 -0.9005887178965508 -0.7126016960918706 -1 -1 -0.9476842424893587 1 0.9095296372688715 4:4 5:4 6:3 7:3 8:5 9:5 10:10 11:3 12:4 13:4 17:7 18:7 19:4 20:4 21:6 22:8 23:6 24:1 25:1 26:1 
-0 -0.0643110297155884 -0.01284664359626901 -0.01360868726460676 -0.005949198961627264 -0 -0 0.6081013217310716 0 1:4 2:3 3:3 4:5 5:5 6:2 7:4 8:4 9:4 17:6 18:6 19:2 20:2 21:4 22:8 23:6 
-0.6365764792609373 -0.714782752146061 -0.5944201284787799 -0.4721388806248089 -0.8899498012049969 -0.7312310331744262 -0.648244743334074 0.6746813028182516 0.7565413918443528 3:4 4:5 5:4 6:3 7:5 8:5 9:2 10:3 11:4 12:4 13:4 14:3 15:1 17:6 18:6 19:3 20:3 21:6 22:9 23:7 24:3 25:1 26:3 
-1 -1 -1 -0.7558810988013839 -1 -1 -0.9986611431289182 1 0.7567209490286722 1:1 2:4 3:4 4:4 5:5 6:6 7:6 8:3 9:4 10:4 11:4 12:1 13:2 14:2 16:1 17:7 18:7 19:3 20:3 21:12 22:9 23:6 26:4 
-0.1801958120685248 -0.4883157243406761 -0.08815749778442648 -0.07379203065230984 -0.4364660299357028 -0.347015013636121 -0.09156723393138307 0.3221602295194378 0.2655879553553723 4:4 5:4 6:3 7:3 8:5 9:5 10:2 11:4 12:5 13:4 17:6 18:6 19:3 20:3 21:5 22:8 23:6 26:2 
-1 -1 -1 -0.8273040973887377 -1 -1 -1 1 0.8432600834674213 2:10 4:5 5:4 6:3 7:3 8:5 9:5 10:3 11:4 12:4 13:4 17:7 18:8 19:4 20:4 21:6 22:9 23:7 24:1 25:1 26:3 
-0.3711078750846887 -0.5367782964978731 -0.2867817109592904 -0.2238175579498035 -0.2930918564710007 -0.3075848982933728 -0.2888326254866568 0.4269360731965768 0.7829012821023036 5:4 6:5 7:3 8:3 9:5 10:5 11:3 12:3 13:4 14:4 17:6 18:6 19:4 20:4 21:5 22:8 23:6 
-0.04999904759627436 -0.09292828594215335 -0.03331191214823451 -0.03142928572147879 -0 -0 -0.04411598757715625 0.3176506633672897 0 2:1 6:1 7:5 8:4 9:4 10:3 11:5 12:5 13:2 14:4 15:4 16:4 17:6 18:7 19:3 20:3 21:5 22:8 23:6 24:1 26:3 
-0 -0.006403622086435306 -0 -0 -0 -0 -0 0 0 4:1 5:5 6:4 7:3 8:3 9:5 10:5 11:2 12:3 13:4 14:4 17:6 18:6 19:3 20:3 21:5 22:8 23:6 26:2 
-0 -0.1267616443006302 -0 -0 -0.02041845551148364 -0 -0 0 0 2:4 3:4 4:3 5:3 6:6 7:5 8:3 9:3 10:5 11:5 17:6 18:6 19:4 20:3 21:5 22:8 23:6 26:3 
-0 -0 -0 -0 -0 -0 -0 0.3059512041441546 0 4:4 5:4 6:4 7:4 8:5 9:5 10:2 11:3 12:4 13:4 17:6 18:6 19:3 20:3 21:5 22:8 23:6 26:2 
-0.4607939295729204 -0.5131017830902224 -0.4074756061402574 -0.318360095427732 -0.5171445503728123 -0.5378856814705572 -0.4417202861520686 0.5490717752944301 0.8209894504297236 4:4 5:5 6:4 7:4 8:6 9:6 10:2 11:3 12:4 13:4 14:2 15:1 17:6 18:6 19:5 20:4 21:5 22:8 23:6 24:1 25:2 26:2 
-0.4349319332878698 -0.4941461200747231 -0.365300212392138 -0.2799194297466426 -0.4520584374495336 -0.5132442104064716 -0.4276875485504431 0.3952681690075753 0.6633682133437976 2:1 5:4 6:5 7:4 8:3 9:5 10:5 11:2 12:3 13:4 14:4 17:6 18:6 19:3 20:3 21:5 22:8 23:6 26:3 
-0 -0.1195499768604458 -0.002287936900139604 -0.0007711946721874145 -0 -0 -0 0.5634293570051212 0 7:4 8:4 9:3 10:3 11:5 12:6 13:2 14:3 15:4 16:4 17:6 18:6 19:3 20:3 21:6 22:8 23:6 
-0 -0.03493674241252894 -0 -0 -0 -0 -0 0 0 4:4 5:4 6:3 7:3 8:5 9:6 10:3 11:3 12:4 13:4 17:6 18:6 19:3 20:3 21:5 22:8 23:6 26:2 
-1 -1 -0.9797329150408532 -0.7853138301398387 -1 -1 -1 1 0.8016410571037025 1:10 2:4 3:4 4:3 5:3 6:5 7:5 8:3 9:4 10:5 11:5 12:1 13:1 17:7 18:7 19:4 20:4 21:6 22:9 23:7 24:1 25:1 26:7 
-0 -0.01147029787470183 -0 -0 -0 -0 -0 0 0 1:4 2:4 3:3 4:3 5:5 6:5 7:2 8:3 9:4 10:4 17:6 18:6 19:3 20:3 21:5 22:8 23:6 
-0 -0 -0 -0 -0 -0 -0.001869154472084574 0.07387157108198873 0 2:4 3:4 4:3 5:3 6:5 7:5 8:2 9:3 10:4 11:4 17:6 18:6 19:3 20:3 21:5 22:8 23:6 
-0.4794833337927923 -0.4987149034586695 -0.4123930512962202 -0.3797242803185334 -0.4593515720948921 -0.3981562559423372 -0.4326610739532112 0.02654626136809256 0.02761436447915461 2:4 3:5 4:4 5:4 6:6 7:6 8:2 9:3 10:5 11:4 17:6 18:6 19:3 20:3 21:5 22:8 23:6 26:6 
-1 -1 -0.9652325177052268 -0.7791510511713053 -1 -1 -1 1 0.782177093060493 5:4 6:4 7:3 8:4 9:5 10:5 11:2 12:3 13:4 14:5 15:10 16:1 17:8 18:7 19:4 20:4 21:7 22:9 23:7 24:1 25:1 26:2 
-0.7141403664172312 -0.8331830259064468 -0.6724984338508365 -0.5412958832200395 -0.8067637655643674 -0.7407184036723502 -0.7148655384085713 0.7112731607537539 0.5069830842060079 6:5 7:5 8:3 9:4 10:5 11:5 12:3 13:5 14:5 15:6 16:1 17:6 18:7 19:3 20:4 21:5 22:9 23:7 24:1 25:3 26:2 
-0.7645950071157994 -0.754119035023502 -0.6421590593840655 -0.5235208594019845 -0.8037423022448988 -0.7093012886415497 -0.7073384399221032 0.8538281273554211 0.6455331042603969 3:2 4:5 5:5 6:4 7:4 8:6 9:5 10:2 11:3 12:8 13:4 17:6 18:6 19:5 20:4 21:5 22:8 23:7 24:1 26:6 
-1 -1 -1 -0.864991859408822 -1 -1 -1 1 0.8827582610019638 1:1 2:1 3:1 4:2 5:5 6:6 7:6 8:5 9:6 10:8 11:3 12:5 13:5 14:5 15:1 16:1 17:7 18:6 19:4 20:3 21:5 22:8 23:6 24:2 25:13 26:7 
-0 -0 -0 -0 -0 -0 -0 0 0.3516671454425368 2:4 3:4 4:3 5:3 6:5 7:5 8:2 9:3 10:5 11:4 12:1 13:1 17:6 18:6 19:3 20:4 21:5 22:8 23:6 26:2 
-0.03072819102545693 -0.01037776860927578 -0.1176682085788124 -0.01835786796544241 -0.1214415796034257 -0.07794449138373379 -0.147583032973865 0.861504568556226 0.526905908801945 2:4 3:5 4:4 5:4 6:6 7:6 8:3 9:3 10:4 11:4 17:6 18:6 19:3 20:3 21:5 22:8 23:6 26:6 
-1 -1 -1 -0.8089798708687128 -1 -1 -1 1 0.845406717049982 1:10 3:4 4:4 5:3 6:3 7:6 8:5 9:2 10:3 11:4 12:4 17:7 18:7 19:5 20:4 21:6 22:9 23:7 24:1 25:1 26:1 
-0 -0.03553071957692792 -0 -0 -0 -0 -0 0.2444144997546281 0.5304780603275322 3:4 4:4 5:3 6:3 7:5 8:5 9:3 10:4 11:4 12:4 17:6 18:6 19:3 20:3 21:5 22:8 23:6 26:2 
-0 -0.3253900266363072 -0 -0 -0.2105627177887932 -0.04948515576933471 -0.01655999588431661 0 0 3:1 6:4 7:4 8:3 9:3 10:6 11:5 12:2 13:3 14:4 15:4 17:6 18:6 19:3 20:3 21:5 22:8 23:6 26:2 
